{"learner":{"attributes":{"scikit_learn":"{\"_estimator_type\": \"classifier\"}"},"feature_names":["total_yards","def_yards_allowed","turnovers","possession_time","pass_yards","rush_yards","third_down_pct","redzone_pct","point_diff","ypp"],"feature_types":["int","int","int","int","int","int","float","float","int","float"],"gradient_booster":{"model":{"gbtree_model_param":{"num_parallel_tree":"1","num_trees":"100"},"iteration_indptr":[0,1,2,3,4,5,6,7,8,9,10,11,12,13,14,15,16,17,18,19,20,21,22,23,24,25,26,27,28,29,30,31,32,33,34,35,36,37,38,39,40,41,42,43,44,45,46,47,48,49,50,51,52,53,54,55,56,57,58,59,60,61,62,63,64,65,66,67,68,69,70,71,72,73,74,75,76,77,78,79,80,81,82,83,84,85,86,87,88,89,90,91,92,93,94,95,96,97,98,99,100],"tree_info":[0,0,0,0,0,0,0,0,0,0,0,0,0,0,0,0,0,0,0,0,0,0,0,0,0,0,0,0,0,0,0,0,0,0,0,0,0,0,0,0,0,0,0,0,0,0,0,0,0,0,0,0,0,0,0,0,0,0,0,0,0,0,0,0,0,0,0,0,0,0,0,0,0,0,0,0,0,0,0,0,0,0,0,0,0,0,0,0,0,0,0,0,0,0,0,0,0,0,0,0],"trees":[{"base_weights":[-3.6954203E-1,-1.1874034E-1,-8.4202486E-1,7.210478E-1,-4.9307224E-1,-3.119056E-1,-2.0335777E-2,1.092535E0,-2.0335777E-2,-7.605421E-1,3.0203032E-1,-4.0651947E-2,4.7246882E-1,6.415333E-2,-9.8541814E-1,-4.0651947E-2,-3.2277304E-1],"categories":[],"categories_nodes":[],"categories_segments":[],"categories_sizes":[],"default_left":[0,0,0,0,0,0,0,0,0,0,0,0,0,0,0,0,0],"id":0,"left_children":[1,3,5,7,9,-1,-1,11,-1,13,-1,-1,-1,-1,15,-1,-1],"loss_changes":[2.846322E0,5.8273053E0,1.2238016E0,1.7656965E0,5.833739E0,0E0,0E0,2.5727339E0,0E0,2.6847906E0,0E0,0E0,0E0,0E0,5.734863E-1,0E0,0E0],"parents":[2147483647,0,0,1,1,2,2,3,3,4,4,7,7,9,9,14,14],"right_children":[2,4,6,8,10,-1,-1,12,-1,14,-1,-1,-1,-1,16,-1,-1],"split_conditions":[3.67E2,9.4E1,5.4545456E-1,1.875E3,3.13E2,-3.119056E-1,-2.0335777E-2,6E-1,-2.0335777E-2,1.636E3,3.0203032E-1,-4.0651947E-2,4.7246882E-1,6.415333E-2,4.58E0,-4.0651947E-2,-3.2277304E-1],"split_indices":[1,5,6,3,4,0,0,7,0,3,0,0,0,0,9,0,0],"split_type":[0,0,0,0,0,0,0,0,0,0,0,0,0,0,0,0,0],"sum_hessian":[2.3863434E1,1.640611E1,7.4573236E0,4.772687E0,1.1633425E1,5.667566E0,1.7897576E0,2.9829292E0,1.7897576E0,1.0291106E1,1.3423182E0,1.0440253E0,1.938904E0,1.938904E0,8.352202E0,1.0440253E0,7.308177E0],"tree_param":{"num_deleted":"0","num_feature":"10","num_nodes":"17","size_leaf_vector":"1"}},{"base_weights":[-2.9952365E-1,3.68221E-1,-4.6607387E-1,1.2948163E0,-2.3479974E-1,-9.968152E-2,-3.0727455E-1,6.690671E-2,5.541924E-1,-7.199617E-1,2.1720104E-1,-2.5955907E-1,-3.222476E-2,5.52923E-1,-5.286753E-1,1.0526237E0,-4.963851E-3,-2.023423E-1,-2.9912481E-2,3.57253E-2,4.762433E-1,-2.0713241E-1,1.5126443E-1],"categories":[],"categories_nodes":[],"categories_segments":[],"categories_sizes":[],"default_left":[0,0,0,0,0,0,0,0,0,0,0,0,0,0,0,0,0,0,0,0,0,0,0],"id":1,"left_children":[1,3,5,7,-1,9,-1,-1,-1,11,13,-1,-1,15,17,19,21,-1,-1,-1,-1,-1,-1],"loss_changes":[2.7480068E0,6.5409355E0,3.780118E0,1.5114541E0,0E0,2.6267095E0,0E0,0E0,0E0,3.057444E-1,2.5676856E0,0E0,0E0,1.8883646E0,1.4112133E-1,1.5924969E0,1.8095185E0,0E0,0E0,0E0,0E0,0E0,0E0],"parents":[2147483647,0,0,1,1,2,2,3,3,5,5,9,9,10,10,13,13,14,14,15,15,16,16],"right_children":[2,4,6,8,-1,10,-1,-1,-1,12,14,-1,-1,16,18,20,22,-1,-1,-1,-1,-1,-1],"split_conditions":[2.42E2,1.7E1,1.847E3,4.2857143E-1,-2.3479974E-1,-4E0,-3.0727455E-1,6.690671E-2,5.541924E-1,9.7E1,3.67E2,-2.5955907E-1,-3.222476E-2,1.662E3,4.15E2,3.39E2,6E0,-2.023423E-1,-2.9912481E-2,3.57253E-2,4.762433E-1,-2.0713241E-1,1.5126443E-1],"split_indices":[1,8,3,7,0,8,0,0,0,5,1,0,0,3,1,0,8,0,0,0,0,0,0],"split_type":[0,0,0,0,0,0,0,0,0,0,0,0,0,0,0,0,0,0,0,0,0,0,0],"sum_hessian":[2.2166254E1,4.1833215E0,1.7982933E1,2.248202E0,1.9351192E0,1.1568088E1,6.4148445E0,1.2421627E0,1.0060395E0,3.481408E0,8.086679E0,2.480758E0,1.0006504E0,5.755017E0,2.3316631E0,2.568025E0,3.1869915E0,1.3130549E0,1.0186081E0,1.3807312E0,1.1872939E0,1.2066109E0,1.9803805E0],"tree_param":{"num_deleted":"0","num_feature":"10","num_nodes":"23","size_leaf_vector":"1"}},{"base_weights":[-2.465997E-1,3.0629402E-1,-3.9827818E-1,-5.256049E-1,3.441951E-1,-9.091926E-2,-2.8511027E-1,-1.9647059E-1,-3.6464762E-2,-2.3559509E-1,1.2235788E-1,3.553721E-1,-4.9405625E-1,7.04147E-1,-3.155292E-1,-1.9047996E-1,-2.7150495E-2,-8.4358215E-2,3.2801545E-1,1.0448413E-1,-2.1910788E-1],"categories":[],"categories_nodes":[],"categories_segments":[],"categories_sizes":[],"default_left":[0,0,0,0,0,0,0,0,0,0,0,0,0,0,0,0,0,0,0,0,0],"id":2,"left_children":[1,3,5,7,-1,9,-1,-1,-1,-1,11,13,15,17,19,-1,-1,-1,-1,-1,-1],"loss_changes":[1.9387804E0,4.2615213E0,2.8721256E0,9.3562484E-2,0E0,1.9185393E0,0E0,0E0,0E0,0E0,1.6520293E0,2.1037579E0,1.2663317E-1,2.4552946E0,1.2019114E0,0E0,0E0,0E0,0E0,0E0,0E0],"parents":[2147483647,0,0,1,1,2,2,3,3,5,5,10,10,11,11,12,12,13,13,14,14],"right_children":[2,4,6,8,-1,10,-1,-1,-1,-1,12,14,16,18,20,-1,-1,-1,-1,-1,-1],"split_conditions":[2.42E2,2E0,1.847E3,1E0,3.441951E-1,-8E0,-2.8511027E-1,-1.9647059E-1,-3.6464762E-2,-2.3559509E-1,3.84E2,8.5714287E-1,7.1428573E-1,3.36E2,3.08E2,-1.9047996E-1,-2.7150495E-2,-8.4358215E-2,3.2801545E-1,1.0448413E-1,-2.1910788E-1],"split_indices":[1,2,3,2,0,8,0,0,0,0,1,7,7,0,0,0,0,0,0,0,0],"split_type":[0,0,0,0,0,0,0,0,0,0,0,0,0,0,0,0,0,0,0,0,0],"sum_hessian":[2.0664024E1,4.2290516E0,1.6434973E1,2.3146014E0,1.9144502E0,1.1305604E1,5.1293693E0,1.2831692E0,1.0314324E0,2.0262623E0,9.279343E0,7.0411587E0,2.2381837E0,4.600163E0,2.4409955E0,1.234041E0,1.0041429E0,1.3812238E0,3.2189393E0,1.0004718E0,1.4405236E0],"tree_param":{"num_deleted":"0","num_feature":"10","num_nodes":"21","size_leaf_vector":"1"}},{"base_weights":[-2.2564481E-1,1.429041E-1,-4.2183346E-1,-2.0895891E-1,4.450824E-1,7.958321E-2,-6.486947E-1,8.8972807E-1,-1.0710022E-1,6.297241E-1,-2.1238726E-1,-2.7850023E-2,-7.770351E-1,3.6258036E-1,9.032993E-2,1.3446803E-1,-2.0623298E-1,-6.124649E-2,3.356641E-1,-3.4571484E-1,-2.7646646E-1,-2.225749E-1,8.484712E-2],"categories":[],"categories_nodes":[],"categories_segments":[],"categories_sizes":[],"default_left":[0,0,0,0,0,0,0,0,0,0,0,0,0,0,0,0,0,0,0,0,0,0,0],"id":3,"left_children":[1,3,5,-1,7,9,11,13,15,17,-1,-1,19,-1,-1,-1,-1,-1,-1,21,-1,-1,-1],"loss_changes":[1.5405566E0,2.3035412E0,1.6001904E0,0E0,1.6639453E0,2.669033E0,6.043153E-1,3.2053828E-1,1.5142397E0,1.6765699E0,0E0,0E0,1.5313959E-1,0E0,0E0,0E0,0E0,0E0,0E0,1.081349E0,0E0,0E0,0E0],"parents":[2147483647,0,0,1,1,2,2,4,4,5,5,6,6,7,7,8,8,9,9,12,12,19,19],"right_children":[2,4,6,-1,8,10,12,14,16,18,-1,-1,20,-1,-1,-1,-1,-1,-1,22,-1,-1,-1],"split_conditions":[1.702E3,1.479E3,2.4E2,-2.0895891E-1,3.34E2,1.7E1,1.92E2,3.0769232E-1,4E0,4.2857143E-1,-2.1238726E-1,-2.7850023E-2,9E1,3.6258036E-1,9.032993E-2,1.3446803E-1,-2.0623298E-1,-6.124649E-2,3.356641E-1,5E0,-2.7646646E-1,-2.225749E-1,8.484712E-2],"split_indices":[3,3,1,0,1,8,4,6,8,7,0,0,5,0,0,0,0,0,0,8,0,0,0],"split_type":[0,0,0,0,0,0,0,0,0,0,0,0,0,0,0,0,0,0,0,0,0,0,0],"sum_hessian":[1.9472616E1,6.859098E0,1.2613518E1,1.4701308E0,5.3889675E0,4.131385E0,8.482133E0,2.6465425E0,2.7424247E0,2.550271E0,1.5811139E0,1.9143103E0,6.567823E0,1.0334498E0,1.6130929E0,1.5177501E0,1.2246746E0,1.1583078E0,1.3919631E0,2.4996777E0,4.0681453E0,1.4225715E0,1.0771061E0],"tree_param":{"num_deleted":"0","num_feature":"10","num_nodes":"23","size_leaf_vector":"1"}},{"base_weights":[-1.9153227E-1,1.5828827E-1,-2.7650398E-1,7.89416E-2,-4.3656242E-1,5.805161E-1,-2.2015873E-1,-7.548046E-1,-6.1314292E-2,-5.0380696E-2,8.4218836E-1,4.1524433E-2,-2.964286E-1,2.2436959E-1,-4.4698066E-1,3.3290872E-1,5.2651033E-2,-2.5491348E-1,1.19900346E-1],"categories":[],"categories_nodes":[],"categories_segments":[],"categories_sizes":[],"default_left":[0,0,0,0,0,0,0,0,0,0,0,0,0,0,0,0,0,0,0],"id":4,"left_children":[1,-1,3,5,7,9,-1,11,13,-1,15,-1,-1,-1,17,-1,-1,-1,-1],"loss_changes":[1.3228815E0,0E0,1.0517862E0,3.0347414E0,1.4444025E0,1.025768E0,0E0,1.5258243E0,2.4617004E0,0E0,4.315734E-1,0E0,0E0,0E0,2.1271234E0,0E0,0E0,0E0,0E0],"parents":[2147483647,0,0,2,2,3,3,4,4,5,5,7,7,8,8,10,10,14,14],"right_children":[2,-1,4,6,8,10,-1,12,14,-1,16,-1,-1,-1,18,-1,-1,-1,-1],"split_conditions":[2E-1,1.5828827E-1,9E1,3.6E2,4.7058824E-1,4.6923075E0,-2.2015873E-1,3.0769232E-1,2.12E2,-5.0380696E-2,3.77E2,4.1524433E-2,-2.964286E-1,2.2436959E-1,4.85E2,3.3290872E-1,5.2651033E-2,-2.5491348E-1,1.19900346E-1],"split_indices":[7,0,5,1,6,9,0,6,4,0,0,0,0,0,0,0,0,0,0],"split_type":[0,0,0,0,0,0,0,0,0,0,0,0,0,0,0,0,0,0,0],"sum_hessian":[1.8260748E1,1.3791169E0,1.6881632E1,5.398919E0,1.1482712E1,3.5153883E0,1.8835306E0,5.665991E0,5.816721E0,1.0034572E0,2.5119312E0,1.2575997E0,4.4083915E0,1.5742859E0,4.242435E0,1.3184178E0,1.1935133E0,2.8724566E0,1.3699787E0],"tree_param":{"num_deleted":"0","num_feature":"10","num_nodes":"19","size_leaf_vector":"1"}},{"base_weights":[-1.5241753E-1,-5.1812265E-2,-2.1182667E-1,5.2113897E-1,-2.2172514E-1,-6.958191E-2,2.8127992E-1,8.464043E-4,-2.3737235E-1,-2.1132489E-1,1.8959849E-1,-3.3482906E-1,3.9727068E-1,-1.901187E-1,4.4778854E-2,2.1726194E-1,-3.650626E-2],"categories":[],"categories_nodes":[],"categories_segments":[],"categories_sizes":[],"default_left":[0,0,0,0,0,0,0,0,0,0,0,0,0,0,0,0,0],"id":5,"left_children":[1,3,-1,5,7,-1,-1,9,-1,-1,11,13,15,-1,-1,-1,-1],"loss_changes":[9.685193E-1,1.7071371E0,0E0,1.4838594E0,1.6879386E0,0E0,0E0,1.5405768E0,0E0,0E0,1.1269176E0,5.476868E-1,1.274871E0,0E0,0E0,0E0,0E0],"parents":[2147483647,0,0,1,1,3,3,4,4,7,7,10,10,11,11,12,12],"right_children":[2,4,-1,6,8,-1,-1,10,-1,-1,12,14,16,-1,-1,-1,-1],"split_conditions":[2E1,2.42E2,-2.1182667E-1,2E0,1.847E3,-6.958191E-2,2.8127992E-1,4.479452E0,-2.3737235E-1,-2.1132489E-1,7.7E1,5.9264708E0,2E0,-1.901187E-1,4.4778854E-2,2.1726194E-1,-3.650626E-2],"split_indices":[8,1,0,2,3,0,0,9,0,0,5,9,2,0,0,0,0],"split_type":[0,0,0,0,0,0,0,0,0,0,0,0,0,0,0,0,0],"sum_hessian":[1.7044216E1,1.5348825E1,1.6953902E0,3.0378866E0,1.231094E1,1.2395318E0,1.7983547E0,9.569582E0,2.7413573E0,1.4436163E0,8.125966E0,2.1313765E0,5.9945893E0,1.1266338E0,1.0047427E0,3.4350557E0,2.5595334E0],"tree_param":{"num_deleted":"0","num_feature":"10","num_nodes":"17","size_leaf_vector":"1"}},{"base_weights":[-1.459336E-1,-2.7400988E-1,2.3270854E-1,7.060008E-2,-7.1483314E-1,2.3717932E-1,-1.4168637E-1,-1.9988748E-1,3.0655837E-1,-2.7809906E-1,-2.647852E-1,6.38064E-1,-3.365159E-1,-1.829276E-1,5.7906847E-2,9.240407E-1,3.438804E-2,-1.7026824E-1,1.7663162E-2,7.481566E-2,3.419773E-1],"categories":[],"categories_nodes":[],"categories_segments":[],"categories_sizes":[],"default_left":[0,0,0,0,0,0,0,0,0,0,0,0,0,0,0,0,0,0,0,0,0],"id":6,"left_children":[1,3,5,7,9,-1,-1,-1,11,13,-1,15,17,-1,-1,19,-1,-1,-1,-1,-1],"loss_changes":[8.989674E-1,2.075242E0,2.298182E0,1.6632079E0,1.8965149E-1,0E0,0E0,0E0,1.7156383E0,6.033412E-1,0E0,6.4118266E-1,3.1200442E-1,0E0,0E0,1.6518235E-1,0E0,0E0,0E0,0E0,0E0],"parents":[2147483647,0,0,1,1,2,2,3,3,4,4,8,8,9,9,11,11,12,12,15,15],"right_children":[2,4,6,8,10,-1,-1,-1,12,14,-1,16,18,-1,-1,20,-1,-1,-1,-1,-1],"split_conditions":[3.13E2,3.5E2,3.21E2,2.67E2,3.74E2,2.3717932E-1,-1.4168637E-1,-1.9988748E-1,2.24E2,2.35E2,-2.647852E-1,2E0,2E0,-1.829276E-1,5.7906847E-2,1.84E2,3.438804E-2,-1.7026824E-1,1.7663162E-2,7.481566E-2,3.419773E-1],"split_indices":[4,0,1,0,0,0,0,0,4,4,0,8,2,0,0,4,0,0,0,0,0],"split_type":[0,0,0,0,0,0,0,0,0,0,0,0,0,0,0,0,0,0,0,0,0],"sum_hessian":[1.6222425E1,1.2328595E1,3.893831E0,7.3907676E0,4.937827E0,2.1059196E0,1.7879115E0,1.3502387E0,6.0405293E0,2.1080792E0,2.829748E0,3.99097E0,2.049559E0,1.064456E0,1.0436232E0,2.085977E0,1.9049928E0,1.0187982E0,1.030761E0,1.0281386E0,1.0578384E0],"tree_param":{"num_deleted":"0","num_feature":"10","num_nodes":"21","size_leaf_vector":"1"}},{"base_weights":[-1.2872374E-1,-1.2523842E-2,-5.362353E-1,1.0115128E-1,-1.8769972E-1,-2.0128827E-1,-2.7738944E-2,-2.7440567E-2,1.7737864E-1,4.7156072E-1,-2.2970307E-1,3.9810096E-3,2.0679526E-1,-5.522143E-1,4.8937422E-1,-2.1801014E-1,4.3971203E-2,1.7914389E-1,3.9511096E-2],"categories":[],"categories_nodes":[],"categories_segments":[],"categories_sizes":[],"default_left":[0,0,0,0,0,0,0,0,0,0,0,0,0,0,0,0,0,0,0],"id":7,"left_children":[1,3,5,7,-1,-1,-1,9,-1,11,13,-1,-1,15,17,-1,-1,-1,-1],"loss_changes":[7.718631E-1,1.0263782E0,1.5464365E-1,8.051348E-1,0E0,0E0,0E0,1.2055763E0,0E0,3.3646506E-1,2.2202263E0,0E0,0E0,8.7157345E-1,4.214728E-2,0E0,0E0,0E0,0E0],"parents":[2147483647,0,0,1,1,2,2,3,3,7,7,9,9,10,10,13,13,14,14],"right_children":[2,4,6,8,-1,-1,-1,10,-1,12,14,-1,-1,16,18,-1,-1,-1,-1],"split_conditions":[3.84E2,2E1,1.3E2,3.53E2,-1.8769972E-1,-2.0128827E-1,-2.7738944E-2,3.3333334E-1,1.7737864E-1,2.7272728E-1,4.31E2,3.9810096E-3,2.0679526E-1,1.55E2,6.4423075E0,-2.1801014E-1,4.3971203E-2,1.7914389E-1,3.9511096E-2],"split_indices":[1,8,5,1,0,0,0,6,0,6,0,0,0,5,9,0,0,0,0],"split_type":[0,0,0,0,0,0,0,0,0,0,0,0,0,0,0,0,0,0,0],"sum_hessian":[1.5442087E1,1.2817868E1,2.6242194E0,1.1517566E1,1.3003029E0,1.6203463E0,1.003873E0,9.871549E0,1.6460165E0,2.46319E0,7.408359E0,1.1351322E0,1.3280579E0,5.274679E0,2.1336794E0,4.1887927E0,1.0858868E0,1.1251197E0,1.0085598E0],"tree_param":{"num_deleted":"0","num_feature":"10","num_nodes":"19","size_leaf_vector":"1"}},{"base_weights":[-1.0101403E-1,1.676122E-1,-2.7712056E-1,-1.13735825E-1,3.9398932E-1,-8.41591E-2,-2.2359745E-1,5.8898693E-1,-6.653152E-2,-3.248372E-1,2.728254E-1,1.940629E-2,2.4187137E-1,1.5916786E-1,-6.490371E-1,-9.310988E-2,2.0175172E-1,-4.050009E-2,-2.3048578E-1],"categories":[],"categories_nodes":[],"categories_segments":[],"categories_sizes":[],"default_left":[0,0,0,0,0,0,0,0,0,0,0,0,0,0,0,0,0,0,0],"id":8,"left_children":[1,3,5,-1,7,9,-1,11,-1,13,15,-1,-1,-1,17,-1,-1,-1,-1],"loss_changes":[7.908991E-1,9.9774015E-1,8.300743E-1,0E0,7.7154374E-1,7.8673446E-1,0E0,4.407736E-1,0E0,1.8168435E0,1.0980917E0,0E0,0E0,0E0,1.5987492E-1,0E0,0E0,0E0,0E0],"parents":[2147483647,0,0,1,1,2,2,4,4,5,5,7,7,9,9,10,10,14,14],"right_children":[2,4,6,-1,8,10,-1,12,-1,14,16,-1,-1,-1,18,-1,-1,-1,-1],"split_conditions":[1.702E3,-4E0,6.621212E0,-1.13735825E-1,8.5714287E-1,2.83E2,-2.2359745E-1,3.49E2,-6.653152E-2,-3E0,6E0,1.940629E-2,2.4187137E-1,1.5916786E-1,1.75E2,-9.310988E-2,2.0175172E-1,-4.050009E-2,-2.3048578E-1],"split_indices":[3,8,9,0,7,4,0,0,0,8,8,0,0,0,4,0,0,0,0],"split_type":[0,0,0,0,0,0,0,0,0,0,0,0,0,0,0,0,0,0,0],"sum_hessian":[1.4736633E1,5.8545537E0,8.88208E0,1.5167269E0,4.3378267E0,7.1252804E0,1.7567999E0,3.3275487E0,1.0102781E0,4.3097258E0,2.8155546E0,1.3550688E0,1.9724798E0,1.0095427E0,3.3001828E0,1.2358029E0,1.5797518E0,1.0229065E0,2.2772763E0],"tree_param":{"num_deleted":"0","num_feature":"10","num_nodes":"19","size_leaf_vector":"1"}},{"base_weights":[-9.097793E-2,1.8029472E-2,-4.844238E-1,3.5590237E-1,-1.7308676E-1,-3.3329375E-2,-1.8087175E-1,-5.2012343E-2,2.072819E-1,-3.2472938E-1,1.1433102E-1,-7.7088855E-2,5.4707892E-2,-4.7436318E-1,5.9862938E-2,3.1319786E-2,-6.160967E-1,3.87168E-2,-2.5845858E-1],"categories":[],"categories_nodes":[],"categories_segments":[],"categories_sizes":[],"default_left":[0,0,0,0,0,0,0,0,0,0,0,0,0,0,0,0,0,0,0],"id":9,"left_children":[1,3,5,7,9,-1,-1,11,-1,13,-1,-1,-1,15,-1,-1,17,-1,-1],"loss_changes":[6.5165913E-1,8.8184154E-1,7.845914E-2,7.078507E-1,8.621271E-1,0E0,0E0,1.980286E-1,0E0,6.781891E-1,0E0,0E0,0E0,5.6329846E-1,0E0,0E0,1.0313075E0,0E0,0E0],"parents":[2147483647,0,0,1,1,2,2,3,3,4,4,7,7,9,9,13,13,16,16],"right_children":[2,4,6,8,10,-1,-1,12,-1,14,-1,-1,-1,16,-1,-1,18,-1,-1],"split_conditions":[3.84E2,9E1,-2E0,2E0,3.51E2,-3.3329375E-2,-1.8087175E-1,1.793E3,2.072819E-1,3.13E2,1.1433102E-1,-7.7088855E-2,5.4707892E-2,1.549E3,5.9862938E-2,3.1319786E-2,4.8070173E0,3.87168E-2,-2.5845858E-1],"split_indices":[1,5,8,2,1,0,0,3,0,4,0,0,0,3,0,0,9,0,0],"split_type":[0,0,0,0,0,0,0,0,0,0,0,0,0,0,0,0,0,0,0],"sum_hessian":[1.3990618E1,1.1702516E1,2.2881024E0,3.9164407E0,7.786075E0,1.0180377E0,1.2700647E0,2.1470816E0,1.7693591E0,6.4383903E0,1.3476847E0,1.0940139E0,1.0530677E0,5.0828733E0,1.3555169E0,1.0517029E0,4.0311704E0,1.116264E0,2.9149065E0],"tree_param":{"num_deleted":"0","num_feature":"10","num_nodes":"19","size_leaf_vector":"1"}},{"base_weights":[-7.622682E-2,-1.7294002E-1,6.3671684E-3,1.8477583E-1,-1.2327233E-1,-4.9785763E-1,1.3729246E-1,4.6672888E-2,-2.1904404E-1,3.6340317E-1,-2.2410601E-1,9.381862E-3,2.2246566E-1,8.1542805E-2,-1.8963273E-1,1.14551775E-1,-9.6463166E-2],"categories":[],"categories_nodes":[],"categories_segments":[],"categories_sizes":[],"default_left":[0,0,0,0,0,0,0,0,0,0,0,0,0,0,0,0,0],"id":10,"left_children":[1,-1,3,-1,5,7,9,-1,-1,11,13,15,-1,-1,-1,-1,-1],"loss_changes":[5.96195E-1,0E0,1.1267455E0,0E0,1.2199656E0,8.8110363E-1,7.1411335E-1,0E0,0E0,6.816899E-1,8.998723E-1,5.7507616E-1,0E0,0E0,0E0,0E0,0E0],"parents":[2147483647,0,0,2,2,4,4,5,5,6,6,9,9,10,10,11,11],"right_children":[2,-1,4,-1,6,8,10,-1,-1,12,14,16,-1,-1,-1,-1,-1],"split_conditions":[1.45E2,-1.7294002E-1,2.98E2,1.8477583E-1,4.2105263E-1,2.72E2,1.1E1,4.6672888E-2,-2.1904404E-1,6.432836E0,6.2459016E0,3.47E2,2.2246566E-1,8.1542805E-2,-1.8963273E-1,1.14551775E-1,-9.6463166E-2],"split_indices":[4,0,0,0,6,1,8,0,0,9,9,0,0,0,0,0,0],"split_type":[0,0,0,0,0,0,0,0,0,0,0,0,0,0,0,0,0],"sum_hessian":[1.3341005E1,1.0432032E0,1.2297802E1,1.4989359E0,1.0798866E1,4.0565395E0,6.7423267E0,1.1504757E0,2.9060638E0,4.1440406E0,2.5982864E0,2.6695914E0,1.474449E0,1.3234628E0,1.2748235E0,1.1835982E0,1.4859931E0],"tree_param":{"num_deleted":"0","num_feature":"10","num_nodes":"17","size_leaf_vector":"1"}},{"base_weights":[-6.486397E-2,3.6392566E-2,-1.310314E-1,2.8520072E-1,-1.4776406E-1,-4.5968235E-2,1.5577653E-1,-1.9862406E-1,8.382981E-2,-8.3987825E-2,6.544794E-2,3.6815664E-1,-1.4105779E-1,2.3144613E-1,-5.474001E-2],"categories":[],"categories_nodes":[],"categories_segments":[],"categories_sizes":[],"default_left":[0,0,0,0,0,0,0,0,0,0,0,0,0,0,0],"id":11,"left_children":[1,3,-1,5,7,9,-1,-1,11,-1,-1,13,-1,-1,-1],"loss_changes":[5.3161687E-1,5.776488E-1,0E0,4.3563595E-1,9.339485E-1,2.538083E-1,0E0,0E0,1.1139512E0,0E0,0E0,1.1419075E0,0E0,0E0,0E0],"parents":[2147483647,0,0,1,1,3,3,4,4,5,5,8,8,11,11],"right_children":[2,4,-1,6,8,10,-1,-1,12,-1,-1,14,-1,-1,-1],"split_conditions":[3.84E2,9.4E1,-1.310314E-1,7.7E1,1.17E2,2E0,1.5577653E-1,-1.9862406E-1,1.95E3,-8.3987825E-2,6.544794E-2,6E-1,-1.4105779E-1,2.3144613E-1,-5.474001E-2],"split_indices":[1,5,0,5,5,2,0,0,3,0,0,7,0,0,0],"split_type":[0,0,0,0,0,0,0,0,0,0,0,0,0,0,0],"sum_hessian":[1.2694859E1,1.0687261E1,2.0075977E0,4.3123274E0,6.3749337E0,2.118464E0,2.1938634E0,1.4021924E0,4.972741E0,1.0915346E0,1.0269295E0,3.5079365E0,1.4648048E0,1.7932609E0,1.7146755E0],"tree_param":{"num_deleted":"0","num_feature":"10","num_nodes":"15","size_leaf_vector":"1"}},{"base_weights":[-6.333654E-2,1.4532827E-1,-2.1620934E-1,-9.409794E-2,3.2178718E-1,1.4608848E-1,-3.7521383E-1,3.6103737E-3,1.5118065E-1,1.522662E-1,-8.3816595E-2,4.7561258E-2,-5.9080976E-1,-2.2555067E-1,-5.5056684E-2],"categories":[],"categories_nodes":[],"categories_segments":[],"categories_sizes":[],"default_left":[0,0,0,0,0,0,0,0,0,0,0,0,0,0,0],"id":12,"left_children":[1,3,5,-1,7,9,11,-1,-1,-1,-1,-1,13,-1,-1],"loss_changes":[4.5005405E-1,5.988114E-1,5.143105E-1,0E0,2.7230448E-1,6.266713E-1,7.6382804E-1,0E0,0E0,0E0,0E0,0E0,1.4794922E-1,0E0,0E0],"parents":[2147483647,0,0,1,1,2,2,4,4,5,5,6,6,12,12],"right_children":[2,4,6,-1,8,10,12,-1,-1,-1,-1,-1,14,-1,-1],"split_conditions":[1.702E3,-4E0,2.37E2,-9.409794E-2,6.206897E0,1.1E1,1.92E2,3.6103737E-3,1.5118065E-1,1.522662E-1,-8.3816595E-2,4.7561258E-2,6E0,-2.2555067E-1,-5.5056684E-2],"split_indices":[3,8,1,0,9,8,4,0,0,0,0,0,8,0,0],"split_type":[0,0,0,0,0,0,0,0,0,0,0,0,0,0,0],"sum_hessian":[1.2123622E1,5.1472287E0,6.9763937E0,1.2134348E0,3.9337935E0,2.1526742E0,4.8237195E0,1.8514231E0,2.0823705E0,1.0595902E0,1.0930841E0,1.4639845E0,3.3597353E0,1.8015245E0,1.5582107E0],"tree_param":{"num_deleted":"0","num_feature":"10","num_nodes":"15","size_leaf_vector":"1"}},{"base_weights":[-5.7242494E-2,-1.3309208E-1,2.6992543E-2,2.0859893E-1,-1.2044021E-1,-5.214948E-1,1.308141E-1,-1.8855153E-1,-3.3264417E-2,2.8633666E-1,-6.416202E-2,2.0543091E-2,1.474853E-1,1.440263E-1,-1.1798248E-1],"categories":[],"categories_nodes":[],"categories_segments":[],"categories_sizes":[],"default_left":[0,0,0,0,0,0,0,0,0,0,0,0,0,0,0],"id":13,"left_children":[1,-1,3,-1,5,7,9,-1,-1,11,-1,13,-1,-1,-1],"loss_changes":[4.2644027E-1,0E0,1.2067846E0,0E0,1.0950232E0,1.115824E-1,4.3994188E-1,0E0,0E0,2.7884012E-1,0E0,8.2611084E-1,0E0,0E0,0E0],"parents":[2147483647,0,0,2,2,4,4,5,5,6,6,9,9,11,11],"right_children":[2,-1,4,-1,6,8,10,-1,-1,12,-1,14,-1,-1,-1],"split_conditions":[4.5405407E0,-1.3309208E-1,2.98E2,2.0859893E-1,4.2105263E-1,8E0,5.625E-1,-1.8855153E-1,-3.3264417E-2,2.91E2,-6.416202E-2,1.686E3,1.474853E-1,1.440263E-1,-1.1798248E-1],"split_indices":[9,0,0,0,6,8,6,0,0,4,0,3,0,0,0],"split_type":[0,0,0,0,0,0,0,0,0,0,0,0,0,0,0],"sum_hessian":[1.1733882E1,1.3364959E0,1.0397386E1,1.2074707E0,9.189916E0,3.12546E0,6.0644555E0,2.058376E0,1.0670837E0,4.295581E0,1.7688744E0,2.3512738E0,1.9443074E0,1.0382054E0,1.3130683E0],"tree_param":{"num_deleted":"0","num_feature":"10","num_nodes":"15","size_leaf_vector":"1"}},{"base_weights":[-4.8164837E-2,5.904945E-2,-3.6395416E-1,-7.049047E-2,3.205794E-1,2.4558492E-2,-1.8121502E-1,2.7596015E-1,-3.6051333E-1,2.0360078E-1,-3.4753848E-2,-3.318082E-2,1.8551806E-1,-1.7157023E-1,4.7275675E-3],"categories":[],"categories_nodes":[],"categories_segments":[],"categories_sizes":[],"default_left":[0,0,0,0,0,0,0,0,0,0,0,0,0,0,0],"id":14,"left_children":[1,3,5,7,9,-1,-1,11,13,-1,-1,-1,-1,-1,-1],"loss_changes":[4.3703276E-1,3.621621E-1,3.9736667E-1,8.553545E-1,6.256485E-1,0E0,0E0,5.9712815E-1,3.6919582E-1,0E0,0E0,0E0,0E0,0E0,0E0],"parents":[2147483647,0,0,1,1,2,2,3,3,4,4,7,7,8,8],"right_children":[2,4,6,8,10,-1,-1,12,14,-1,-1,-1,-1,-1,-1],"split_conditions":[8.5714287E-1,3.13E2,3.75E-1,2E0,3.32E2,2.4558492E-2,-1.8121502E-1,1.23E2,6.206897E0,2.0360078E-1,-3.4753848E-2,-3.318082E-2,1.8551806E-1,-1.7157023E-1,4.7275675E-3],"split_indices":[7,4,6,8,4,0,0,5,9,0,0,0,0,0,0],"split_type":[0,0,0,0,0,0,0,0,0,0,0,0,0,0,0],"sum_hessian":[1.1273383E1,9.022982E0,2.2504013E0,6.5226693E0,2.5003123E0,1.0184201E0,1.231981E0,2.9942896E0,3.52838E0,1.0685213E0,1.4317912E0,1.724529E0,1.2697605E0,1.9262884E0,1.6020916E0],"tree_param":{"num_deleted":"0","num_feature":"10","num_nodes":"15","size_leaf_vector":"1"}},{"base_weights":[-3.7999466E-2,5.2296E-2,-1.1179879E-1,3.3711353E-1,-1.3422744E-1,9.625948E-3,1.5907264E-1,1.9120881E-1,-3.3914185E-1,-2.0322064E-2,1.15044445E-1,-1.7686981E-1,3.8595274E-2],"categories":[],"categories_nodes":[],"categories_segments":[],"categories_sizes":[],"default_left":[0,0,0,0,0,0,0,0,0,0,0,0,0],"id":15,"left_children":[1,3,-1,5,7,-1,-1,9,11,-1,-1,-1,-1],"loss_changes":[3.7584096E-1,5.8520085E-1,0E0,2.3670179E-1,5.2210873E-1,0E0,0E0,1.8972239E-1,6.1098385E-1,0E0,0E0,0E0,0E0],"parents":[2147483647,0,0,1,1,3,3,4,4,7,7,8,8],"right_children":[2,4,-1,6,8,-1,-1,10,12,-1,-1,-1,-1],"split_conditions":[3.84E2,9E1,-1.1179879E-1,2E0,1.92E2,9.625948E-3,1.5907264E-1,1.74E2,3.13E2,-2.0322064E-2,1.15044445E-1,-1.7686981E-1,3.8595274E-2],"split_indices":[1,5,0,2,4,0,0,4,4,0,0,0,0],"split_type":[0,0,0,0,0,0,0,0,0,0,0,0,0],"sum_hessian":[1.0792491E1,9.163754E0,1.628737E0,3.3068736E0,5.8568807E0,1.7341303E0,1.5727432E0,2.2887967E0,3.5680842E0,1.2512819E0,1.0375148E0,2.1544335E0,1.4136505E0],"tree_param":{"num_deleted":"0","num_feature":"10","num_nodes":"13","size_leaf_vector":"1"}},{"base_weights":[-2.8760599E-2,2.3044623E-1,-1.4454734E-1,1.4659375E-1,-6.985039E-2,-4.2519137E-1,9.845012E-2,-2.0257092E-1,-6.6619976E-3,3.3480313E-1,-7.3801756E-2,1.4687592E-1,-5.0693136E-3],"categories":[],"categories_nodes":[],"categories_segments":[],"categories_sizes":[],"default_left":[0,0,0,0,0,0,0,0,0,0,0,0,0],"id":16,"left_children":[1,3,5,-1,-1,7,9,-1,-1,11,-1,-1,-1],"loss_changes":[3.7526622E-1,5.8070576E-1,6.208559E-1,0E0,0E0,4.0095168E-1,5.189244E-1,0E0,0E0,2.0445037E-1,0E0,0E0,0E0],"parents":[2147483647,0,0,1,1,2,2,5,5,6,6,9,9],"right_children":[2,4,6,-1,-1,8,10,-1,-1,12,-1,-1,-1],"split_conditions":[2.72E2,6E-1,6.666667E-1,1.4659375E-1,-6.985039E-2,3.53E2,8.5714287E-1,-2.0257092E-1,-6.6619976E-3,1.702E3,-7.3801756E-2,1.4687592E-1,-5.0693136E-3],"split_indices":[1,7,7,0,0,1,7,0,0,3,0,0,0],"split_type":[0,0,0,0,0,0,0,0,0,0,0,0,0],"sum_hessian":[1.0393697E1,2.9034972E0,7.4901996E0,1.8292524E0,1.0742449E0,3.127914E0,4.3622856E0,1.5133307E0,1.6145831E0,2.603727E0,1.7585585E0,1.5357789E0,1.0679481E0],"tree_param":{"num_deleted":"0","num_feature":"10","num_nodes":"13","size_leaf_vector":"1"}},{"base_weights":[-2.9106978E-2,5.4662004E-2,-1.0163849E-1,2.6471442E-1,-1.2080128E-1,4.054436E-1,-2.1774177E-2,-2.573547E-1,7.842521E-2,2.9306158E-2,1.6920312E-1,-1.5493141E-1,4.94653E-2,7.668339E-2,-5.2845024E-2],"categories":[],"categories_nodes":[],"categories_segments":[],"categories_sizes":[],"default_left":[0,0,0,0,0,0,0,0,0,0,0,0,0,0,0],"id":17,"left_children":[1,3,-1,5,7,9,-1,11,-1,-1,-1,-1,13,-1,-1],"loss_changes":[3.0597177E-1,3.8515374E-1,0E0,2.5132263E-1,3.7562227E-1,1.1327869E-1,0E0,4.11607E-1,0E0,0E0,0E0,0E0,1.9088294E-1,0E0,0E0],"parents":[2147483647,0,0,1,1,3,3,4,4,5,5,7,7,12,12],"right_children":[2,4,-1,6,8,10,-1,12,-1,-1,-1,-1,14,-1,-1],"split_conditions":[3.84E2,9.4E1,-1.0163849E-1,3.77E2,3.51E2,6E0,-2.1774177E-2,6.023256E0,7.842521E-2,2.9306158E-2,1.6920312E-1,-1.5493141E-1,1.702E3,7.668339E-2,-5.2845024E-2],"split_indices":[1,5,0,0,1,8,0,9,0,0,0,0,3,0,0],"split_type":[0,0,0,0,0,0,0,0,0,0,0,0,0,0,0],"sum_hessian":[1.0080482E1,8.582463E0,1.4980184E0,3.674704E0,4.907759E0,2.4503167E0,1.2243873E0,3.8566089E0,1.0511503E0,1.3827167E0,1.0676001E0,1.7205533E0,2.1360557E0,1.046715E0,1.0893406E0],"tree_param":{"num_deleted":"0","num_feature":"10","num_nodes":"15","size_leaf_vector":"1"}},{"base_weights":[-2.0705635E-2,7.7445105E-2,-2.840698E-1,-7.525454E-2,1.3212124E-1,-5.2631106E-3,-1.2336696E-1,9.009898E-2,-2.7623537E-1,2.438241E-2,-4.5722598E-1,-7.756989E-3,-1.9000836E-1],"categories":[],"categories_nodes":[],"categories_segments":[],"categories_sizes":[],"default_left":[0,0,0,0,0,0,0,0,0,0,0,0,0],"id":18,"left_children":[1,3,5,7,-1,-1,-1,-1,9,-1,11,-1,-1],"loss_changes":[3.001781E-1,5.1120234E-1,9.9062175E-2,6.057249E-1,0E0,0E0,0E0,0E0,3.62774E-1,0E0,2.4892789E-1,0E0,0E0],"parents":[2147483647,0,0,1,1,2,2,3,3,8,8,10,10],"right_children":[2,4,6,8,-1,-1,-1,-1,10,-1,12,-1,-1],"split_conditions":[6.621212E0,6.206897E0,3.19E2,2.42E2,1.3212124E-1,-5.2631106E-3,-1.2336696E-1,9.009898E-2,2.98E2,2.438241E-2,-2E0,-7.756989E-3,-1.9000836E-1],"split_indices":[9,9,1,1,0,0,0,0,0,0,8,0,0],"split_type":[0,0,0,0,0,0,0,0,0,0,0,0,0],"sum_hessian":[9.761504E0,7.625549E0,2.1359553E0,5.9253654E0,1.7001829E0,1.0574363E0,1.078519E0,1.8931694E0,4.032196E0,1.5403985E0,2.4917977E0,1.054947E0,1.4368508E0],"tree_param":{"num_deleted":"0","num_feature":"10","num_nodes":"13","size_leaf_vector":"1"}},{"base_weights":[-2.506884E-2,-1.0804114E-1,4.8256237E-2,1.610095E-1,-7.912727E-2,-4.0485817E-1,1.1335814E-1,-2.2347493E-2,-1.6907963E-1,2.785392E-1,-5.257268E-2,-5.662973E-3,1.386307E-1],"categories":[],"categories_nodes":[],"categories_segments":[],"categories_sizes":[],"default_left":[0,0,0,0,0,0,0,0,0,0,0,0,0],"id":19,"left_children":[1,-1,3,-1,5,7,9,-1,-1,11,-1,-1,-1],"loss_changes":[2.748949E-1,0E0,6.323912E-1,0E0,5.720363E-1,1.3295043E-1,3.3750522E-1,0E0,0E0,2.4007723E-1,0E0,0E0,0E0],"parents":[2147483647,0,0,2,2,4,4,5,5,6,6,9,9],"right_children":[2,-1,4,-1,6,8,10,-1,-1,12,-1,-1,-1],"split_conditions":[4.5405407E0,-1.0804114E-1,2.98E2,1.610095E-1,4.2105263E-1,3.08E2,1.1E1,-2.2347493E-2,-1.6907963E-1,1.38E2,-5.257268E-2,-5.662973E-3,1.386307E-1],"split_indices":[9,0,0,0,6,1,8,0,0,5,0,0,0],"split_type":[0,0,0,0,0,0,0,0,0,0,0,0,0],"sum_hessian":[9.48138E0,1.000043E0,8.481338E0,1.089704E0,7.3916335E0,2.335721E0,5.0559125E0,1.2349154E0,1.1008056E0,3.2376807E0,1.8182317E0,1.5780426E0,1.659638E0],"tree_param":{"num_deleted":"0","num_feature":"10","num_nodes":"13","size_leaf_vector":"1"}},{"base_weights":[-2.5339726E-2,6.097995E-2,-8.603428E-2,-9.8707266E-2,2.1242161E-1,1.3356085E-1,-1.2600754E-1,1.23701654E-1,-4.1280955E-2,1.12420045E-1,-3.3230886E-2],"categories":[],"categories_nodes":[],"categories_segments":[],"categories_sizes":[],"default_left":[0,0,0,0,0,0,0,0,0,0,0],"id":20,"left_children":[1,3,-1,5,7,9,-1,-1,-1,-1,-1],"loss_changes":[2.4752663E-1,2.2623189E-1,0E0,4.1539168E-1,3.8378274E-1,2.5087488E-1,0E0,0E0,0E0,0E0,0E0],"parents":[2147483647,0,0,1,1,3,3,4,4,5,5],"right_children":[2,4,-1,6,8,10,-1,-1,-1,-1,-1],"split_conditions":[8.5714287E-1,1.17E2,-8.603428E-2,8.6E1,1.77E3,2.42E2,-1.2600754E-1,1.23701654E-1,-4.1280955E-2,1.12420045E-1,-3.3230886E-2],"split_indices":[7,5,0,5,3,1,0,0,0,0,0],"split_type":[0,0,0,0,0,0,0,0,0,0,0],"sum_hessian":[9.193356E0,7.487855E0,1.7055001E0,3.8141994E0,3.6736555E0,2.5530403E0,1.2611591E0,2.2248828E0,1.4487728E0,1.0162294E0,1.536811E0],"tree_param":{"num_deleted":"0","num_feature":"10","num_nodes":"11","size_leaf_vector":"1"}},{"base_weights":[-2.42011E-2,7.609229E-2,-2.6542792E-1,2.7563712E-1,-1.2632002E-1,8.153632E-3,-1.2568991E-1,4.433519E-3,1.210887E-1,5.066958E-2,-2.7554715E-1,-1.7285432E-1,3.7597787E-2],"categories":[],"categories_nodes":[],"categories_segments":[],"categories_sizes":[],"default_left":[0,0,0,0,0,0,0,0,0,0,0,0,0],"id":21,"left_children":[1,3,5,7,9,-1,-1,-1,-1,-1,11,-1,-1],"loss_changes":[2.6162165E-1,3.508984E-1,1.5305294E-1,1.3609985E-1,2.4789745E-1,0E0,0E0,0E0,0E0,0E0,4.8389608E-1,0E0,0E0],"parents":[2147483647,0,0,1,1,2,2,3,3,4,4,10,10],"right_children":[2,4,6,8,10,-1,-1,-1,-1,-1,12,-1,-1],"split_conditions":[3.6E2,9.4E1,2.23E2,7.7E1,4E-1,8.153632E-3,-1.2568991E-1,4.433519E-3,1.210887E-1,5.066958E-2,1.53E2,-1.7285432E-1,3.7597787E-2],"split_indices":[1,5,4,5,7,0,0,0,0,0,5,0,0],"split_type":[0,0,0,0,0,0,0,0,0,0,0,0,0],"sum_hessian":[8.978925E0,6.8256345E0,2.1532907E0,3.254993E0,3.5706415E0,1.024269E0,1.1290218E0,1.4385549E0,1.816438E0,1.1546181E0,2.4160233E0,1.130724E0,1.2852994E0],"tree_param":{"num_deleted":"0","num_feature":"10","num_nodes":"13","size_leaf_vector":"1"}},{"base_weights":[-2.7261173E-2,5.8182035E-2,-7.5612545E-2,-8.4821574E-2,1.14398286E-1,5.830275E-2,-2.4316008E-1,2.009404E-2,-4.0359342E-1,-2.0240335E-2,-1.6291556E-1],"categories":[],"categories_nodes":[],"categories_segments":[],"categories_sizes":[],"default_left":[0,0,0,0,0,0,0,0,0,0,0],"id":22,"left_children":[1,3,-1,5,-1,-1,7,-1,9,-1,-1],"loss_changes":[2.0178467E-1,3.961112E-1,0E0,3.2462636E-1,0E0,0E0,2.4836075E-1,0E0,1.0745698E-1,0E0,0E0],"parents":[2147483647,0,0,1,1,3,3,6,6,8,8],"right_children":[2,4,-1,6,-1,-1,8,-1,10,-1,-1],"split_conditions":[6.621212E0,6.206897E0,-7.5612545E-2,2.42E2,1.14398286E-1,5.830275E-2,3.846154E-1,2.009404E-2,-2E0,-2.0240335E-2,-1.6291556E-1],"split_indices":[9,9,0,1,0,0,6,0,8,0,0],"split_type":[0,0,0,0,0,0,0,0,0,0,0],"sum_hessian":[8.742819E0,6.87186E0,1.8709583E0,5.2749963E0,1.596864E0,1.8268031E0,3.448193E0,1.374192E0,2.0740013E0,1.0432711E0,1.0307302E0],"tree_param":{"num_deleted":"0","num_feature":"10","num_nodes":"11","size_leaf_vector":"1"}},{"base_weights":[-2.784602E-2,8.3586894E-2,-1.931381E-1,-6.278916E-2,1.0704193E-1,2.1003723E-2,-1.2774797E-1,-9.2231065E-2,7.6257214E-2,-3.526278E-2,7.844624E-2],"categories":[],"categories_nodes":[],"categories_segments":[],"categories_sizes":[],"default_left":[0,0,0,0,0,0,0,0,0,0,0],"id":23,"left_children":[1,3,5,7,-1,-1,-1,-1,9,-1,-1],"loss_changes":[1.9188786E-1,2.7824575E-1,2.835748E-1,1.9407192E-1,0E0,0E0,0E0,0E0,1.7430647E-1,0E0,0E0],"parents":[2147483647,0,0,1,1,2,2,3,3,8,8],"right_children":[2,4,6,8,-1,-1,-1,-1,10,-1,-1],"split_conditions":[3.77E2,6.206897E0,7.1428573E-1,1E0,1.0704193E-1,2.1003723E-2,-1.2774797E-1,-9.2231065E-2,1.768E3,-3.526278E-2,7.844624E-2],"split_indices":[0,9,7,2,0,0,0,0,3,0,0],"split_type":[0,0,0,0,0,0,0,0,0,0,0],"sum_hessian":[8.541466E0,5.397206E0,3.1442597E0,4.0158963E0,1.3813093E0,1.803628E0,1.3406317E0,1.0164486E0,2.9994478E0,1.6443976E0,1.3550502E0],"tree_param":{"num_deleted":"0","num_feature":"10","num_nodes":"11","size_leaf_vector":"1"}},{"base_weights":[-2.606919E-2,7.304009E-2,-2.0825824E-1,-7.9040535E-2,2.0501785E-1,2.5722517E-2,-1.23003796E-1,1.30803E-1,-1.6088989E-2,-5.665827E-2,4.5503743E-2],"categories":[],"categories_nodes":[],"categories_segments":[],"categories_sizes":[],"default_left":[0,0,0,0,0,0,0,0,0,0,0],"id":24,"left_children":[1,3,5,-1,7,-1,-1,-1,9,-1,-1],"loss_changes":[1.8414412E-1,3.5600564E-1,2.460785E-1,0E0,2.8519422E-1,0E0,0E0,0E0,1.3726284E-1,0E0,0E0],"parents":[2147483647,0,0,1,1,2,2,4,4,8,8],"right_children":[2,4,6,-1,8,-1,-1,-1,10,-1,-1],"split_conditions":[1.875E3,-4E0,7E0,-7.9040535E-2,9.4E1,2.5722517E-2,-1.23003796E-1,1.30803E-1,6.4444447E0,-5.665827E-2,4.5503743E-2],"split_indices":[3,8,8,0,5,0,0,0,9,0,0],"split_type":[0,0,0,0,0,0,0,0,0,0,0],"sum_hessian":[8.35573E0,5.799791E0,2.5559392E0,1.3531938E0,4.446597E0,1.2741889E0,1.2817504E0,1.6993399E0,2.7472575E0,1.2915059E0,1.4557515E0],"tree_param":{"num_deleted":"0","num_feature":"10","num_nodes":"11","size_leaf_vector":"1"}},{"base_weights":[-2.5647247E-2,4.565196E-2,-8.517987E-2,1.5149134E-1,-1.487165E-1,-8.90457E-2,3.8346288E-1,3.4961823E-2,-1.0486093E-1,-1.0952057E-1,6.861654E-2,1.5942267E-1,1.748899E-2],"categories":[],"categories_nodes":[],"categories_segments":[],"categories_sizes":[],"default_left":[0,0,0,0,0,0,0,0,0,0,0,0,0],"id":25,"left_children":[1,3,-1,5,7,9,11,-1,-1,-1,-1,-1,-1],"loss_changes":[1.817008E-1,1.8797043E-1,0E0,3.5231674E-1,2.1864685E-1,4.0022153E-1,1.1773136E-1,0E0,0E0,0E0,0E0,0E0,0E0],"parents":[2147483647,0,0,1,1,3,3,4,4,5,5,6,6],"right_children":[2,4,-1,6,8,10,12,-1,-1,-1,-1,-1,-1],"split_conditions":[3.84E2,1.875E3,-8.517987E-2,6E0,7E0,3.19E2,1.1E1,3.4961823E-2,-1.0486093E-1,-1.0952057E-1,6.861654E-2,1.5942267E-1,1.748899E-2],"split_indices":[1,3,0,8,8,1,8,0,0,0,0,0,0],"split_type":[0,0,0,0,0,0,0,0,0,0,0,0,0],"sum_hessian":[8.162833E0,7.0421205E0,1.1207125E0,4.70222E0,2.3399007E0,2.6109726E0,2.091247E0,1.1890324E0,1.1508684E0,1.317605E0,1.2933676E0,1.0013698E0,1.0898771E0],"tree_param":{"num_deleted":"0","num_feature":"10","num_nodes":"13","size_leaf_vector":"1"}},{"base_weights":[-2.1276299E-2,1.5332468E-1,-1.0825156E-1,-2.822167E-2,9.592564E-2,-3.1492877E-1,7.360704E-2,5.5220985E-4,-1.3716094E-1,-4.428717E-2,7.6411776E-2],"categories":[],"categories_nodes":[],"categories_segments":[],"categories_sizes":[],"default_left":[0,0,0,0,0,0,0,0,0,0,0],"id":26,"left_children":[1,3,5,-1,-1,7,9,-1,-1,-1,-1],"loss_changes":[1.5209131E-1,1.6926911E-1,2.690593E-1,0E0,0E0,1.473757E-1,2.0949261E-1,0E0,0E0,0E0,0E0],"parents":[2147483647,0,0,1,1,2,2,5,5,6,6],"right_children":[2,4,6,-1,-1,8,10,-1,-1,-1,-1],"split_conditions":[2.72E2,2.19E2,6.666667E-1,-2.822167E-2,9.592564E-2,5.5285716E0,6E0,5.5220985E-4,-1.3716094E-1,-4.428717E-2,7.6411776E-2],"split_indices":[1,1,7,0,0,9,8,0,0,0,0],"split_type":[0,0,0,0,0,0,0,0,0,0,0],"sum_hessian":[7.9222956E0,2.3805459E0,5.5417495E0,1.1322274E0,1.2483186E0,2.2513876E0,3.2903621E0,1.0037134E0,1.2476742E0,1.5642782E0,1.7260838E0],"tree_param":{"num_deleted":"0","num_feature":"10","num_nodes":"11","size_leaf_vector":"1"}},{"base_weights":[-2.0285524E-2,1.2629522E-1,-1.4082356E-1,-5.1197655E-2,2.92871E-1,3.1049902E-2,-9.330048E-2,1.23245604E-1,1.4652252E-2],"categories":[],"categories_nodes":[],"categories_segments":[],"categories_sizes":[],"default_left":[0,0,0,0,0,0,0,0,0],"id":27,"left_children":[1,3,5,-1,7,-1,-1,-1,-1],"loss_changes":[1.7264472E-1,2.7169868E-1,2.518227E-1,0E0,7.3182434E-2,0E0,0E0,0E0,0E0],"parents":[2147483647,0,0,1,1,2,2,4,4],"right_children":[2,4,6,-1,8,-1,-1,-1,-1],"split_conditions":[1.702E3,2.07E2,5.5285716E0,-5.1197655E-2,3.3E2,3.1049902E-2,-9.330048E-2,1.23245604E-1,1.4652252E-2],"split_indices":[3,4,9,0,1,0,0,0,0],"split_type":[0,0,0,0,0,0,0,0,0],"sum_hessian":[7.764687E0,3.482282E0,4.282405E0,1.2425969E0,2.239685E0,1.9190522E0,2.363353E0,1.049131E0,1.190554E0],"tree_param":{"num_deleted":"0","num_feature":"10","num_nodes":"9","size_leaf_vector":"1"}},{"base_weights":[-1.2022248E-2,-1.0149314E-1,5.677413E-2,7.0081666E-2,-1.3591306E-1,-1.2197534E-1,2.4704091E-1,2.346947E-2,-7.675144E-2,-1.6674437E-2,1.3184856E-1],"categories":[],"categories_nodes":[],"categories_segments":[],"categories_sizes":[],"default_left":[0,0,0,0,0,0,0,0,0,0,0],"id":28,"left_children":[1,3,-1,5,-1,7,9,-1,-1,-1,-1],"loss_changes":[1.74337E-1,4.3071863E-1,0E0,2.1063776E-1,0E0,1.0621405E-1,2.0466878E-1,0E0,0E0,0E0,0E0],"parents":[2147483647,0,0,1,1,3,3,5,5,6,6],"right_children":[2,4,-1,6,-1,8,10,-1,-1,-1,-1],"split_conditions":[3.13E2,3.61E2,5.677413E-2,3.19E2,-1.3591306E-1,4E-1,3.35E2,2.346947E-2,-7.675144E-2,-1.6674437E-2,1.3184856E-1],"split_indices":[4,0,0,1,0,6,0,0,0,0,0],"split_type":[0,0,0,0,0,0,0,0,0,0,0],"sum_hessian":[7.6146092E0,5.6145086E0,2.0001009E0,4.311112E0,1.3033965E0,2.2163658E0,2.094746E0,1.0546306E0,1.1617353E0,1.0907718E0,1.0039743E0],"tree_param":{"num_deleted":"0","num_feature":"10","num_nodes":"11","size_leaf_vector":"1"}},{"base_weights":[-1.1595719E-2,6.509369E-2,-7.2737135E-2,-1.24428555E-1,2.3606354E-1,2.7333288E-2,-7.08691E-2,1.10464744E-1,-1.4843068E-2],"categories":[],"categories_nodes":[],"categories_segments":[],"categories_sizes":[],"default_left":[0,0,0,0,0,0,0,0,0],"id":29,"left_children":[1,3,-1,5,7,-1,-1,-1,-1],"loss_changes":[1.6538726E-1,2.6044655E-1,0E0,1.1880555E-1,1.7271699E-1,0E0,0E0,0E0,0E0],"parents":[2147483647,0,0,1,1,3,3,4,4],"right_children":[2,4,-1,6,8,-1,-1,-1,-1],"split_conditions":[8.5714287E-1,1.17E2,-7.2737135E-2,2.42E2,1.77E3,2.7333288E-2,-7.08691E-2,1.10464744E-1,-1.4843068E-2],"split_indices":[7,5,0,1,3,0,0,0,0],"split_type":[0,0,0,0,0,0,0,0,0],"sum_hessian":[7.4500437E0,6.131329E0,1.3187146E0,3.0369978E0,3.0943313E0,1.1004801E0,1.9365176E0,1.9173936E0,1.1769376E0],"tree_param":{"num_deleted":"0","num_feature":"10","num_nodes":"9","size_leaf_vector":"1"}},{"base_weights":[-1.1110065E-2,6.880159E-2,-6.738887E-2,-6.846098E-2,8.856001E-2,4.0737223E-2,-2.1570514E-1,2.9714834E-2,-1.2387911E-1],"categories":[],"categories_nodes":[],"categories_segments":[],"categories_sizes":[],"default_left":[0,0,0,0,0,0,0,0,0],"id":30,"left_children":[1,3,-1,5,-1,-1,7,-1,-1],"loss_changes":[1.5762404E-1,2.3241383E-1,0E0,1.815563E-1,0E0,0E0,2.4751486E-1,0E0,0E0],"parents":[2147483647,0,0,1,1,3,3,6,6],"right_children":[2,4,-1,6,-1,-1,8,-1,-1],"split_conditions":[6.621212E0,6.0694447E0,-6.738887E-2,8.6E1,8.856001E-2,4.0737223E-2,4.8070173E0,2.9714834E-2,-1.2387911E-1],"split_indices":[9,9,0,5,0,0,9,0,0],"split_type":[0,0,0,0,0,0,0,0,0],"sum_hessian":[7.332163E0,5.8285484E0,1.5036144E0,4.062882E0,1.7656664E0,1.7345554E0,2.3283265E0,1.0886768E0,1.2396498E0],"tree_param":{"num_deleted":"0","num_feature":"10","num_nodes":"9","size_leaf_vector":"1"}},{"base_weights":[-1.2763305E-2,6.6814E-2,-5.9620943E-2,1.5099393E-1,-5.680101E-2,2.6862645E-1,-4.285261E-2,6.655776E-2,1.308876E-1,-2.3094216E-2,5.294213E-2],"categories":[],"categories_nodes":[],"categories_segments":[],"categories_sizes":[],"default_left":[0,0,0,0,0,0,0,0,0,0,0],"id":31,"left_children":[1,3,-1,5,-1,7,-1,9,-1,-1,-1],"loss_changes":[1.3465923E-1,1.6858238E-1,0E0,2.265012E-1,0E0,1.14408076E-1,0E0,6.249461E-2,0E0,0E0,0E0],"parents":[2147483647,0,0,1,1,3,3,5,5,7,7],"right_children":[2,4,-1,6,-1,8,-1,10,-1,-1,-1],"split_conditions":[3.6E2,5.263158E-1,-5.9620943E-2,1.25E2,-5.680101E-2,3.19E2,-4.285261E-2,1.862E3,1.308876E-1,-2.3094216E-2,5.294213E-2],"split_indices":[1,6,0,5,0,1,0,3,0,0,0],"split_type":[0,0,0,0,0,0,0,0,0,0,0],"sum_hessian":[7.2018285E0,5.4923873E0,1.7094412E0,4.442843E0,1.0495441E0,3.2339694E0,1.2088736E0,2.1000178E0,1.1339517E0,1.0406637E0,1.0593542E0],"tree_param":{"num_deleted":"0","num_feature":"10","num_nodes":"11","size_leaf_vector":"1"}},{"base_weights":[-8.966615E-3,-5.8786973E-2,6.5130614E-2,8.720507E-2,-8.4672116E-2,3.5667636E-2,-7.6000094E-2],"categories":[],"categories_nodes":[],"categories_segments":[],"categories_sizes":[],"default_left":[0,0,0,0,0,0,0],"id":32,"left_children":[1,-1,3,-1,5,-1,-1],"loss_changes":[1.24699585E-1,0E0,2.4547547E-1,0E0,1.9156605E-1,0E0,0E0],"parents":[2147483647,0,0,2,2,4,4],"right_children":[2,-1,4,-1,6,-1,-1],"split_conditions":[1E0,-5.8786973E-2,2.72E2,8.720507E-2,2E0,3.5667636E-2,-7.6000094E-2],"split_indices":[2,0,1,0,2,0,0],"split_type":[0,0,0,0,0,0,0],"sum_hessian":[7.0789084E0,1.5422747E0,5.5366335E0,1.834319E0,3.7023146E0,1.8112861E0,1.8910284E0],"tree_param":{"num_deleted":"0","num_feature":"10","num_nodes":"7","size_leaf_vector":"1"}},{"base_weights":[-8.216065E-3,1.2837406E-1,-1.2366414E-1,-4.241924E-2,8.226106E-2,3.569489E-2,-2.445268E-1,-1.2024882E-1,-8.2202506E-4],"categories":[],"categories_nodes":[],"categories_segments":[],"categories_sizes":[],"default_left":[0,0,0,0,0,0,0,0,0],"id":33,"left_children":[1,3,5,-1,-1,-1,7,-1,-1],"loss_changes":[1.4171726E-1,2.0188189E-1,1.7086722E-1,0E0,0E0,0E0,1.3322197E-1,0E0,0E0],"parents":[2147483647,0,0,1,1,2,2,6,6],"right_children":[2,4,6,-1,-1,-1,8,-1,-1],"split_conditions":[1.702E3,2.07E2,3.38E2,-4.241924E-2,8.226106E-2,3.569489E-2,4.31E2,-1.2024882E-1,-8.2202506E-4],"split_indices":[3,4,0,0,0,0,0,0,0],"split_type":[0,0,0,0,0,0,0,0,0],"sum_hessian":[6.9803076E0,3.1460989E0,3.8342085E0,1.1145931E0,2.0315058E0,1.2799996E0,2.554209E0,1.1518298E0,1.402379E0],"tree_param":{"num_deleted":"0","num_feature":"10","num_nodes":"9","size_leaf_vector":"1"}},{"base_weights":[-1.2283503E-2,-8.99434E-2,4.6912495E-2,5.5708233E-2,-1.168788E-1,-5.1081493E-2,1.945491E-1,-2.844445E-2,1.2947445E-1],"categories":[],"categories_nodes":[],"categories_segments":[],"categories_sizes":[],"default_left":[0,0,0,0,0,0,0,0,0],"id":34,"left_children":[1,3,-1,5,-1,-1,7,-1,-1],"loss_changes":[1.17209315E-1,2.8474605E-1,0E0,1.8782128E-1,0E0,0E0,2.8240725E-1,0E0,0E0],"parents":[2147483647,0,0,1,1,3,3,6,6],"right_children":[2,4,-1,6,-1,-1,8,-1,-1],"split_conditions":[3.13E2,3.61E2,4.6912495E-2,4.767857E0,-1.168788E-1,-5.1081493E-2,7.1428573E-1,-2.844445E-2,1.2947445E-1],"split_indices":[4,0,0,9,0,0,7,0,0],"split_type":[0,0,0,0,0,0,0,0,0],"sum_hessian":[6.8748217E0,5.0268764E0,1.8479452E0,3.9304833E0,1.096393E0,1.4096812E0,2.520802E0,1.4052707E0,1.1155314E0],"tree_param":{"num_deleted":"0","num_feature":"10","num_nodes":"9","size_leaf_vector":"1"}},{"base_weights":[-1.1823619E-2,6.0173035E-2,-6.78237E-2,-1.2645496E-1,2.281848E-1,-8.213915E-2,8.624577E-3,1.00667566E-1,-9.717629E-3],"categories":[],"categories_nodes":[],"categories_segments":[],"categories_sizes":[],"default_left":[0,0,0,0,0,0,0,0,0],"id":35,"left_children":[1,3,-1,5,7,-1,-1,-1,-1],"loss_changes":[1.3285692E-1,2.3505622E-1,0E0,9.383038E-2,1.1767334E-1,0E0,0E0,0E0,0E0],"parents":[2147483647,0,0,1,1,3,3,4,4],"right_children":[2,4,-1,6,8,-1,-1,-1,-1],"split_conditions":[8.5714287E-1,1.17E2,-6.78237E-2,2.64E2,1.77E3,-8.213915E-2,8.624577E-3,1.00667566E-1,-9.717629E-3],"split_indices":[7,5,0,4,3,0,0,0,0],"split_type":[0,0,0,0,0,0,0,0,0],"sum_hessian":[6.7308187E0,5.576193E0,1.1546261E0,2.75892E0,2.8172727E0,1.0233183E0,1.7356018E0,1.7913668E0,1.0259058E0],"tree_param":{"num_deleted":"0","num_feature":"10","num_nodes":"9","size_leaf_vector":"1"}},{"base_weights":[-1.5267794E-2,6.421727E-2,-6.008597E-2,1.460009E-1,-5.2876547E-2,-1.2883923E-2,1.0175059E-1,7.045949E-2,-7.112706E-2],"categories":[],"categories_nodes":[],"categories_segments":[],"categories_sizes":[],"default_left":[0,0,0,0,0,0,0,0,0],"id":36,"left_children":[1,3,-1,5,-1,7,-1,-1,-1],"loss_changes":[1.2519863E-1,1.4570926E-1,0E0,1.6087131E-1,0E0,2.6461142E-1,0E0,0E0,0E0],"parents":[2147483647,0,0,1,1,3,3,5,5],"right_children":[2,4,-1,6,-1,8,-1,-1,-1],"split_conditions":[3.6E2,6.621212E0,-6.008597E-2,2.83E2,-5.2876547E-2,1.636E3,1.0175059E-1,7.045949E-2,-7.112706E-2],"split_indices":[1,9,0,4,0,3,0,0,0],"split_type":[0,0,0,0,0,0,0,0,0],"sum_hessian":[6.6387215E0,5.100454E0,1.5382677E0,4.0991936E0,1.0012603E0,2.7612798E0,1.3379139E0,1.289185E0,1.4720948E0],"tree_param":{"num_deleted":"0","num_feature":"10","num_nodes":"9","size_leaf_vector":"1"}},{"base_weights":[-1.27116265E-2,4.33172E-2,-9.5164284E-2,-7.9540074E-2,6.28416E-2,-4.3356653E-2,6.7880355E-2],"categories":[],"categories_nodes":[],"categories_segments":[],"categories_sizes":[],"default_left":[0,0,0,0,0,0,0],"id":37,"left_children":[1,-1,3,-1,5,-1,-1],"loss_changes":[1.1094344E-1,0E0,1.6501242E-1,0E0,1.571094E-1,0E0,0E0],"parents":[2147483647,0,0,2,2,4,4],"right_children":[2,-1,4,-1,6,-1,-1],"split_conditions":[2.72E2,4.33172E-2,6.666667E-1,-7.9540074E-2,6E0,-4.3356653E-2,6.7880355E-2],"split_indices":[1,0,7,0,8,0,0],"split_type":[0,0,0,0,0,0,0],"sum_hessian":[6.503964E0,1.9800514E0,4.5239124E0,1.8528144E0,2.671098E0,1.2282735E0,1.4428245E0],"tree_param":{"num_deleted":"0","num_feature":"10","num_nodes":"7","size_leaf_vector":"1"}},{"base_weights":[-1.1014017E-2,5.5929318E-2,-6.1885543E-2,-1.252256E-1,2.1518995E-1,-7.412411E-2,1.345584E-2,-3.128399E-3,9.989811E-2],"categories":[],"categories_nodes":[],"categories_segments":[],"categories_sizes":[],"default_left":[0,0,0,0,0,0,0,0,0],"id":38,"left_children":[1,3,-1,5,7,-1,-1,-1,-1],"loss_changes":[1.0843278E-1,2.0890106E-1,0E0,8.533277E-2,1.0245198E-1,0E0,0E0,0E0,0E0],"parents":[2147483647,0,0,1,1,3,3,4,4],"right_children":[2,4,-1,6,8,-1,-1,-1,-1],"split_conditions":[8.5714287E-1,1.17E2,-6.1885543E-2,2E0,4.7058824E-1,-7.412411E-2,1.345584E-2,-3.128399E-3,9.989811E-2],"split_indices":[7,5,0,2,6,0,0,0,0],"split_type":[0,0,0,0,0,0,0,0,0],"sum_hessian":[6.4123816E0,5.306705E0,1.1056768E0,2.5826793E0,2.7240257E0,1.2408869E0,1.3417925E0,1.2470853E0,1.4769404E0],"tree_param":{"num_deleted":"0","num_feature":"10","num_nodes":"9","size_leaf_vector":"1"}},{"base_weights":[-1.1556797E-2,7.918897E-2,-1.4996162E-1,6.29362E-2,-6.4058E-2,-8.199474E-2,1.7518628E-2,-8.6275265E-2,5.827968E-2],"categories":[],"categories_nodes":[],"categories_segments":[],"categories_sizes":[],"default_left":[0,0,0,0,0,0,0,0,0],"id":39,"left_children":[1,3,5,-1,7,-1,-1,-1,-1],"loss_changes":[1.0375322E-1,1.0833979E-1,9.929851E-2,0E0,2.3979543E-1,0E0,0E0,0E0,0E0],"parents":[2147483647,0,0,1,1,2,2,4,4],"right_children":[2,4,6,-1,8,-1,-1,-1,-1],"split_conditions":[3.77E2,2E0,4.85E2,6.29362E-2,5.8235292E0,-8.199474E-2,1.7518628E-2,-8.6275265E-2,5.827968E-2],"split_indices":[0,8,0,0,9,0,0,0,0],"split_type":[0,0,0,0,0,0,0,0,0],"sum_hessian":[6.3153224E0,4.0728106E0,2.242512E0,1.8874793E0,2.1853313E0,1.212755E0,1.029757E0,1.1108482E0,1.0744832E0],"tree_param":{"num_deleted":"0","num_feature":"10","num_nodes":"9","size_leaf_vector":"1"}},{"base_weights":[-1.2884203E-2,5.6873564E-2,-5.6028586E-2,1.311056E-1,-4.3684307E-2,8.251877E-2,-4.0044744E-2,6.0054716E-2,-7.768466E-2],"categories":[],"categories_nodes":[],"categories_segments":[],"categories_sizes":[],"default_left":[0,0,0,0,0,0,0,0,0],"id":40,"left_children":[1,3,-1,5,-1,-1,7,-1,-1],"loss_changes":[9.813123E-2,1.08008E-1,0E0,1.3063066E-1,0E0,0E0,2.1437569E-1,0E0,0E0],"parents":[2147483647,0,0,1,1,3,3,6,6],"right_children":[2,4,-1,6,-1,-1,8,-1,-1],"split_conditions":[6.621212E0,3.6E2,-5.6028586E-2,9E1,-4.3684307E-2,8.251877E-2,1.83E2,6.0054716E-2,-7.768466E-2],"split_indices":[9,1,0,5,0,0,4,0,0],"split_type":[0,0,0,0,0,0,0,0,0],"sum_hessian":[6.214699E0,4.915548E0,1.299151E0,3.8548768E0,1.060671E0,1.7640064E0,2.0908704E0,1.0376594E0,1.0532111E0],"tree_param":{"num_deleted":"0","num_feature":"10","num_nodes":"9","size_leaf_vector":"1"}},{"base_weights":[-1.4320017E-2,4.0298104E-2,-9.295021E-2,4.4434104E-2,-7.350575E-2,7.174791E-2,-6.803756E-2],"categories":[],"categories_nodes":[],"categories_segments":[],"categories_sizes":[],"default_left":[0,0,0,0,0,0,0],"id":41,"left_children":[1,-1,3,5,-1,-1,-1],"loss_changes":[9.560118E-2,0E0,1.20400846E-1,2.4439424E-1,0E0,0E0,0E0],"parents":[2147483647,0,0,2,2,3,3],"right_children":[2,-1,4,6,-1,-1,-1],"split_conditions":[2.72E2,4.0298104E-2,2E0,3.5E2,-7.350575E-2,7.174791E-2,-6.803756E-2],"split_indices":[1,0,2,0,0,0,0],"split_type":[0,0,0,0,0,0,0],"sum_hessian":[6.11109E0,1.8691683E0,4.241922E0,2.6004179E0,1.6415039E0,1.5824976E0,1.0179204E0],"tree_param":{"num_deleted":"0","num_feature":"10","num_nodes":"7","size_leaf_vector":"1"}},{"base_weights":[-1.4746861E-2,-9.5182866E-2,4.6217088E-2,3.6796913E-2,-8.717328E-2,6.5174736E-2,-5.3611565E-2],"categories":[],"categories_nodes":[],"categories_segments":[],"categories_sizes":[],"default_left":[0,0,0,0,0,0,0],"id":42,"left_children":[1,3,-1,5,-1,-1,-1],"loss_changes":[1.1017028E-1,1.494853E-1,0E0,1.982595E-1,0E0,0E0,0E0],"parents":[2147483647,0,0,1,1,3,3],"right_children":[2,4,-1,6,-1,-1,-1],"split_conditions":[3.13E2,3.5E2,4.6217088E-2,2E0,-8.717328E-2,6.5174736E-2,-5.3611565E-2],"split_indices":[4,0,0,8,0,0,0],"split_type":[0,0,0,0,0,0,0],"sum_hessian":[6.03398E0,4.382044E0,1.6519362E0,3.0998933E0,1.2821504E0,1.682736E0,1.4171573E0],"tree_param":{"num_deleted":"0","num_feature":"10","num_nodes":"7","size_leaf_vector":"1"}},{"base_weights":[-1.5115368E-2,4.5202844E-2,-5.4715473E-2,-1.225389E-1,1.951216E-1,-7.011189E-2,1.3286165E-2,3.3771298E-3,8.457285E-2],"categories":[],"categories_nodes":[],"categories_segments":[],"categories_sizes":[],"default_left":[0,0,0,0,0,0,0,0,0],"id":43,"left_children":[1,3,-1,5,7,-1,-1,-1,-1],"loss_changes":[7.844205E-2,1.726575E-1,0E0,7.351282E-2,5.282317E-2,0E0,0E0,0E0,0E0],"parents":[2147483647,0,0,1,1,3,3,4,4],"right_children":[2,4,-1,6,8,-1,-1,-1,-1],"split_conditions":[8.5714287E-1,1.17E2,-5.4715473E-2,2.83E2,4.7058824E-1,-7.011189E-2,1.3286165E-2,3.3771298E-3,8.457285E-2],"split_indices":[7,5,0,4,6,0,0,0,0],"split_type":[0,0,0,0,0,0,0,0,0],"sum_hessian":[5.957573E0,4.914971E0,1.0426021E0,2.4057953E0,2.5091755E0,1.203155E0,1.2026403E0,1.166851E0,1.3423245E0],"tree_param":{"num_deleted":"0","num_feature":"10","num_nodes":"9","size_leaf_vector":"1"}},{"base_weights":[-1.4293224E-2,4.942548E-2,-5.5485602E-2,-1.0420379E-1,2.0049776E-1,-9.55396E-2,6.1185494E-2,8.314606E-2,1.3230312E-2],"categories":[],"categories_nodes":[],"categories_segments":[],"categories_sizes":[],"default_left":[0,0,0,0,0,0,0,0,0],"id":44,"left_children":[1,3,-1,5,7,-1,-1,-1,-1],"loss_changes":[8.3985224E-2,1.5552147E-1,0E0,2.9828805E-1,2.694039E-2,0E0,0E0,0E0,0E0],"parents":[2147483647,0,0,1,1,3,3,4,4],"right_children":[2,4,-1,6,8,-1,-1,-1,-1],"split_conditions":[1.95E3,1.17E2,-5.5485602E-2,6E0,1.4E2,-9.55396E-2,6.1185494E-2,8.314606E-2,1.3230312E-2],"split_indices":[3,5,0,8,5,0,0,0,0],"split_type":[0,0,0,0,0,0,0,0,0],"sum_hessian":[5.8827295E0,4.8006864E0,1.0820434E0,2.5340176E0,2.2666688E0,1.4749931E0,1.0590246E0,1.0029619E0,1.2637068E0],"tree_param":{"num_deleted":"0","num_feature":"10","num_nodes":"9","size_leaf_vector":"1"}},{"base_weights":[-9.710848E-3,5.2155104E-2,-5.4500457E-2,7.326067E-2,-5.0607894E-2,-9.270031E-2,5.747758E-2],"categories":[],"categories_nodes":[],"categories_segments":[],"categories_sizes":[],"default_left":[0,0,0,0,0,0,0],"id":45,"left_children":[1,3,-1,-1,5,-1,-1],"loss_changes":[8.159444E-2,1.2608343E-1,0E0,0E0,3.459677E-1,0E0,0E0],"parents":[2147483647,0,0,1,1,4,4],"right_children":[2,4,-1,-1,6,-1,-1],"split_conditions":[3.67E2,3.3333334E-1,-5.4500457E-2,7.326067E-2,2.64E2,-9.270031E-2,5.747758E-2],"split_indices":[1,6,0,0,4,0,0],"split_type":[0,0,0,0,0,0,0],"sum_hessian":[5.77923E0,4.7624993E0,1.0167309E0,1.1803172E0,3.5821822E0,1.5997082E0,1.982474E0],"tree_param":{"num_deleted":"0","num_feature":"10","num_nodes":"7","size_leaf_vector":"1"}},{"base_weights":[-9.903297E-3,-5.017004E-2,5.41702E-2,6.1398618E-2,-9.729387E-2,-7.683529E-2,2.9761529E-2],"categories":[],"categories_nodes":[],"categories_segments":[],"categories_sizes":[],"default_left":[0,0,0,0,0,0,0],"id":46,"left_children":[1,-1,3,-1,5,-1,-1],"loss_changes":[7.6292776E-2,0E0,1.4516E-1,0E0,1.3202682E-1,0E0,0E0],"parents":[2147483647,0,0,2,2,4,4],"right_children":[2,-1,4,-1,6,-1,-1],"split_conditions":[1E0,-5.017004E-2,5.6031747E0,6.1398618E-2,3.13E2,-7.683529E-2,2.9761529E-2],"split_indices":[2,0,9,0,4,0,0],"split_type":[0,0,0,0,0,0,0],"sum_hessian":[5.669551E0,1.1748133E0,4.4947376E0,2.0784266E0,2.416311E0,1.16847E0,1.247841E0],"tree_param":{"num_deleted":"0","num_feature":"10","num_nodes":"7","size_leaf_vector":"1"}},{"base_weights":[-1.2752581E-2,1.0592616E-1,-1.1142548E-1,6.735558E-2,-2.238209E-2,3.352339E-2,-2.2477472E-1,6.368805E-4,-1.0266774E-1],"categories":[],"categories_nodes":[],"categories_segments":[],"categories_sizes":[],"default_left":[0,0,0,0,0,0,0,0,0],"id":47,"left_children":[1,3,5,-1,-1,-1,7,-1,-1],"loss_changes":[8.917087E-2,9.194184E-2,1.287001E-1,0E0,0E0,0E0,8.194356E-2,0E0,0E0],"parents":[2147483647,0,0,1,1,2,2,6,6],"right_children":[2,4,6,-1,-1,-1,8,-1,-1],"split_conditions":[1.702E3,3.34E2,3.38E2,6.735558E-2,-2.238209E-2,3.352339E-2,4.6153846E-1,6.368805E-4,-1.0266774E-1],"split_indices":[3,1,0,0,0,0,6,0,0],"split_type":[0,0,0,0,0,0,0,0,0],"sum_hessian":[5.6067905E0,2.5119894E0,3.094801E0,1.36903E0,1.1429594E0,1.0471848E0,2.0476162E0,1.0333213E0,1.014295E0],"tree_param":{"num_deleted":"0","num_feature":"10","num_nodes":"9","size_leaf_vector":"1"}},{"base_weights":[-1.3074725E-2,4.45717E-2,-4.9580023E-2,-1.14070594E-1,1.9860572E-1,-8.988532E-2,4.796836E-2,7.781059E-2,1.3161109E-2],"categories":[],"categories_nodes":[],"categories_segments":[],"categories_sizes":[],"default_left":[0,0,0,0,0,0,0,0,0],"id":48,"left_children":[1,3,-1,5,7,-1,-1,-1,-1],"loss_changes":[6.4649075E-2,1.576194E-1,0E0,2.1850589E-1,1.839877E-2,0E0,0E0,0E0,0E0],"parents":[2147483647,0,0,1,1,3,3,4,4],"right_children":[2,4,-1,6,8,-1,-1,-1,-1],"split_conditions":[1.95E3,1.17E2,-4.9580023E-2,6E0,4E0,-8.988532E-2,4.796836E-2,7.781059E-2,1.3161109E-2],"split_indices":[3,5,0,8,8,0,0,0,0],"split_type":[0,0,0,0,0,0,0,0,0],"sum_hessian":[5.529207E0,4.523106E0,1.0061014E0,2.3560326E0,2.1670732E0,1.3488611E0,1.0071714E0,1.0704939E0,1.0965794E0],"tree_param":{"num_deleted":"0","num_feature":"10","num_nodes":"9","size_leaf_vector":"1"}},{"base_weights":[-9.766088E-3,3.628016E-2,-8.135181E-2,-7.375129E-2,7.125805E-2,7.118518E-2,-4.0027753E-2],"categories":[],"categories_nodes":[],"categories_segments":[],"categories_sizes":[],"default_left":[0,0,0,0,0,0,0],"id":49,"left_children":[1,-1,3,-1,5,-1,-1],"loss_changes":[7.009635E-2,0E0,1.3698144E-1,0E0,1.418982E-1,0E0,0E0],"parents":[2147483647,0,0,2,2,4,4],"right_children":[2,-1,4,-1,6,-1,-1],"split_conditions":[2.72E2,3.628016E-2,6.666667E-1,-7.375129E-2,9.4E1,7.118518E-2,-4.0027753E-2],"split_indices":[1,0,7,0,5,0,0],"split_type":[0,0,0,0,0,0,0],"sum_hessian":[5.440419E0,1.6813262E0,3.759093E0,1.5151478E0,2.2439451E0,1.1510336E0,1.0929116E0],"tree_param":{"num_deleted":"0","num_feature":"10","num_nodes":"7","size_leaf_vector":"1"}},{"base_weights":[-8.188164E-3,1.0766492E-1,-1.0640497E-1,-2.3184901E-2,6.6649295E-2,1.9964067E-2,-6.7412965E-2],"categories":[],"categories_nodes":[],"categories_segments":[],"categories_sizes":[],"default_left":[0,0,0,0,0,0,0],"id":50,"left_children":[1,3,5,-1,-1,-1,-1],"loss_changes":[8.388121E-2,8.953673E-2,9.5726095E-2,0E0,0E0,0E0,0E0],"parents":[2147483647,0,0,1,1,2,2],"right_children":[2,4,6,-1,-1,-1,-1],"split_conditions":[1.702E3,3.39E2,5.5285716E0,-2.3184901E-2,6.6649295E-2,1.9964067E-2,-6.7412965E-2],"split_indices":[3,0,9,0,0,0,0],"split_type":[0,0,0,0,0,0,0],"sum_hessian":[5.364963E0,2.417348E0,2.9476151E0,1.0486026E0,1.3687453E0,1.3749907E0,1.5726244E0],"tree_param":{"num_deleted":"0","num_feature":"10","num_nodes":"7","size_leaf_vector":"1"}},{"base_weights":[-6.6000763E-3,-4.6139628E-2,5.4158304E-2,6.598308E-2,-6.672675E-2,2.9888086E-2,-6.122194E-2],"categories":[],"categories_nodes":[],"categories_segments":[],"categories_sizes":[],"default_left":[0,0,0,0,0,0,0],"id":51,"left_children":[1,-1,3,-1,5,-1,-1],"loss_changes":[6.475268E-2,0E0,1.18992336E-1,0E0,1.06638476E-1,0E0,0E0],"parents":[2147483647,0,0,2,2,4,4],"right_children":[2,-1,4,-1,6,-1,-1],"split_conditions":[1E0,-4.6139628E-2,2.72E2,6.598308E-2,2E0,2.9888086E-2,-6.122194E-2],"split_indices":[2,0,1,0,2,0,0],"split_type":[0,0,0,0,0,0,0],"sum_hessian":[5.3088117E0,1.1036626E0,4.205149E0,1.4277067E0,2.7774425E0,1.3802798E0,1.3971628E0],"tree_param":{"num_deleted":"0","num_feature":"10","num_nodes":"7","size_leaf_vector":"1"}},{"base_weights":[-6.668775E-3,9.989784E-2,-9.763656E-2,6.175631E-2,-1.9443594E-2,1.3204556E-2,-5.7061393E-2],"categories":[],"categories_nodes":[],"categories_segments":[],"categories_sizes":[],"default_left":[0,0,0,0,0,0,0],"id":52,"left_children":[1,3,5,-1,-1,-1,-1],"loss_changes":[7.035799E-2,7.2212264E-2,5.9226993E-2,0E0,0E0,0E0,0E0],"parents":[2147483647,0,0,1,1,2,2],"right_children":[2,4,6,-1,-1,-1,-1],"split_conditions":[1.702E3,3.34E2,5.5285716E0,6.175631E-2,-1.9443594E-2,1.3204556E-2,-5.7061393E-2],"split_indices":[3,1,9,0,0,0,0],"split_type":[0,0,0,0,0,0,0],"sum_hessian":[5.251651E0,2.3732626E0,2.8783884E0,1.2922002E0,1.0810623E0,1.3448895E0,1.5334989E0],"tree_param":{"num_deleted":"0","num_feature":"10","num_nodes":"7","size_leaf_vector":"1"}},{"base_weights":[-5.060813E-3,-7.902021E-2,4.2485382E-2,2.2103935E-2,-1.905936E-1,-3.8066853E-3,-8.234371E-2],"categories":[],"categories_nodes":[],"categories_segments":[],"categories_sizes":[],"default_left":[0,0,0,0,0,0,0],"id":53,"left_children":[1,3,-1,-1,5,-1,-1],"loss_changes":[7.850903E-2,9.526279E-2,0E0,0E0,4.178548E-2,0E0,0E0],"parents":[2147483647,0,0,1,1,4,4],"right_children":[2,4,-1,-1,6,-1,-1],"split_conditions":[3.13E2,2E0,4.2485382E-2,2.2103935E-2,1.15E2,-3.8066853E-3,-8.234371E-2],"split_indices":[4,8,0,0,5,0,0],"split_type":[0,0,0,0,0,0,0],"sum_hessian":[5.205445E0,3.7671938E0,1.4382509E0,1.7338568E0,2.033337E0,1.0204425E0,1.0128945E0],"tree_param":{"num_deleted":"0","num_feature":"10","num_nodes":"7","size_leaf_vector":"1"}},{"base_weights":[-7.353572E-3,-4.59276E-2,5.365977E-2,1.3878903E-1,-4.2558752E-2,-1.0987559E-2,8.344531E-2],"categories":[],"categories_nodes":[],"categories_segments":[],"categories_sizes":[],"default_left":[0,0,0,0,0,0,0],"id":54,"left_children":[1,-1,3,5,-1,-1,-1],"loss_changes":[6.304577E-2,0E0,1.0436167E-1,1.0918184E-1,0E0,0E0,0E0],"parents":[2147483647,0,0,2,2,3,3],"right_children":[2,-1,4,6,-1,-1,-1],"split_conditions":[4.767857E0,-4.59276E-2,6.621212E0,6E0,-4.2558752E-2,-1.0987559E-2,8.344531E-2],"split_indices":[9,0,9,8,0,0,0],"split_type":[0,0,0,0,0,0,0],"sum_hessian":[5.166325E0,1.0792464E0,4.0870786E0,3.0495045E0,1.0375739E0,1.6764988E0,1.3730059E0],"tree_param":{"num_deleted":"0","num_feature":"10","num_nodes":"7","size_leaf_vector":"1"}},{"base_weights":[-7.8056157E-3,9.830284E-2,-9.8780565E-2,-2.1867413E-2,6.148058E-2,1.2490602E-2,-5.6941997E-2],"categories":[],"categories_nodes":[],"categories_segments":[],"categories_sizes":[],"default_left":[0,0,0,0,0,0,0],"id":55,"left_children":[1,3,5,-1,-1,-1,-1],"loss_changes":[6.86964E-2,7.5578064E-2,5.632726E-2,0E0,0E0,0E0,0E0],"parents":[2147483647,0,0,1,1,2,2],"right_children":[2,4,6,-1,-1,-1,-1],"split_conditions":[1.702E3,3.39E2,5.5285716E0,-2.1867413E-2,6.148058E-2,1.2490602E-2,-5.6941997E-2],"split_indices":[3,0,9,0,0,0,0],"split_type":[0,0,0,0,0,0,0],"sum_hessian":[5.110504E0,2.3218594E0,2.7886446E0,1.0125974E0,1.3092619E0,1.3101779E0,1.4784667E0],"tree_param":{"num_deleted":"0","num_feature":"10","num_nodes":"7","size_leaf_vector":"1"}},{"base_weights":[-6.412857E-3,-7.277554E-2,3.774158E-2,2.1766767E-2,-5.4569032E-2],"categories":[],"categories_nodes":[],"categories_segments":[],"categories_sizes":[],"default_left":[0,0,0,0,0],"id":56,"left_children":[1,3,-1,-1,-1],"loss_changes":[6.2384747E-2,8.730019E-2,0E0,0E0,0E0],"parents":[2147483647,0,0,1,1],"right_children":[2,4,-1,-1,-1],"split_conditions":[3.13E2,2E0,3.774158E-2,2.1766767E-2,-5.4569032E-2],"split_indices":[4,8,0,0,0],"split_type":[0,0,0,0,0],"sum_hessian":[5.0664554E0,3.6726599E0,1.3937956E0,1.7187105E0,1.9539493E0],"tree_param":{"num_deleted":"0","num_feature":"10","num_nodes":"5","size_leaf_vector":"1"}},{"base_weights":[-3.8572776E-3,6.260833E-2,-3.750904E-2,-8.086089E-2,6.494052E-2,-6.917236E-2,3.336604E-2],"categories":[],"categories_nodes":[],"categories_segments":[],"categories_sizes":[],"default_left":[0,0,0,0,0,0,0],"id":57,"left_children":[1,3,-1,5,-1,-1,-1],"loss_changes":[5.644062E-2,1.1825561E-1,0E0,1.1450165E-1,0E0,0E0,0E0],"parents":[2147483647,0,0,1,1,3,3],"right_children":[2,4,-1,6,-1,-1,-1],"split_conditions":[1.875E3,6E0,-3.750904E-2,3.44E2,6.494052E-2,-6.917236E-2,3.336604E-2],"split_indices":[3,8,0,1,0,0,0],"split_type":[0,0,0,0,0,0,0],"sum_hessian":[5.0359745E0,3.564237E0,1.4717376E0,2.0899148E0,1.4743222E0,1.061864E0,1.0280508E0],"tree_param":{"num_deleted":"0","num_feature":"10","num_nodes":"7","size_leaf_vector":"1"}},{"base_weights":[-4.2984625E-3,5.759759E-2,-4.3811575E-2,1.5379381E-1,-3.417847E-2,5.867224E-3,7.405743E-2],"categories":[],"categories_nodes":[],"categories_segments":[],"categories_sizes":[],"default_left":[0,0,0,0,0,0,0],"id":58,"left_children":[1,3,-1,5,-1,-1,-1],"loss_changes":[6.0903054E-2,9.807083E-2,0E0,3.956098E-2,0E0,0E0,0E0],"parents":[2147483647,0,0,1,1,3,3],"right_children":[2,4,-1,6,-1,-1,-1],"split_conditions":[3.6E2,1.25E2,-4.3811575E-2,3.13E2,-3.417847E-2,5.867224E-3,7.405743E-2],"split_indices":[1,5,0,1,0,0,0],"split_type":[0,0,0,0,0,0,0],"sum_hessian":[4.9832063E0,3.8817406E0,1.1014658E0,2.5532105E0,1.3285301E0,1.5408418E0,1.0123687E0],"tree_param":{"num_deleted":"0","num_feature":"10","num_nodes":"7","size_leaf_vector":"1"}},{"base_weights":[-2.7391529E-3,3.5526E-2,-7.204504E-2,-5.5590566E-2,2.5241034E-2],"categories":[],"categories_nodes":[],"categories_segments":[],"categories_sizes":[],"default_left":[0,0,0,0,0],"id":59,"left_children":[1,-1,3,-1,-1],"loss_changes":[5.8452725E-2,0E0,9.3483545E-2,0E0,0E0],"parents":[2147483647,0,0,2,2],"right_children":[2,-1,4,-1,-1],"split_conditions":[2.72E2,3.5526E-2,4.7058824E-1,-5.5590566E-2,2.5241034E-2],"split_indices":[1,0,6,0,0],"split_type":[0,0,0,0,0],"sum_hessian":[4.945087E0,1.5415404E0,3.4035463E0,1.8648103E0,1.538736E0],"tree_param":{"num_deleted":"0","num_feature":"10","num_nodes":"5","size_leaf_vector":"1"}},{"base_weights":[-1.2364391E-3,8.896231E-2,-8.0096245E-2,-1.9143168E-2,5.590328E-2,1.5105114E-2,-5.0782613E-2],"categories":[],"categories_nodes":[],"categories_segments":[],"categories_sizes":[],"default_left":[0,0,0,0,0,0,0],"id":60,"left_children":[1,3,5,-1,-1,-1,-1],"loss_changes":[4.9152087E-2,5.99418E-2,5.1316015E-2,0E0,0E0,0E0,0E0],"parents":[2147483647,0,0,1,1,2,2],"right_children":[2,4,6,-1,-1,-1,-1],"split_conditions":[1.702E3,1.17E2,5.5285716E0,-1.9143168E-2,5.590328E-2,1.5105114E-2,-5.0782613E-2],"split_indices":[3,5,9,0,0,0,0],"split_type":[0,0,0,0,0,0,0],"sum_hessian":[4.908366E0,2.229821E0,2.6785452E0,1.0022422E0,1.2275789E0,1.2644194E0,1.4141259E0],"tree_param":{"num_deleted":"0","num_feature":"10","num_nodes":"7","size_leaf_vector":"1"}},{"base_weights":[-7.7776174E-4,-6.2303737E-2,3.5390764E-2,2.8165936E-2,-1.4270718E-1,1.7275812E-2,-8.592051E-2],"categories":[],"categories_nodes":[],"categories_segments":[],"categories_sizes":[],"default_left":[0,0,0,0,0,0,0],"id":61,"left_children":[1,3,-1,-1,5,-1,-1],"loss_changes":[5.0274618E-2,7.021744E-2,0E0,0E0,1.1387915E-1,0E0,0E0],"parents":[2147483647,0,0,1,1,4,4],"right_children":[2,4,-1,-1,6,-1,-1],"split_conditions":[3.13E2,8.6E1,3.5390764E-2,2.8165936E-2,1.92E2,1.7275812E-2,-8.592051E-2],"split_indices":[4,5,0,0,4,0,0],"split_type":[0,0,0,0,0,0,0],"sum_hessian":[4.8752484E0,3.5244567E0,1.3507917E0,1.1407555E0,2.3837013E0,1.2460712E0,1.1376301E0],"tree_param":{"num_deleted":"0","num_feature":"10","num_nodes":"7","size_leaf_vector":"1"}},{"base_weights":[-1.7952984E-3,-3.392904E-2,6.378474E-2,-4.02768E-2,1.6729541E-1,6.5800376E-2,8.142636E-3],"categories":[],"categories_nodes":[],"categories_segments":[],"categories_sizes":[],"default_left":[0,0,0,0,0,0,0],"id":62,"left_children":[1,-1,3,-1,5,-1,-1],"loss_changes":[4.975731E-2,0E0,1.1075032E-1,0E0,1.7923921E-2,0E0,0E0],"parents":[2147483647,0,0,2,2,4,4],"right_children":[2,-1,4,-1,6,-1,-1],"split_conditions":[5.344262E0,-3.392904E-2,4.2105263E-1,-4.02768E-2,6.2459016E0,6.5800376E-2,8.142636E-3],"split_indices":[9,0,6,0,9,0,0],"split_type":[0,0,0,0,0,0,0],"sum_hessian":[4.8285456E0,1.5215801E0,3.306965E0,1.0331932E0,2.273772E0,1.2461222E0,1.0276498E0],"tree_param":{"num_deleted":"0","num_feature":"10","num_nodes":"7","size_leaf_vector":"1"}},{"base_weights":[-1.3499649E-3,6.2275164E-2,-3.4871392E-2,-1.8522073E-2,5.685577E-2],"categories":[],"categories_nodes":[],"categories_segments":[],"categories_sizes":[],"default_left":[0,0,0,0,0],"id":63,"left_children":[1,3,-1,-1,-1],"loss_changes":[4.9596157E-2,8.082583E-2,0E0,0E0,0E0],"parents":[2147483647,0,0,1,1],"right_children":[2,4,-1,-1,-1],"split_conditions":[1.875E3,6E0,-3.4871392E-2,-1.8522073E-2,5.685577E-2],"split_indices":[3,8,0,0,0],"split_type":[0,0,0,0,0],"sum_hessian":[4.794636E0,3.3804739E0,1.4141619E0,1.9726583E0,1.4078156E0],"tree_param":{"num_deleted":"0","num_feature":"10","num_nodes":"5","size_leaf_vector":"1"}},{"base_weights":[-3.6581387E-4,3.5267837E-2,-6.933582E-2,5.1266726E-2,-6.2092453E-2,-2.5001274E-2,4.950017E-2],"categories":[],"categories_nodes":[],"categories_segments":[],"categories_sizes":[],"default_left":[0,0,0,0,0,0,0],"id":64,"left_children":[1,-1,3,5,-1,-1,-1],"loss_changes":[5.5045154E-2,0E0,8.144124E-2,6.083712E-2,0E0,0E0,0E0],"parents":[2147483647,0,0,2,2,3,3],"right_children":[2,-1,4,6,-1,-1,-1],"split_conditions":[2.72E2,3.5267837E-2,3.61E2,3.23E2,-6.2092453E-2,-2.5001274E-2,4.950017E-2],"split_indices":[1,0,0,0,0,0,0],"split_type":[0,0,0,0,0,0,0],"sum_hessian":[4.7656846E0,1.4986995E0,3.2669852E0,2.075719E0,1.1912662E0,1.073036E0,1.002683E0],"tree_param":{"num_deleted":"0","num_feature":"10","num_nodes":"7","size_leaf_vector":"1"}},{"base_weights":[-8.158887E-4,8.908534E-2,-8.05638E-2,5.1830664E-2,-1.3806891E-2,1.1244384E-2,-4.7531802E-2],"categories":[],"categories_nodes":[],"categories_segments":[],"categories_sizes":[],"default_left":[0,0,0,0,0,0,0],"id":65,"left_children":[1,3,5,-1,-1,-1,-1],"loss_changes":[4.8227552E-2,4.3752033E-2,3.8658872E-2,0E0,0E0,0E0,0E0],"parents":[2147483647,0,0,1,1,2,2],"right_children":[2,4,6,-1,-1,-1,-1],"split_conditions":[1.702E3,3.34E2,5.5285716E0,5.1830664E-2,-1.3806891E-2,1.1244384E-2,-4.7531802E-2],"split_indices":[3,1,9,0,0,0,0],"split_type":[0,0,0,0,0,0,0],"sum_hessian":[4.7257648E0,2.166427E0,2.559338E0,1.165682E0,1.0007448E0,1.2234755E0,1.3358625E0],"tree_param":{"num_deleted":"0","num_feature":"10","num_nodes":"7","size_leaf_vector":"1"}},{"base_weights":[-3.2873088E-4,-6.528514E-2,3.7028763E-2,-1.5111479E-1,3.0532682E-2,1.5173915E-2,-8.1988856E-2],"categories":[],"categories_nodes":[],"categories_segments":[],"categories_sizes":[],"default_left":[0,0,0,0,0,0,0],"id":66,"left_children":[1,3,-1,5,-1,-1,-1],"loss_changes":[5.3834897E-2,7.8304514E-2,0E0,9.5182456E-2,0E0,0E0,0E0],"parents":[2147483647,0,0,1,1,3,3],"right_children":[2,4,-1,6,-1,-1,-1],"split_conditions":[3.13E2,3.53E2,3.7028763E-2,9.4E1,3.0532682E-2,1.5173915E-2,-8.1988856E-2],"split_indices":[4,1,0,5,0,0,0],"split_type":[0,0,0,0,0,0,0],"sum_hessian":[4.6944323E0,3.3884337E0,1.3059986E0,2.3014722E0,1.0869616E0,1.0893021E0,1.21217E0],"tree_param":{"num_deleted":"0","num_feature":"10","num_nodes":"7","size_leaf_vector":"1"}},{"base_weights":[-4.4626693E-4,5.7683602E-2,-3.9856367E-2,5.578093E-2,-4.646816E-2,-6.422173E-2,3.8196098E-2],"categories":[],"categories_nodes":[],"categories_segments":[],"categories_sizes":[],"default_left":[0,0,0,0,0,0,0],"id":67,"left_children":[1,3,-1,-1,5,-1,-1],"loss_changes":[5.1159024E-2,7.041011E-2,0E0,0E0,1.248909E-1,0E0,0E0],"parents":[2147483647,0,0,1,1,4,4],"right_children":[2,4,-1,-1,6,-1,-1],"split_conditions":[3.6E2,1.636E3,-3.9856367E-2,5.578093E-2,2.83E2,-6.422173E-2,3.8196098E-2],"split_indices":[1,3,0,0,4,0,0],"split_type":[0,0,0,0,0,0,0],"sum_hessian":[4.651058E0,3.6242783E0,1.0267798E0,1.2723085E0,2.3519697E0,1.0792886E0,1.2726811E0],"tree_param":{"num_deleted":"0","num_feature":"10","num_nodes":"7","size_leaf_vector":"1"}},{"base_weights":[-2.295166E-3,-9.2232496E-2,9.2586055E-2,-4.6826314E-2,8.332195E-3,6.694536E-2,-2.9675743E-2],"categories":[],"categories_nodes":[],"categories_segments":[],"categories_sizes":[],"default_left":[0,0,0,0,0,0,0],"id":68,"left_children":[1,3,5,-1,-1,-1,-1],"loss_changes":[5.6341164E-2,3.0211365E-2,1.0271131E-1,0E0,0E0,0E0,0E0],"parents":[2147483647,0,0,1,1,2,2],"right_children":[2,4,6,-1,-1,-1,-1],"split_conditions":[1.17E2,5E0,6E-1,-4.6826314E-2,8.332195E-3,6.694536E-2,-2.9675743E-2],"split_indices":[5,8,7,0,0,0,0],"split_type":[0,0,0,0,0,0,0],"sum_hessian":[4.6017447E0,2.3767521E0,2.2249928E0,1.3550643E0,1.0216879E0,1.2247376E0,1.000255E0],"tree_param":{"num_deleted":"0","num_feature":"10","num_nodes":"7","size_leaf_vector":"1"}},{"base_weights":[-1.8876428E-3,3.214938E-2,-6.5751694E-2,-6.020582E-2,1.8963404E-2],"categories":[],"categories_nodes":[],"categories_segments":[],"categories_sizes":[],"default_left":[0,0,0,0,0],"id":69,"left_children":[1,-1,3,-1,-1],"loss_changes":[4.5820545E-2,0E0,8.456996E-2,0E0,0E0],"parents":[2147483647,0,0,2,2],"right_children":[2,-1,4,-1,-1],"split_conditions":[2.72E2,3.214938E-2,6.666667E-1,-6.020582E-2,1.8963404E-2],"split_indices":[1,0,7,0,0],"split_type":[0,0,0,0,0],"sum_hessian":[4.5674057E0,1.4364899E0,3.1309156E0,1.2582518E0,1.872664E0],"tree_param":{"num_deleted":"0","num_feature":"10","num_nodes":"5","size_leaf_vector":"1"}},{"base_weights":[-3.144905E-3,-8.291465E-2,8.092509E-2,-4.338553E-2,3.3118078E-3,5.293171E-2,-1.7301062E-2],"categories":[],"categories_nodes":[],"categories_segments":[],"categories_sizes":[],"default_left":[0,0,0,0,0,0,0],"id":70,"left_children":[1,3,5,-1,-1,-1,-1],"loss_changes":[4.3845214E-2,2.0932365E-2,5.2564196E-2,0E0,0E0,0E0,0E0],"parents":[2147483647,0,0,1,1,2,2],"right_children":[2,4,6,-1,-1,-1,-1],"split_conditions":[1.17E2,1.768E3,1.702E3,-4.338553E-2,3.3118078E-3,5.293171E-2,-1.7301062E-2],"split_indices":[5,3,3,0,0,0,0],"split_type":[0,0,0,0,0,0,0],"sum_hessian":[4.537429E0,2.3353124E0,2.2021165E0,1.084093E0,1.2512195E0,1.1420277E0,1.0600886E0],"tree_param":{"num_deleted":"0","num_feature":"10","num_nodes":"7","size_leaf_vector":"1"}},{"base_weights":[-3.0567043E-3,3.1985864E-2,-5.374296E-2,-1.5947333E-1,3.9758068E-2,-8.981799E-2,2.1648897E-2],"categories":[],"categories_nodes":[],"categories_segments":[],"categories_sizes":[],"default_left":[0,0,0,0,0,0,0],"id":71,"left_children":[1,-1,3,5,-1,-1,-1],"loss_changes":[3.6379326E-2,0E0,1.08491115E-1,1.2802124E-1,0E0,0E0,0E0],"parents":[2147483647,0,0,2,2,3,3],"right_children":[2,-1,4,6,-1,-1,-1],"split_conditions":[3.3333334E-1,3.1985864E-2,3.53E2,2.83E2,3.9758068E-2,-8.981799E-2,2.1648897E-2],"split_indices":[6,0,1,4,0,0,0],"split_type":[0,0,0,0,0,0,0],"sum_hessian":[4.513374E0,1.0777627E0,3.435611E0,2.2833793E0,1.1522316E0,1.2411486E0,1.0422307E0],"tree_param":{"num_deleted":"0","num_feature":"10","num_nodes":"7","size_leaf_vector":"1"}},{"base_weights":[-1.9547145E-3,6.3380405E-2,-3.0820085E-2,-2.1286866E-2,5.19381E-2],"categories":[],"categories_nodes":[],"categories_segments":[],"categories_sizes":[],"default_left":[0,0,0,0,0],"id":72,"left_children":[1,3,-1,-1,-1],"loss_changes":[4.246203E-2,7.023828E-2,0E0,0E0,0E0],"parents":[2147483647,0,0,1,1],"right_children":[2,4,-1,-1,-1],"split_conditions":[3.77E2,3.36E2,-3.0820085E-2,-2.1286866E-2,5.19381E-2],"split_indices":[0,0,0,0,0],"split_type":[0,0,0,0,0],"sum_hessian":[4.459985E0,2.930944E0,1.529041E0,1.4767566E0,1.4541874E0],"tree_param":{"num_deleted":"0","num_feature":"10","num_nodes":"5","size_leaf_vector":"1"}},{"base_weights":[-1.419048E-3,3.0271102E-2,-6.2235452E-2,1.4960296E-2,-5.5119272E-2],"categories":[],"categories_nodes":[],"categories_segments":[],"categories_sizes":[],"default_left":[0,0,0,0,0],"id":73,"left_children":[1,-1,3,-1,-1],"loss_changes":[4.009899E-2,0E0,6.4012475E-2,0E0,0E0],"parents":[2147483647,0,0,2,2],"right_children":[2,-1,4,-1,-1],"split_conditions":[2.72E2,3.0271102E-2,2E0,1.4960296E-2,-5.5119272E-2],"split_indices":[1,0,2,0,0],"split_type":[0,0,0,0,0],"sum_hessian":[4.434638E0,1.4074581E0,3.02718E0,1.8810749E0,1.146105E0],"tree_param":{"num_deleted":"0","num_feature":"10","num_nodes":"5","size_leaf_vector":"1"}},{"base_weights":[-2.9389763E-3,2.24359E-2,-7.075808E-2,1.6795242E-2,-4.79493E-2],"categories":[],"categories_nodes":[],"categories_segments":[],"categories_sizes":[],"default_left":[0,0,0,0,0],"id":74,"left_children":[1,-1,3,-1,-1],"loss_changes":[3.3833712E-2,0E0,4.7392886E-2,0E0,0E0],"parents":[2147483647,0,0,2,2],"right_children":[2,-1,4,-1,-1],"split_conditions":[1.702E3,2.24359E-2,5.5285716E0,1.6795242E-2,-4.79493E-2],"split_indices":[3,0,9,0,0],"split_type":[0,0,0,0,0],"sum_hessian":[4.4146404E0,2.0092132E0,2.4054272E0,1.1461066E0,1.2593205E0],"tree_param":{"num_deleted":"0","num_feature":"10","num_nodes":"5","size_leaf_vector":"1"}},{"base_weights":[-3.7732155E-3,-6.3942865E-2,3.2698706E-2,2.4889914E-2,-5.3551607E-2],"categories":[],"categories_nodes":[],"categories_segments":[],"categories_sizes":[],"default_left":[0,0,0,0,0],"id":75,"left_children":[1,3,-1,-1,-1],"loss_changes":[4.359717E-2,8.46596E-2,0E0,0E0,0E0],"parents":[2147483647,0,0,1,1],"right_children":[2,4,-1,-1,-1],"split_conditions":[3.13E2,2E0,3.2698706E-2,2.4889914E-2,-5.3551607E-2],"split_indices":[4,8,0,0,0],"split_type":[0,0,0,0,0],"sum_hessian":[4.398119E0,3.150235E0,1.247884E0,1.5010985E0,1.6491364E0],"tree_param":{"num_deleted":"0","num_feature":"10","num_nodes":"5","size_leaf_vector":"1"}},{"base_weights":[-2.0427676E-3,2.4975762E-2,-6.8690106E-2,-5.231272E-2,2.4283072E-2],"categories":[],"categories_nodes":[],"categories_segments":[],"categories_sizes":[],"default_left":[0,0,0,0,0],"id":76,"left_children":[1,-1,3,-1,-1],"loss_changes":[3.6257222E-2,0E0,7.046998E-2,0E0,0E0],"parents":[2147483647,0,0,2,2],"right_children":[2,-1,4,-1,-1],"split_conditions":[2.94E2,2.4975762E-2,4.7058824E-1,-5.231272E-2,2.4283072E-2],"split_indices":[1,0,6,0,0],"split_type":[0,0,0,0,0],"sum_hessian":[4.372064E0,1.8084537E0,2.5636103E0,1.4055357E0,1.1580746E0],"tree_param":{"num_deleted":"0","num_feature":"10","num_nodes":"5","size_leaf_vector":"1"}},{"base_weights":[-2.1435632E-3,5.3626645E-2,-3.013232E-2,-1.8077977E-2,5.06883E-2],"categories":[],"categories_nodes":[],"categories_segments":[],"categories_sizes":[],"default_left":[0,0,0,0,0],"id":77,"left_children":[1,3,-1,-1,-1],"loss_changes":[3.4694985E-2,6.354832E-2,0E0,0E0,0E0],"parents":[2147483647,0,0,1,1],"right_children":[2,4,-1,-1,-1],"split_conditions":[1.875E3,6E0,-3.013232E-2,-1.8077977E-2,5.06883E-2],"split_indices":[3,8,0,0,0],"split_type":[0,0,0,0,0],"sum_hessian":[4.346276E0,3.0629318E0,1.2833438E0,1.7814066E0,1.2815251E0],"tree_param":{"num_deleted":"0","num_feature":"10","num_nodes":"5","size_leaf_vector":"1"}},{"base_weights":[-1.0480672E-3,5.5263706E-2,-2.6385847E-2,-1.9581385E-2,4.4203468E-2],"categories":[],"categories_nodes":[],"categories_segments":[],"categories_sizes":[],"default_left":[0,0,0,0,0],"id":78,"left_children":[1,3,-1,-1,-1],"loss_changes":[3.091333E-2,5.228816E-2,0E0,0E0,0E0],"parents":[2147483647,0,0,1,1],"right_children":[2,4,-1,-1,-1],"split_conditions":[3.77E2,5.324324E0,-2.6385847E-2,-1.9581385E-2,4.4203468E-2],"split_indices":[0,9,0,0,0],"split_type":[0,0,0,0,0],"sum_hessian":[4.3236623E0,2.844559E0,1.4791033E0,1.3580353E0,1.4865237E0],"tree_param":{"num_deleted":"0","num_feature":"10","num_nodes":"5","size_leaf_vector":"1"}},{"base_weights":[-1.0828186E-3,-5.761215E-2,3.0740516E-2,2.4111034E-2,-5.0203167E-2],"categories":[],"categories_nodes":[],"categories_segments":[],"categories_sizes":[],"default_left":[0,0,0,0,0],"id":79,"left_children":[1,3,-1,-1,-1],"loss_changes":[3.6952693E-2,7.509237E-2,0E0,0E0,0E0],"parents":[2147483647,0,0,1,1],"right_children":[2,4,-1,-1,-1],"split_conditions":[3.13E2,2E0,3.0740516E-2,2.4111034E-2,-5.0203167E-2],"split_indices":[4,8,0,0,0],"split_type":[0,0,0,0,0],"sum_hessian":[4.3042293E0,3.071249E0,1.2329804E0,1.4790245E0,1.5922245E0],"tree_param":{"num_deleted":"0","num_feature":"10","num_nodes":"5","size_leaf_vector":"1"}},{"base_weights":[1.0384182E-7,2.5202492E-2,-6.666478E-2,-4.5197256E-2,1.7259635E-2],"categories":[],"categories_nodes":[],"categories_segments":[],"categories_sizes":[],"default_left":[0,0,0,0,0],"id":80,"left_children":[1,-1,3,-1,-1],"loss_changes":[3.517925E-2,0E0,4.5202408E-2,0E0,0E0],"parents":[2147483647,0,0,2,2],"right_children":[2,-1,4,-1,-1],"split_conditions":[2.94E2,2.5202492E-2,4.7058824E-1,-4.5197256E-2,1.7259635E-2],"split_indices":[1,0,6,0,0],"split_type":[0,0,0,0,0],"sum_hessian":[4.2815633E0,1.7792592E0,2.5023038E0,1.3656672E0,1.1366366E0],"tree_param":{"num_deleted":"0","num_feature":"10","num_nodes":"5","size_leaf_vector":"1"}},{"base_weights":[-6.15605E-4,5.3494528E-2,-3.435265E-2,-1.9991707E-2,5.1792778E-2],"categories":[],"categories_nodes":[],"categories_segments":[],"categories_sizes":[],"default_left":[0,0,0,0,0],"id":81,"left_children":[1,3,-1,-1,-1],"loss_changes":[3.8549636E-2,7.2313815E-2,0E0,0E0,0E0],"parents":[2147483647,0,0,1,1],"right_children":[2,4,-1,-1,-1],"split_conditions":[5.263158E-1,2.64E2,-3.435265E-2,-1.9991707E-2,5.1792778E-2],"split_indices":[6,4,0,0,0],"split_type":[0,0,0,0,0],"sum_hessian":[4.2612705E0,3.2483191E0,1.0129513E0,1.8369149E0,1.4114043E0],"tree_param":{"num_deleted":"0","num_feature":"10","num_nodes":"5","size_leaf_vector":"1"}},{"base_weights":[-9.3002577E-4,6.6644415E-2,-3.1509448E-2,-1.2209692E-2,5.4776557E-2],"categories":[],"categories_nodes":[],"categories_segments":[],"categories_sizes":[],"default_left":[0,0,0,0,0],"id":82,"left_children":[1,3,-1,-1,-1],"loss_changes":[4.3838833E-2,5.4567702E-2,0E0,0E0,0E0],"parents":[2147483647,0,0,1,1],"right_children":[2,4,-1,-1,-1],"split_conditions":[3.77E2,7.1428573E-1,-3.1509448E-2,-1.2209692E-2,5.4776557E-2],"split_indices":[0,7,0,0,0],"split_type":[0,0,0,0,0],"sum_hessian":[4.2368407E0,2.7873356E0,1.4495052E0,1.7843375E0,1.0029981E0],"tree_param":{"num_deleted":"0","num_feature":"10","num_nodes":"5","size_leaf_vector":"1"}},{"base_weights":[1.4651725E-3,-6.896589E-2,7.526372E-2,6.2082107E-3,-3.8092397E-2,3.5008177E-2,-8.667907E-4],"categories":[],"categories_nodes":[],"categories_segments":[],"categories_sizes":[],"default_left":[0,0,0,0,0,0,0],"id":83,"left_children":[1,3,5,-1,-1,-1,-1],"loss_changes":[3.2300077E-2,1.922185E-2,1.013214E-2,0E0,0E0,0E0,0E0],"parents":[2147483647,0,0,1,1,2,2],"right_children":[2,4,6,-1,-1,-1,-1],"split_conditions":[1.17E2,5.6031747E0,3.61E2,6.2082107E-3,-3.8092397E-2,3.5008177E-2,-8.667907E-4],"split_indices":[5,9,0,0,0,0,0],"split_type":[0,0,0,0,0,0,0],"sum_hessian":[4.2156534E0,2.190547E0,2.0251062E0,1.1132058E0,1.0773411E0,1.0012047E0,1.0239016E0],"tree_param":{"num_deleted":"0","num_feature":"10","num_nodes":"7","size_leaf_vector":"1"}},{"base_weights":[1.4187252E-3,2.8066285E-2,-5.3849764E-2,-4.601851E-2,2.334334E-2],"categories":[],"categories_nodes":[],"categories_segments":[],"categories_sizes":[],"default_left":[0,0,0,0,0],"id":84,"left_children":[1,-1,3,-1,-1],"loss_changes":[3.1537086E-2,0E0,6.2884875E-2,0E0,0E0],"parents":[2147483647,0,0,2,2],"right_children":[2,-1,4,-1,-1],"split_conditions":[1.636E3,2.8066285E-2,6.0689654E0,-4.601851E-2,2.334334E-2],"split_indices":[3,0,9,0,0],"split_type":[0,0,0,0,0],"sum_hessian":[4.20389E0,1.3164961E0,2.8873937E0,1.5502299E0,1.3371639E0],"tree_param":{"num_deleted":"0","num_feature":"10","num_nodes":"5","size_leaf_vector":"1"}},{"base_weights":[1.9405547E-3,2.7677488E-2,-5.3294126E-2,1.6959958E-2,-5.258496E-2],"categories":[],"categories_nodes":[],"categories_segments":[],"categories_sizes":[],"default_left":[0,0,0,0,0],"id":85,"left_children":[1,-1,3,-1,-1],"loss_changes":[3.0784402E-2,0E0,6.150926E-2,0E0,0E0],"parents":[2147483647,0,0,2,2],"right_children":[2,-1,4,-1,-1],"split_conditions":[2.72E2,2.7677488E-2,2E0,1.6959958E-2,-5.258496E-2],"split_indices":[1,0,2,0,0],"split_type":[0,0,0,0,0],"sum_hessian":[4.185264E0,1.3338709E0,2.8513935E0,1.7828537E0,1.0685397E0],"tree_param":{"num_deleted":"0","num_feature":"10","num_nodes":"5","size_leaf_vector":"1"}},{"base_weights":[-2.7714673E-4,5.284521E-2,-2.4683552E-2,-1.4331418E-2,3.9771836E-2],"categories":[],"categories_nodes":[],"categories_segments":[],"categories_sizes":[],"default_left":[0,0,0,0,0],"id":86,"left_children":[1,3,-1,-1,-1],"loss_changes":[2.686019E-2,3.6376446E-2,0E0,0E0,0E0],"parents":[2147483647,0,0,1,1],"right_children":[2,4,-1,-1,-1],"split_conditions":[3.77E2,5.4835167E0,-2.4683552E-2,-1.4331418E-2,3.9771836E-2],"split_indices":[0,9,0,0,0],"split_type":[0,0,0,0,0],"sum_hessian":[4.1679573E0,2.7451458E0,1.4228114E0,1.3907852E0,1.3543606E0],"tree_param":{"num_deleted":"0","num_feature":"10","num_nodes":"5","size_leaf_vector":"1"}},{"base_weights":[-5.7428246E-5,-5.464889E-2,2.952639E-2,2.1097489E-2,-4.5980897E-2],"categories":[],"categories_nodes":[],"categories_segments":[],"categories_sizes":[],"default_left":[0,0,0,0,0],"id":87,"left_children":[1,3,-1,-1,-1],"loss_changes":[3.3080053E-2,5.956119E-2,0E0,0E0,0E0],"parents":[2147483647,0,0,1,1],"right_children":[2,4,-1,-1,-1],"split_conditions":[3.13E2,2E0,2.952639E-2,2.1097489E-2,-4.5980897E-2],"split_indices":[4,8,0,0,0],"split_type":[0,0,0,0,0],"sum_hessian":[4.152704E0,2.9580078E0,1.194696E0,1.4312365E0,1.5267712E0],"tree_param":{"num_deleted":"0","num_feature":"10","num_nodes":"5","size_leaf_vector":"1"}},{"base_weights":[7.703133E-4,2.2787007E-2,-5.9896074E-2,-4.315461E-2,1.8853648E-2],"categories":[],"categories_nodes":[],"categories_segments":[],"categories_sizes":[],"default_left":[0,0,0,0,0],"id":88,"left_children":[1,-1,3,-1,-1],"loss_changes":[2.7964918E-2,0E0,4.407753E-2,0E0,0E0],"parents":[2147483647,0,0,2,2],"right_children":[2,-1,4,-1,-1],"split_conditions":[2.94E2,2.2787007E-2,4.7058824E-1,-4.315461E-2,1.8853648E-2],"split_indices":[1,0,6,0,0],"split_type":[0,0,0,0,0],"sum_hessian":[4.13351E0,1.7333091E0,2.400201E0,1.323198E0,1.0770031E0],"tree_param":{"num_deleted":"0","num_feature":"10","num_nodes":"5","size_leaf_vector":"1"}},{"base_weights":[1.6011714E-4,6.6945784E-2,-2.2687055E-2,5.355976E-2,-2.5260884E-2],"categories":[],"categories_nodes":[],"categories_segments":[],"categories_sizes":[],"default_left":[0,0,0,0,0],"id":89,"left_children":[1,3,-1,-1,-1],"loss_changes":[3.0950814E-2,6.983666E-2,0E0,0E0,0E0],"parents":[2147483647,0,0,1,1],"right_children":[2,4,-1,-1,-1],"split_conditions":[4.6153846E-1,3.08E2,-2.2687055E-2,5.355976E-2,-2.5260884E-2],"split_indices":[6,1,0,0,0],"split_type":[0,0,0,0,0],"sum_hessian":[4.1149583E0,2.2493224E0,1.865636E0,1.1897839E0,1.0595386E0],"tree_param":{"num_deleted":"0","num_feature":"10","num_nodes":"5","size_leaf_vector":"1"}},{"base_weights":[1.2229789E-3,5.803472E-2,-2.6063722E-2,-1.1873221E-2,4.1391157E-2],"categories":[],"categories_nodes":[],"categories_segments":[],"categories_sizes":[],"default_left":[0,0,0,0,0],"id":90,"left_children":[1,3,-1,-1,-1],"loss_changes":[3.0524205E-2,3.4289364E-2,0E0,0E0,0E0],"parents":[2147483647,0,0,1,1],"right_children":[2,4,-1,-1,-1],"split_conditions":[3.77E2,3.19E2,-2.6063722E-2,-1.1873221E-2,4.1391157E-2],"split_indices":[0,1,0,0,0],"split_type":[0,0,0,0,0],"sum_hessian":[4.0911145E0,2.6947255E0,1.396389E0,1.4405318E0,1.2541937E0],"tree_param":{"num_deleted":"0","num_feature":"10","num_nodes":"5","size_leaf_vector":"1"}},{"base_weights":[1.5154904E-3,-4.880658E-2,2.7355691E-2,1.5772937E-2,-4.9358312E-2],"categories":[],"categories_nodes":[],"categories_segments":[],"categories_sizes":[],"default_left":[0,0,0,0,0],"id":91,"left_children":[1,3,-1,-1,-1],"loss_changes":[2.7378066E-2,5.447553E-2,0E0,0E0,0E0],"parents":[2147483647,0,0,1,1],"right_children":[2,4,-1,-1,-1],"split_conditions":[3.13E2,2.24E2,2.7355691E-2,1.5772937E-2,-4.9358312E-2],"split_indices":[4,4,0,0,0],"split_type":[0,0,0,0,0],"sum_hessian":[4.0810366E0,2.9059525E0,1.1750844E0,1.839784E0,1.0661684E0],"tree_param":{"num_deleted":"0","num_feature":"10","num_nodes":"5","size_leaf_vector":"1"}},{"base_weights":[-2.5481122E-4,4.927708E-2,-2.6431836E-2,-3.5031036E-2,4.4884443E-2],"categories":[],"categories_nodes":[],"categories_segments":[],"categories_sizes":[],"default_left":[0,0,0,0,0],"id":92,"left_children":[1,3,-1,-1,-1],"loss_changes":[2.6382966E-2,8.2120806E-2,0E0,0E0,0E0],"parents":[2147483647,0,0,1,1],"right_children":[2,4,-1,-1,-1],"split_conditions":[1.875E3,1E0,-2.6431836E-2,-3.5031036E-2,4.4884443E-2],"split_indices":[3,8,0,0,0],"split_type":[0,0,0,0,0],"sum_hessian":[4.0653E0,2.8803823E0,1.1849174E0,1.0232509E0,1.8571315E0],"tree_param":{"num_deleted":"0","num_feature":"10","num_nodes":"5","size_leaf_vector":"1"}},{"base_weights":[-3.5038528E-3,4.7331262E-2,-2.4206499E-2,4.1497722E-2,-1.6176755E-2],"categories":[],"categories_nodes":[],"categories_segments":[],"categories_sizes":[],"default_left":[0,0,0,0,0],"id":93,"left_children":[1,3,-1,-1,-1],"loss_changes":[2.3616986E-2,4.1294843E-2,0E0,0E0,0E0],"parents":[2147483647,0,0,1,1],"right_children":[2,4,-1,-1,-1],"split_conditions":[3.77E2,9.4E1,-2.4206499E-2,4.1497722E-2,-1.6176755E-2],"split_indices":[0,5,0,0,0],"split_type":[0,0,0,0,0],"sum_hessian":[4.0457473E0,2.67242E0,1.3733275E0,1.2146828E0,1.4577372E0],"tree_param":{"num_deleted":"0","num_feature":"10","num_nodes":"5","size_leaf_vector":"1"}},{"base_weights":[-2.2470772E-3,-5.1106427E-2,2.585542E-2,1.9402647E-2,-4.281108E-2],"categories":[],"categories_nodes":[],"categories_segments":[],"categories_sizes":[],"default_left":[0,0,0,0,0],"id":94,"left_children":[1,3,-1,-1,-1],"loss_changes":[2.6139824E-2,5.025036E-2,0E0,0E0,0E0],"parents":[2147483647,0,0,1,1],"right_children":[2,4,-1,-1,-1],"split_conditions":[3.13E2,2E0,2.585542E-2,1.9402647E-2,-4.281108E-2],"split_indices":[4,8,0,0,0],"split_type":[0,0,0,0,0],"sum_hessian":[4.030464E0,2.8679678E0,1.1624963E0,1.39657E0,1.4713978E0],"tree_param":{"num_deleted":"0","num_feature":"10","num_nodes":"5","size_leaf_vector":"1"}},{"base_weights":[-1.16832E-3,-6.443367E-2,1.9878795E-2,4.2979526E-3,-3.3762287E-2],"categories":[],"categories_nodes":[],"categories_segments":[],"categories_sizes":[],"default_left":[0,0,0,0,0],"id":95,"left_children":[1,3,-1,-1,-1],"loss_changes":[2.5660038E-2,1.3335166E-2,0E0,0E0,0E0],"parents":[2147483647,0,0,1,1],"right_children":[2,4,-1,-1,-1],"split_conditions":[1.17E2,5.6031747E0,1.9878795E-2,4.2979526E-3,-3.3762287E-2],"split_indices":[5,9,0,0,0],"split_type":[0,0,0,0,0],"sum_hessian":[4.0141277E0,2.0939672E0,1.9201605E0,1.0602864E0,1.0336808E0],"tree_param":{"num_deleted":"0","num_feature":"10","num_nodes":"5","size_leaf_vector":"1"}},{"base_weights":[-2.7707063E-3,-6.383964E-2,1.8315777E-2,-1.4871084E-3,-2.7640903E-2],"categories":[],"categories_nodes":[],"categories_segments":[],"categories_sizes":[],"default_left":[0,0,0,0,0],"id":96,"left_children":[1,3,-1,-1,-1],"loss_changes":[2.3412285E-2,4.6209143E-3,0E0,0E0,0E0],"parents":[2147483647,0,0,1,1],"right_children":[2,4,-1,-1,-1],"split_conditions":[5.8235292E0,1.93E2,1.8315777E-2,-1.4871084E-3,-2.7640903E-2],"split_indices":[9,4,0,0,0],"split_type":[0,0,0,0,0],"sum_hessian":[4.0068264E0,2.0474656E0,1.959361E0,1.046008E0,1.0014577E0],"tree_param":{"num_deleted":"0","num_feature":"10","num_nodes":"5","size_leaf_vector":"1"}},{"base_weights":[-4.122816E-3,2.3722837E-2,-5.3722285E-2,-5.1031727E-2,1.6994772E-2],"categories":[],"categories_nodes":[],"categories_segments":[],"categories_sizes":[],"default_left":[0,0,0,0,0],"id":97,"left_children":[1,-1,3,-1,-1],"loss_changes":[2.4889344E-2,0E0,5.7539687E-2,0E0,0E0],"parents":[2147483647,0,0,2,2],"right_children":[2,-1,4,-1,-1],"split_conditions":[2.72E2,2.3722837E-2,6.666667E-1,-5.1031727E-2,1.6994772E-2],"split_indices":[1,0,7,0,0],"split_type":[0,0,0,0,0],"sum_hessian":[4.0019584E0,1.2727438E0,2.7292144E0,1.0649966E0,1.6642177E0],"tree_param":{"num_deleted":"0","num_feature":"10","num_nodes":"5","size_leaf_vector":"1"}},{"base_weights":[-5.078517E-3,2.0990718E-2,-6.8945706E-2,2.8131435E-2,-6.1877932E-2],"categories":[],"categories_nodes":[],"categories_segments":[],"categories_sizes":[],"default_left":[0,0,0,0,0],"id":98,"left_children":[1,-1,3,-1,-1],"loss_changes":[2.870234E-2,0E0,9.072994E-2,0E0,0E0],"parents":[2147483647,0,0,2,2],"right_children":[2,-1,4,-1,-1],"split_conditions":[6E-1,2.0990718E-2,9.4E1,2.8131435E-2,-6.1877932E-2],"split_indices":[7,0,5,0,0],"split_type":[0,0,0,0,0],"sum_hessian":[3.9818249E0,1.7867509E0,2.1950738E0,1.1497375E0,1.0453364E0],"tree_param":{"num_deleted":"0","num_feature":"10","num_nodes":"5","size_leaf_vector":"1"}},{"base_weights":[-6.304069E-3,-6.933462E-2,1.8740173E-2,1.9474048E-3,-3.3649813E-2],"categories":[],"categories_nodes":[],"categories_segments":[],"categories_sizes":[],"default_left":[0,0,0,0,0],"id":99,"left_children":[1,3,-1,-1,-1],"loss_changes":[2.5824666E-2,1.0669998E-2,0E0,0E0,0E0],"parents":[2147483647,0,0,1,1],"right_children":[2,4,-1,-1,-1],"split_conditions":[1.17E2,5.6031747E0,1.8740173E-2,1.9474048E-3,-3.3649813E-2],"split_indices":[5,9,0,0,0],"split_type":[0,0,0,0,0],"sum_hessian":[3.9584873E0,2.0611777E0,1.8973094E0,1.050278E0,1.0108997E0],"tree_param":{"num_deleted":"0","num_feature":"10","num_nodes":"5","size_leaf_vector":"1"}}]},"name":"gbtree"},"learner_model_param":{"base_score":"1.8242553E-1","boost_from_average":"1","num_class":"0","num_feature":"10","num_target":"1"},"objective":{"name":"binary:logistic","reg_loss_param":{"scale_pos_weight":"1"}}},"version":[2,1,0]}