{"learner":{"attributes":{"scikit_learn":"{\"_estimator_type\": \"classifier\"}"},"feature_names":["total_yards","def_yards_allowed","turnovers","possession_time","pass_yards","rush_yards","third_down_pct","redzone_pct","point_diff","ypp"],"feature_types":["int","int","int","int","int","int","float","float","int","float"],"gradient_booster":{"model":{"gbtree_model_param":{"num_parallel_tree":"1","num_trees":"100"},"iteration_indptr":[0,1,2,3,4,5,6,7,8,9,10,11,12,13,14,15,16,17,18,19,20,21,22,23,24,25,26,27,28,29,30,31,32,33,34,35,36,37,38,39,40,41,42,43,44,45,46,47,48,49,50,51,52,53,54,55,56,57,58,59,60,61,62,63,64,65,66,67,68,69,70,71,72,73,74,75,76,77,78,79,80,81,82,83,84,85,86,87,88,89,90,91,92,93,94,95,96,97,98,99,100],"tree_info":[0,0,0,0,0,0,0,0,0,0,0,0,0,0,0,0,0,0,0,0,0,0,0,0,0,0,0,0,0,0,0,0,0,0,0,0,0,0,0,0,0,0,0,0,0,0,0,0,0,0,0,0,0,0,0,0,0,0,0,0,0,0,0,0,0,0,0,0,0,0,0,0,0,0,0,0,0,0,0,0,0,0,0,0,0,0,0,0,0,0,0,0,0,0,0,0,0,0,0,0],"trees":[{"base_weights":[-6.1087865E-1,-7.320452E-1,6.673462E-2,-4.892973E-1,-3.24821E-1,9.7755164E-1,-6.65067E-1,-6.4360267E-1,2.5495765E-1,5.5724216E-1,-6.8823695E-2,-2.4333964E-1,-3.2567717E-2,2.6428473E-1,-8.0300426E-1,3.2364225E-1,-1.9964568E-1,-9.310259E-1,-2.754943E-1,-6.8823695E-2,-2.970311E-1,1.1488475E-1,-1.7166366E-1],"categories":[],"categories_nodes":[],"categories_segments":[],"categories_sizes":[],"default_left":[0,0,0,0,0,0,0,0,0,0,0,0,0,0,0,0,0,0,0,0,0,0,0],"id":0,"left_children":[1,3,5,7,-1,9,11,13,-1,-1,-1,-1,-1,15,17,-1,-1,19,21,-1,-1,-1,-1],"loss_changes":[3.1038933E0,2.1644573E0,5.023108E0,4.788693E0,0E0,3.9603088E0,2.5602806E-1,2.9583135E0,0E0,0E0,0E0,0E0,0E0,3.4339688E0,8.503008E-1,0E0,0E0,3.0209064E-1,1.1219299E0,0E0,0E0,0E0,0E0],"parents":[2147483647,0,0,1,1,2,2,3,3,5,5,6,6,7,7,13,13,14,14,17,17,18,18],"right_children":[2,4,6,8,-1,10,12,14,-1,-1,-1,-1,-1,16,18,-1,-1,20,22,-1,-1,-1,-1],"split_conditions":[3.13E2,3.74E2,3.21E2,6.2058825E0,-3.24821E-1,3.45E2,4.82E2,2.42E2,2.5495765E-1,5.5724216E-1,-6.8823695E-2,-2.4333964E-1,-3.2567717E-2,1.1E1,5.4835167E0,3.2364225E-1,-1.9964568E-1,1.6666667E-1,8.3E1,-6.8823695E-2,-2.970311E-1,1.1488475E-1,-1.7166366E-1],"split_indices":[4,0,1,9,0,4,0,1,0,0,0,0,0,8,9,0,0,7,5,0,0,0,0],"split_type":[0,0,0,0,0,0,0,0,0,0,0,0,0,0,0,0,0,0,0,0,0,0,0],"sum_hessian":[3.6209393E1,3.0648666E1,5.5607285E0,1.9527208E1,1.1121457E1,2.3277469E0,3.2329817E0,1.7975378E1,1.5518312E0,1.0345541E0,1.2931926E0,2.1984274E0,1.0345541E0,2.5863853E0,1.5388992E1,1.2931926E0,1.2931926E0,1.1768053E1,3.6209395E0,1.2931926E0,1.047486E1,1.0345541E0,2.5863853E0],"tree_param":{"num_deleted":"0","num_feature":"10","num_nodes":"23","size_leaf_vector":"1"}},{"base_weights":[-5.1830274E-1,-5.9787536E-1,3.6091846E-1,-3.679906E-1,-8.9835435E-1,3.26084E-1,-1.8158874E-1,-5.5866456E-1,2.4829543E-1,-2.8124573E-2,-9.612502E-1,1.941742E-1,-7.1545434E-1,-3.0765957E-1,-1.1753562E-1,-1.9096912E-1,2.445129E-1,-8.4389216E-1,-2.6376203E-1,-5.9029937E-2,-2.7226993E-1,1.0699947E-1,-1.6624832E-1],"categories":[],"categories_nodes":[],"categories_segments":[],"categories_sizes":[],"default_left":[0,0,0,0,0,0,0,0,0,0,0,0,0,0,0,0,0,0,0,0,0,0,0],"id":1,"left_children":[1,3,5,7,9,-1,-1,11,-1,-1,13,15,17,-1,-1,-1,-1,19,21,-1,-1,-1,-1],"loss_changes":[2.5194025E0,1.7810888E0,3.0123231E0,4.7970686E0,5.4534054E-1,0E0,0E0,2.145031E0,0E0,0E0,2.0587921E-2,2.4354618E0,6.0583115E-1,0E0,0E0,0E0,0E0,2.6081133E-1,1.0293342E0,0E0,0E0,0E0,0E0],"parents":[2147483647,0,0,1,1,2,2,3,3,4,4,7,7,10,10,11,11,12,12,17,17,18,18],"right_children":[2,4,6,8,10,-1,-1,12,-1,-1,14,16,18,-1,-1,-1,-1,20,22,-1,-1,-1,-1],"split_conditions":[4.85E2,3.75E2,5.03E2,6.2058825E0,2.1E2,3.26084E-1,-1.8158874E-1,2.42E2,2.4829543E-1,-2.8124573E-2,3.42E2,2.05E2,5.4835167E0,-3.0765957E-1,-1.1753562E-1,-1.9096912E-1,2.445129E-1,1.6666667E-1,5.629032E0,-5.9029937E-2,-2.7226993E-1,1.0699947E-1,-1.6624832E-1],"split_indices":[0,0,0,9,1,0,0,1,0,0,4,1,9,0,0,0,0,7,9,0,0,0,0],"split_type":[0,0,0,0,0,0,0,0,0,0,0,0,0,0,0,0,0,0,0,0,0,0,0],"sum_hessian":[3.1926746E1,2.9570507E1,2.3562403E0,1.8013647E1,1.1556859E1,1.2739904E0,1.08225E0,1.5995524E1,2.0181231E0,1.0184675E0,1.0538391E1,2.7159991E0,1.3279526E1,8.749832E0,1.788559E0,1.1508517E0,1.5651473E0,9.663452E0,3.6160736E0,1.2320675E0,8.431385E0,1.0801606E0,2.5359128E0],"tree_param":{"num_deleted":"0","num_feature":"10","num_nodes":"23","size_leaf_vector":"1"}},{"base_weights":[-4.4139108E-1,-5.6692857E-1,1.2341544E-1,-2.935768E-1,-9.183301E-1,7.588493E-1,-5.4805195E-1,-5.3469056E-1,3.751976E-1,-3.7498616E-2,-2.9970056E-1,3.806965E-1,-4.9189296E-2,-2.3063675E-2,-2.1039072E-1,-1.7812952E-1,-2.8177738E-1,-2.095587E-1,1.1090059E0,-5.577325E-1,1.8408057E-1,1.0640805E-1,4.004194E-1,-2.4501038E-1,-6.5110866E-3],"categories":[],"categories_nodes":[],"categories_segments":[],"categories_sizes":[],"default_left":[0,0,0,0,0,0,0,0,0,0,0,0,0,0,0,0,0,0,0,0,0,0,0,0,0],"id":2,"left_children":[1,3,5,7,9,11,13,15,17,-1,-1,-1,-1,-1,-1,19,-1,-1,21,23,-1,-1,-1,-1,-1],"loss_changes":[2.1661615E0,2.070939E0,3.0601149E0,2.6476123E0,5.2736473E-1,1.9044371E0,2.055887E-1,1.5011446E0,4.4060993E0,0E0,0E0,0E0,0E0,0E0,0E0,2.5608008E0,0E0,0E0,5.854535E-2,7.4761915E-1,0E0,0E0,0E0,0E0,0E0],"parents":[2147483647,0,0,1,1,2,2,3,3,4,4,5,5,6,6,7,7,8,8,15,15,18,18,19,19],"right_children":[2,4,6,8,10,12,14,16,18,-1,-1,-1,-1,-1,-1,20,-1,-1,22,24,-1,-1,-1,-1,-1],"split_conditions":[3.13E2,3.61E2,3.21E2,3.36E2,3.125E-1,3.45E2,3.32E2,4E-1,4.2857143E-1,-3.7498616E-2,-2.9970056E-1,3.806965E-1,-4.9189296E-2,-2.3063675E-2,-2.1039072E-1,2.11E2,-2.8177738E-1,-2.095587E-1,1.16E2,-1E0,1.8408057E-1,1.0640805E-1,4.004194E-1,-2.4501038E-1,-6.5110866E-3],"split_indices":[4,0,1,0,6,4,4,6,6,0,0,0,0,0,0,4,0,0,5,8,0,0,0,0,0],"split_type":[0,0,0,0,0,0,0,0,0,0,0,0,0,0,0,0,0,0,0,0,0,0,0,0,0],"sum_hessian":[2.856366E1,2.3366348E1,5.1973104E0,1.4175113E1,9.1912365E0,2.6034427E0,2.5938678E0,1.0566174E1,3.6089392E0,1.0836766E0,8.10756E0,1.4350215E0,1.1684213E0,1.0051522E0,1.5887157E0,6.381874E0,4.1842995E0,1.4846457E0,2.1242936E0,4.513424E0,1.86845E0,1.0815156E0,1.042778E0,2.690138E0,1.8232858E0],"tree_param":{"num_deleted":"0","num_feature":"10","num_nodes":"25","size_leaf_vector":"1"}},{"base_weights":[-3.7458393E-1,-1.8728645E-1,-8.3689E-1,1.8969487E-1,-5.679983E-1,-2.8082013E-1,-4.750461E-2,-1.926463E-1,7.5243974E-1,-6.339419E-2,-2.78169E-1,-4.6926323E-1,1.6736194E-1,5.428812E-1,-4.8468687E-2,2.5253808E-1,-6.117343E-1,6.766546E-2,-2.4315359E-1,1.2971352E-1,-1.785712E-1,-2.2667904E-1,-3.0997857E-2,1.1195622E-1,-7.493935E-2],"categories":[],"categories_nodes":[],"categories_segments":[],"categories_sizes":[],"default_left":[0,0,0,0,0,0,0,0,0,0,0,0,0,0,0,0,0,0,0,0,0,0,0,0,0],"id":3,"left_children":[1,3,5,7,9,-1,-1,11,13,15,-1,17,-1,-1,19,-1,21,23,-1,-1,-1,-1,-1,-1,-1],"loss_changes":[2.1674244E0,3.0342352E0,3.5317898E-1,2.5106778E0,1.8256044E0,0E0,0E0,1.7862736E0,4.026524E0,3.1934674E0,0E0,1.1374738E0,0E0,0E0,1.2092957E0,0E0,2.1008503E-1,4.054383E-1,0E0,0E0,0E0,0E0,0E0,0E0,0E0],"parents":[2147483647,0,0,1,1,2,2,3,3,4,4,7,7,8,8,9,9,11,11,14,14,16,16,17,17],"right_children":[2,4,6,8,10,-1,-1,12,14,16,-1,18,-1,-1,20,-1,22,24,-1,-1,-1,-1,-1,-1,-1],"split_conditions":[3.84E2,1.875E3,5.4545456E-1,6E0,2.4E2,-2.8082013E-1,-4.750461E-2,3.53E2,9.4E1,7E0,-2.78169E-1,8.3E1,1.6736194E-1,5.428812E-1,3.17E2,2.5253808E-1,6.023256E0,2.75E2,-2.4315359E-1,1.2971352E-1,-1.785712E-1,-2.2667904E-1,-3.0997857E-2,1.1195622E-1,-7.493935E-2],"split_indices":[1,3,6,8,1,0,0,1,5,8,0,5,0,0,1,0,9,4,0,0,0,0,0,0,0],"split_type":[0,0,0,0,0,0,0,0,0,0,0,0,0,0,0,0,0,0,0,0,0,0,0,0,0],"sum_hessian":[2.5841389E1,1.939063E1,6.450756E0,9.995154E0,9.395477E0,5.2970057E0,1.1537503E0,6.3431478E0,3.6520066E0,4.3964133E0,4.999064E0,4.908707E0,1.4344405E0,1.0312985E0,2.620708E0,1.4566464E0,2.939767E0,2.2189972E0,2.6897101E0,1.5057294E0,1.1149786E0,1.9124156E0,1.0273513E0,1.0413185E0,1.1776786E0],"tree_param":{"num_deleted":"0","num_feature":"10","num_nodes":"25","size_leaf_vector":"1"}},{"base_weights":[-3.1544387E-1,-1.21552765E-1,-7.120538E-1,5.5855906E-1,-3.7035733E-1,-2.743519E-1,1.16836E-2,-1.9238712E-1,1.0847948E0,1.5012959E-1,-6.1843073E-1,6.853285E-2,4.1694933E-1,-1.6489828E-1,1.943152E-1,-8.486845E-1,1.0191562E-1,-1.7137629E-1,5.3599875E-2,-3.833276E-2,-2.8297064E-1],"categories":[],"categories_nodes":[],"categories_segments":[],"categories_sizes":[],"default_left":[0,0,0,0,0,0,0,0,0,0,0,0,0,0,0,0,0,0,0,0,0],"id":4,"left_children":[1,3,5,7,9,-1,-1,-1,11,13,15,-1,-1,17,-1,19,-1,-1,-1,-1,-1],"loss_changes":[1.8026273E0,3.2030294E0,1.2307737E0,3.9418473E0,1.8443495E0,0E0,0E0,0E0,7.130947E-1,9.192857E-1,2.3581254E0,0E0,0E0,6.56434E-1,0E0,4.1455507E-1,0E0,0E0,0E0,0E0,0E0],"parents":[2147483647,0,0,1,1,2,2,3,3,4,4,8,8,9,9,10,10,13,13,15,15],"right_children":[2,4,6,8,10,-1,-1,-1,12,14,16,-1,-1,18,-1,20,-1,-1,-1,-1,-1],"split_conditions":[3.66E2,1.662E3,5.4545456E-1,1.472E3,9.4E1,-2.743519E-1,1.16836E-2,-1.9238712E-1,1.95E2,8.3E1,3.13E2,6.853285E-2,4.1694933E-1,3.846154E-1,1.943152E-1,2E0,1.0191562E-1,-1.7137629E-1,5.3599875E-2,-3.833276E-2,-2.8297064E-1],"split_indices":[1,3,6,3,5,0,0,0,4,5,4,0,0,6,0,8,0,0,0,0,0],"split_type":[0,0,0,0,0,0,0,0,0,0,0,0,0,0,0,0,0,0,0,0,0],"sum_hessian":[2.3566982E1,1.6706257E1,6.8607264E0,4.1412106E0,1.2565045E1,5.2324543E0,1.6282717E0,1.1958842E0,2.9453266E0,4.1831427E0,8.381903E0,1.2329303E0,1.7123963E0,2.9708633E0,1.2122792E0,6.850016E0,1.531887E0,1.0574368E0,1.9134264E0,1.0668861E0,5.7831297E0],"tree_param":{"num_deleted":"0","num_feature":"10","num_nodes":"21","size_leaf_vector":"1"}},{"base_weights":[-2.646767E-1,-1.1867398E-1,-7.0503896E-1,9.066412E-2,-5.1524514E-1,-2.4834768E-1,-2.5178561E-2,-2.0948395E-1,2.6340064E-1,-7.270197E-1,8.667633E-2,3.2766142E-1,5.3703766E-2,-3.356509E-2,-2.5353578E-1,-3.962487E-1,4.2283553E-1,9.657568E-2,-1.9803539E-1,4.974852E-3,2.5679904E-1],"categories":[],"categories_nodes":[],"categories_segments":[],"categories_sizes":[],"default_left":[0,0,0,0,0,0,0,0,0,0,0,0,0,0,0,0,0,0,0,0,0],"id":5,"left_children":[1,3,5,7,9,-1,-1,-1,11,13,-1,-1,15,-1,-1,17,19,-1,-1,-1,-1],"loss_changes":[1.3739064E0,1.559955E0,3.4558702E-1,1.9256725E0,1.3080384E0,0E0,0E0,0E0,1.889813E0,2.9684925E-1,0E0,0E0,1.8283101E0,0E0,0E0,1.1642699E0,1.0375278E0,0E0,0E0,0E0,0E0],"parents":[2147483647,0,0,1,1,2,2,3,3,4,4,8,8,9,9,12,12,15,15,16,16],"right_children":[2,4,6,8,10,-1,-1,-1,12,14,-1,-1,16,-1,-1,18,20,-1,-1,-1,-1],"split_conditions":[3.84E2,1.947E3,6.432836E0,4.5405407E0,4.85E2,-2.4834768E-1,-2.5178561E-2,-2.0948395E-1,2.98E2,4.7083335E0,8.667633E-2,3.2766142E-1,4.4444445E-1,-3.356509E-2,-2.5353578E-1,2.83E2,1.47E2,9.657568E-2,-1.9803539E-1,4.974852E-3,2.5679904E-1],"split_indices":[1,3,9,9,0,0,0,0,0,9,0,0,6,0,0,1,5,0,0,0,0],"split_type":[0,0,0,0,0,0,0,0,0,0,0,0,0,0,0,0,0,0,0,0,0],"sum_hessian":[2.1670456E1,1.7227985E1,4.442471E0,1.178069E1,5.447295E0,3.4313211E0,1.0111498E0,1.5695568E0,1.0211134E1,4.3877335E0,1.0595617E0,1.212069E0,8.999064E0,1.0203712E0,3.3673623E0,4.022448E0,4.9766164E0,1.0217035E0,3.0007443E0,3.1038578E0,1.872759E0],"tree_param":{"num_deleted":"0","num_feature":"10","num_nodes":"21","size_leaf_vector":"1"}},{"base_weights":[-2.212199E-1,-6.980624E-2,-5.881185E-1,-1.7978057E-1,2.3416094E-1,-2.469249E-1,1.4577665E-2,2.3532777E-1,-4.4959632E-1,-1.0937779E-1,4.791165E-1,-6.308327E-1,9.8311916E-2,6.724774E-1,5.0878273E-3,8.629775E-2,-8.098829E-1,4.7211915E-2,2.720804E-1,-3.6484744E-2,-2.716687E-1],"categories":[],"categories_nodes":[],"categories_segments":[],"categories_sizes":[],"default_left":[0,0,0,0,0,0,0,0,0,0,0,0,0,0,0,0,0,0,0,0,0],"id":6,"left_children":[1,3,5,7,-1,-1,-1,9,11,-1,13,15,-1,17,-1,-1,19,-1,-1,-1,-1],"loss_changes":[1.1414499E0,1.6555024E0,9.501178E-1,1.8037277E0,0E0,0E0,0E0,1.1441034E0,1.549458E0,0E0,4.4838834E-1,1.5603063E0,0E0,2.9224348E-1,0E0,0E0,3.519249E-1,0E0,0E0,0E0,0E0],"parents":[2147483647,0,0,1,1,2,2,3,3,7,7,8,8,10,10,11,11,13,13,16,16],"right_children":[2,4,6,8,-1,-1,-1,10,12,-1,14,16,-1,18,-1,-1,20,-1,-1,-1,-1],"split_conditions":[3.66E2,3.53E2,5.4545456E-1,9.4E1,2.3416094E-1,-2.469249E-1,1.4577665E-2,4.2857143E-1,3.13E2,-1.0937779E-1,3.75E2,1.549E3,9.8311916E-2,5.3114753E0,5.0878273E-3,8.629775E-2,4.58E0,4.7211915E-2,2.720804E-1,-3.6484744E-2,-2.716687E-1],"split_indices":[1,1,6,5,0,0,0,7,4,0,0,3,0,9,0,0,9,0,0,0,0],"split_type":[0,0,0,0,0,0,0,0,0,0,0,0,0,0,0,0,0,0,0,0,0],"sum_hessian":[2.0285881E1,1.52023535E1,5.083528E0,1.4159671E1,1.0426832E0,3.4994276E0,1.5841004E0,5.6283464E0,8.531323E0,1.4831221E0,4.1452246E0,7.071064E0,1.4602597E0,2.601644E0,1.5435804E0,1.054599E0,6.016465E0,1.3365207E0,1.2651235E0,1.0114807E0,5.0049844E0],"tree_param":{"num_deleted":"0","num_feature":"10","num_nodes":"21","size_leaf_vector":"1"}},{"base_weights":[-1.7557782E-1,2.3791426E-1,-3.03153E-1,-4.5149583E-1,8.4814245E-1,-3.0604174E-2,-2.5828388E-1,-1.8052214E-1,-2.0562816E-2,3.0245993E-1,7.88577E-2,-5.9550375E-1,2.4860258E-1,-2.2141983E-1,-2.911095E-2,4.4604698E-1,-1.0067472E-1,7.2966206E-1,4.8288517E-2,2.9827096E-2,3.0504298E-1,-1.3808803E-1,2.2300558E-1],"categories":[],"categories_nodes":[],"categories_segments":[],"categories_sizes":[],"default_left":[0,0,0,0,0,0,0,0,0,0,0,0,0,0,0,0,0,0,0,0,0,0,0],"id":7,"left_children":[1,3,5,7,9,11,-1,-1,-1,-1,-1,13,15,-1,-1,17,-1,19,21,-1,-1,-1,-1],"loss_changes":[1.117806E0,2.5849495E0,2.3435295E0,1.3770854E-1,2.7633905E-2,1.963245E0,0E0,0E0,0E0,0E0,0E0,2.1982896E-1,1.1194353E0,0E0,0E0,7.220628E-1,0E0,5.9526896E-1,1.7084588E0,0E0,0E0,0E0,0E0],"parents":[2147483647,0,0,1,1,2,2,3,3,4,4,5,5,11,11,12,12,15,15,17,17,18,18],"right_children":[2,4,6,8,10,12,-1,-1,-1,-1,-1,14,16,-1,-1,18,-1,20,22,-1,-1,-1,-1],"split_conditions":[2.42E2,2E0,1.847E3,3.52E2,3.37E2,-3E0,-2.5828388E-1,-1.8052214E-1,-2.0562816E-2,3.0245993E-1,7.88577E-2,1.03E2,3.66E2,-2.2141983E-1,-2.911095E-2,1.662E3,-1.0067472E-1,3.39E2,1.776E3,2.9827096E-2,3.0504298E-1,-1.3808803E-1,2.2300558E-1],"split_indices":[1,2,3,0,0,8,0,0,0,0,0,5,1,0,0,3,0,0,3,0,0,0,0],"split_type":[0,0,0,0,0,0,0,0,0,0,0,0,0,0,0,0,0,0,0,0,0,0,0],"sum_hessian":[1.8822851E1,4.2342043E0,1.4588647E1,2.1102512E0,2.123953E0,1.0508737E1,4.07991E0,1.1052933E0,1.0049579E0,1.1004343E0,1.0235189E0,3.1012838E0,7.407453E0,2.0377991E0,1.0634847E0,5.7130156E0,1.6944375E0,2.847919E0,2.8650966E0,1.3128006E0,1.5351183E0,1.8495427E0,1.0155537E0],"tree_param":{"num_deleted":"0","num_feature":"10","num_nodes":"23","size_leaf_vector":"1"}},{"base_weights":[-1.443701E-1,-1.9950335E-1,-5.783297E-2,4.052372E-1,-2.6203865E-1,5.834313E-1,-6.0338166E-2,1.5700133E-1,-4.6308553E-1,-3.8412713E-2,8.481452E-1,5.409391E-1,-1.7230797E-1,-6.0556185E-1,8.671912E-2,3.1629232E-1,5.6440726E-2,-5.943395E-2,2.9561377E-1,-1.2544937E-1,-2.5425124E-1,-2.0307241E-1,1.8973218E-1],"categories":[],"categories_nodes":[],"categories_segments":[],"categories_sizes":[],"default_left":[0,0,0,0,0,0,0,0,0,0,0,0,0,0,0,0,0,0,0,0,0,0,0],"id":8,"left_children":[1,-1,3,5,7,9,-1,11,13,-1,15,17,-1,19,-1,-1,-1,-1,-1,21,-1,-1,-1],"loss_changes":[7.947314E-1,0E0,1.7092361E0,7.2033453E-1,1.1149881E0,9.692004E-1,0E0,1.6467378E0,1.098126E0,0E0,2.7265525E-1,1.3892121E0,0E0,7.724347E-1,0E0,0E0,0E0,0E0,0E0,1.9780947E0,0E0,0E0,0E0],"parents":[2147483647,0,0,2,2,3,3,4,4,5,5,7,7,8,8,10,10,11,11,13,13,19,19],"right_children":[2,-1,4,6,8,10,-1,12,14,-1,16,18,-1,20,-1,-1,-1,-1,-1,22,-1,-1,-1],"split_conditions":[1.479E3,-1.9950335E-1,1.679E3,3E0,2.4E2,5.557377E0,-6.0338166E-2,1.7E1,6E-1,-3.8412713E-2,1.39E2,4.2857143E-1,-1.7230797E-1,9.4E1,8.671912E-2,3.1629232E-1,5.6440726E-2,-5.943395E-2,2.9561377E-1,5E0,-2.5425124E-1,-2.0307241E-1,1.8973218E-1],"split_indices":[3,0,3,2,1,9,0,8,6,0,5,7,0,5,0,0,0,0,0,8,0,0,0],"split_type":[0,0,0,0,0,0,0,0,0,0,0,0,0,0,0,0,0,0,0,0,0,0,0],"sum_hessian":[1.7492847E1,1.5404156E0,1.5952433E1,4.5806327E0,1.1371799E1,3.5694797E0,1.0111531E0,3.7580388E0,7.613761E0,1.1079452E0,2.4615345E0,2.6350834E0,1.1229553E0,6.5650616E0,1.0486993E0,1.4204315E0,1.041103E0,1.1976956E0,1.437388E0,2.7085998E0,3.8564618E0,1.6296672E0,1.0789325E0],"tree_param":{"num_deleted":"0","num_feature":"10","num_nodes":"23","size_leaf_vector":"1"}},{"base_weights":[-1.2271388E-1,-2.0452046E-1,1.06253214E-1,-8.521812E-3,-5.6903714E-1,-1.852353E-1,1.4040099E-1,-2.2310387E-1,-5.575818E-2,1.7195994E-1,-6.71873E-2,2.6380906E-1,-4.2127615E-1,1.4223133E-1,-6.085063E-2,-2.1991026E-1,7.275223E-2],"categories":[],"categories_nodes":[],"categories_segments":[],"categories_sizes":[],"default_left":[0,0,0,0,0,0,0,0,0,0,0,0,0,0,0,0,0],"id":9,"left_children":[1,3,-1,5,7,-1,9,-1,-1,-1,11,13,15,-1,-1,-1,-1],"loss_changes":[7.457178E-1,1.0928929E0,0E0,1.084877E0,2.2029924E-1,0E0,9.0632266E-1,0E0,0E0,0E0,9.811368E-1,5.3301185E-1,9.9962914E-1,0E0,0E0,0E0,0E0],"parents":[2147483647,0,0,1,1,3,3,4,4,6,6,10,10,11,11,12,12],"right_children":[2,4,-1,6,8,-1,10,-1,-1,-1,12,14,16,-1,-1,-1,-1],"split_conditions":[4.85E2,3.75E2,1.06253214E-1,1.45E2,4.31E2,-1.852353E-1,1.9E2,-2.2310387E-1,-5.575818E-2,1.7195994E-1,8.6E1,3.34E2,6.2058825E0,1.4223133E-1,-6.085063E-2,-2.1991026E-1,7.275223E-2],"split_indices":[0,0,0,4,0,0,4,0,0,0,5,1,9,0,0,0,0],"split_type":[0,0,0,0,0,0,0,0,0,0,0,0,0,0,0,0,0],"sum_hessian":[1.625794E1,1.43649025E1,1.893037E0,1.0007372E1,4.357531E0,1.3482814E0,8.65909E0,2.3469994E0,2.0105317E0,2.236014E0,6.423076E0,3.4515698E0,2.9715064E0,2.3682992E0,1.0832708E0,1.9509026E0,1.0206039E0],"tree_param":{"num_deleted":"0","num_feature":"10","num_nodes":"17","size_leaf_vector":"1"}},{"base_weights":[-1.1278839E-1,-1.8569286E-1,-2.8266797E-2,3.1070408E-1,-2.2566257E-1,-3.7604712E-2,5.7957333E-1,-4.5398563E-2,-2.0948426E-1,1.5197101E-1,-1.8290299E-1,3.7077524E-2,2.1838488E-1,-2.541583E-1,1.5033934E-1,9.602063E-2,-4.619026E-1,4.6247514E-3,-2.2501887E-1],"categories":[],"categories_nodes":[],"categories_segments":[],"categories_sizes":[],"default_left":[0,0,0,0,0,0,0,0,0,0,0,0,0,0,0,0,0,0,0],"id":10,"left_children":[1,-1,3,5,7,9,11,13,-1,-1,-1,-1,-1,15,-1,-1,17,-1,-1],"loss_changes":[6.926568E-1,0E0,1.091951E0,5.875312E-1,8.3989656E-1,1.4204556E0,1.4481473E-1,1.0943463E0,0E0,0E0,0E0,0E0,0E0,9.5858455E-1,0E0,0E0,7.5430644E-1,0E0,0E0],"parents":[2147483647,0,0,2,2,3,3,4,4,5,5,6,6,7,7,13,13,16,16],"right_children":[2,-1,4,6,8,10,12,14,-1,-1,-1,-1,-1,16,-1,-1,18,-1,-1],"split_conditions":[1.479E3,-1.8569286E-1,1.702E3,1.21E2,6.621212E0,8.3E1,1.625E3,4.31E2,-2.0948426E-1,1.5197101E-1,-1.8290299E-1,3.7077524E-2,2.1838488E-1,-3E0,1.5033934E-1,9.602063E-2,1.875E3,4.6247514E-3,-2.2501887E-1],"split_indices":[3,0,3,5,9,5,3,0,0,0,0,0,0,8,0,0,3,0,0],"split_type":[0,0,0,0,0,0,0,0,0,0,0,0,0,0,0,0,0,0,0],"sum_hessian":[1.559865E1,1.3271639E0,1.4271485E1,5.0409975E0,9.230489E0,2.570788E0,2.4702094E0,7.475336E0,1.7551526E0,1.3761989E0,1.1945891E0,1.0564737E0,1.4137356E0,5.796274E0,1.6790619E0,1.3962386E0,4.4000354E0,2.012675E0,2.3873606E0],"tree_param":{"num_deleted":"0","num_feature":"10","num_nodes":"19","size_leaf_vector":"1"}},{"base_weights":[-1.00675605E-1,3.7728564E-4,-4.789038E-1,1.1914972E-1,-1.4234406E-1,-1.7856169E-1,-3.1776186E-2,4.8547712E-1,-5.146624E-2,-3.578516E-2,2.2655581E-1,1.7273447E-1,-1.9458126E-1,-1.5317184E-1,1.9874358E-1,-1.4673372E-1,1.4708728E-1],"categories":[],"categories_nodes":[],"categories_segments":[],"categories_sizes":[],"default_left":[0,0,0,0,0,0,0,0,0,0,0,0,0,0,0,0,0],"id":11,"left_children":[1,3,5,7,-1,-1,-1,9,11,-1,-1,13,-1,15,-1,-1,-1],"loss_changes":[6.061846E-1,8.18582E-1,8.200252E-2,7.5046474E-1,0E0,0E0,0E0,7.07313E-1,1.293284E0,0E0,0E0,1.2513838E0,0E0,1.3504679E0,0E0,0E0,0E0],"parents":[2147483647,0,0,1,1,2,2,3,3,7,7,8,8,11,11,13,13],"right_children":[2,4,6,8,-1,-1,-1,10,12,-1,-1,14,-1,16,-1,-1,-1],"split_conditions":[3.84E2,1.7E1,7.1428573E-1,2.42E2,-1.4234406E-1,-1.7856169E-1,-3.1776186E-2,2E0,1.847E3,-3.578516E-2,2.2655581E-1,6E0,-1.9458126E-1,3.53E2,1.9874358E-1,-1.4673372E-1,1.4708728E-1],"split_indices":[1,8,7,1,0,0,0,2,3,0,0,8,0,1,0,0,0],"split_type":[0,0,0,0,0,0,0,0,0,0,0,0,0,0,0,0,0],"sum_hessian":[1.485524E1,1.2511492E1,2.343748E0,1.0607423E1,1.9040697E0,1.3324672E0,1.0112808E0,2.7841566E0,7.823266E0,1.0307236E0,1.753433E0,6.2044716E0,1.6187944E0,4.138017E0,2.0664542E0,2.8762517E0,1.2617655E0],"tree_param":{"num_deleted":"0","num_feature":"10","num_nodes":"17","size_leaf_vector":"1"}},{"base_weights":[-9.098281E-2,-1.6324532E-1,-1.8017296E-2,3.9263883E-1,-1.3675626E-1,3.3216216E-2,1.5308732E-1,-3.0279922E-1,1.898366E-1,1.994219E-1,-5.082645E-1,4.981815E-1,-9.768853E-2,1.4382946E-1,-5.4212455E-2,-3.0928184E-3,-2.0615827E-1,1.9543508E-1,3.5656776E-2],"categories":[],"categories_nodes":[],"categories_segments":[],"categories_sizes":[],"default_left":[0,0,0,0,0,0,0,0,0,0,0,0,0,0,0,0,0,0,0],"id":12,"left_children":[1,-1,3,5,7,-1,-1,9,11,13,15,17,-1,-1,-1,-1,-1,-1,-1],"loss_changes":[4.8757952E-1,0E0,7.358822E-1,5.614853E-2,6.8621665E-1,0E0,0E0,9.342707E-1,8.810281E-1,4.1252428E-1,5.284009E-1,1.1006987E-1,0E0,0E0,0E0,0E0,0E0,0E0,0E0],"parents":[2147483647,0,0,2,2,3,3,4,4,7,7,8,8,9,9,10,10,11,11],"right_children":[2,-1,4,6,8,-1,-1,10,12,14,16,18,-1,-1,-1,-1,-1,-1,-1],"split_conditions":[1.45E2,-1.6324532E-1,1.9E2,1.767E3,3.13E2,3.3216216E-2,1.5308732E-1,-2E0,3.21E2,2.42E2,7.8E1,3.34E2,-9.768853E-2,1.4382946E-1,-5.4212455E-2,-3.0928184E-3,-2.0615827E-1,1.9543508E-1,3.5656776E-2],"split_indices":[4,0,4,3,4,0,0,8,1,4,5,4,0,0,0,0,0,0,0],"split_type":[0,0,0,0,0,0,0,0,0,0,0,0,0,0,0,0,0,0,0],"sum_hessian":[1.4042305E1,1.0518589E0,1.2990446E1,2.3962672E0,1.0594178E1,1.2771196E0,1.1191475E0,7.0717077E0,3.5224705E0,2.0616956E0,5.010012E0,2.2250204E0,1.2974501E0,1.036767E0,1.0249286E0,1.6039346E0,3.4060776E0,1.0737677E0,1.1512529E0],"tree_param":{"num_deleted":"0","num_feature":"10","num_nodes":"19","size_leaf_vector":"1"}},{"base_weights":[-6.938452E-2,2.1947052E-2,-4.21084E-1,1.157994E-1,-1.1354139E-1,-1.5645297E-1,-3.3199802E-2,6.1159856E-3,1.5887839E-1,1.2051456E-1,-1.149427E-1,-1.5436624E-1,5.101769E-1,-1.1000053E-1,7.8424156E-2,2.0936593E-2,1.9644308E-1],"categories":[],"categories_nodes":[],"categories_segments":[],"categories_sizes":[],"default_left":[0,0,0,0,0,0,0,0,0,0,0,0,0,0,0,0,0],"id":13,"left_children":[1,3,5,7,-1,-1,-1,9,-1,11,-1,13,15,-1,-1,-1,-1],"loss_changes":[4.7165892E-1,5.0902057E-1,3.6347806E-2,4.8665968E-1,0E0,0E0,0E0,4.7117373E-1,0E0,9.50306E-1,0E0,5.847756E-1,1.8347806E-1,0E0,0E0,0E0,0E0],"parents":[2147483647,0,0,1,1,2,2,3,3,7,7,9,9,11,11,12,12],"right_children":[2,4,6,8,-1,-1,-1,10,-1,12,-1,14,16,-1,-1,-1,-1],"split_conditions":[3.84E2,1.7E1,4.21E2,4.85E2,-1.1354139E-1,-1.5645297E-1,-3.3199802E-2,1.947E3,1.5887839E-1,6E0,-1.149427E-1,1.23E2,1.749E3,-1.1000053E-1,7.8424156E-2,2.0936593E-2,1.9644308E-1],"split_indices":[1,8,1,0,0,0,0,3,0,8,0,5,3,0,0,0,0],"split_type":[0,0,0,0,0,0,0,0,0,0,0,0,0,0,0,0,0],"sum_hessian":[1.3395988E1,1.1378694E1,2.017295E0,9.793938E0,1.5847555E0,1.0103904E0,1.0069045E0,8.543989E0,1.2499487E0,7.136927E0,1.4070619E0,4.5388894E0,2.5980377E0,3.082863E0,1.4560266E0,1.0088258E0,1.589212E0],"tree_param":{"num_deleted":"0","num_feature":"10","num_nodes":"17","size_leaf_vector":"1"}},{"base_weights":[-5.8658756E-2,2.0948727E-2,-1.3526778E-1,-1.4385585E-1,2.5281903E-1,5.8019508E-2,-1.8515405E-1,5.348686E-1,-6.9299676E-2,2.7566808E-1,-1.1077352E-1,3.7030995E-2,2.4334471E-1,-2.6559455E-2,4.3432662E-1,1.6472356E-2,1.7313904E-1],"categories":[],"categories_nodes":[],"categories_segments":[],"categories_sizes":[],"default_left":[0,0,0,0,0,0,0,0,0,0,0,0,0,0,0,0,0],"id":14,"left_children":[1,3,-1,5,7,9,-1,11,-1,13,-1,-1,-1,-1,15,-1,-1],"loss_changes":[4.4434938E-1,5.153296E-1,0E0,7.967721E-1,8.8364476E-1,7.0595145E-1,0E0,3.3413613E-1,0E0,3.2024917E-1,0E0,0E0,0E0,0E0,1.6154021E-1,0E0,0E0],"parents":[2147483647,0,0,1,1,3,3,4,4,5,5,7,7,9,9,14,14],"right_children":[2,4,-1,6,8,10,-1,12,-1,14,-1,-1,-1,-1,16,-1,-1],"split_conditions":[1.69E2,1.17E2,-1.3526778E-1,3.6E2,1.77E3,9E1,-1.8515405E-1,5.3846157E-1,-6.9299676E-2,5.344262E0,-1.1077352E-1,3.7030995E-2,2.4334471E-1,-2.6559455E-2,3.02E2,1.6472356E-2,1.7313904E-1],"split_indices":[5,5,0,1,3,5,0,6,0,9,0,0,0,0,1,0,0],"split_type":[0,0,0,0,0,0,0,0,0,0,0,0,0,0,0,0,0],"sum_hessian":[1.2928176E1,1.1533863E1,1.3943129E0,6.9638257E0,4.570037E0,5.496823E0,1.467003E0,2.8203511E0,1.7496859E0,3.876792E0,1.6200308E0,1.7142704E0,1.1060809E0,1.3105145E0,2.5662775E0,1.0803536E0,1.4859239E0],"tree_param":{"num_deleted":"0","num_feature":"10","num_nodes":"17","size_leaf_vector":"1"}},{"base_weights":[-5.0197344E-2,1.9785447E-1,-1.6497214E-1,4.638236E-1,-8.3119325E-2,-1.1614961E-2,-1.8384151E-1,3.3510376E-2,1.6984326E-1,-1.1930304E-1,1.5518893E-1,3.145662E-1,-6.878884E-2,-1.6292749E-2,2.1247049E-1,1.39487E-1,-1.1864322E-1],"categories":[],"categories_nodes":[],"categories_segments":[],"categories_sizes":[],"default_left":[0,0,0,0,0,0,0,0,0,0,0,0,0,0,0,0,0],"id":15,"left_children":[1,3,5,7,-1,9,-1,-1,-1,-1,11,13,-1,15,-1,-1,-1],"loss_changes":[4.1442037E-1,7.2176623E-1,6.599667E-1,5.8706045E-2,0E0,5.932935E-1,0E0,0E0,0E0,0E0,4.6942794E-1,6.634553E-1,0E0,8.585251E-1,0E0,0E0,0E0],"parents":[2147483647,0,0,1,1,2,2,3,3,5,5,10,10,11,11,13,13],"right_children":[2,4,6,8,-1,10,-1,-1,-1,-1,12,14,-1,16,-1,-1,-1],"split_conditions":[2.67E2,1.1E1,1.847E3,4.2857143E-1,-8.3119325E-2,-3E0,-1.8384151E-1,3.3510376E-2,1.6984326E-1,-1.1930304E-1,6.530303E0,6.2058825E0,-6.878884E-2,2.98E2,2.1247049E-1,1.39487E-1,-1.1864322E-1],"split_indices":[1,8,3,7,0,8,0,0,0,0,9,9,0,0,0,0,0],"split_type":[0,0,0,0,0,0,0,0,0,0,0,0,0,0,0,0,0],"sum_hessian":[1.2409858E1,3.6966946E0,8.713163E0,2.3846052E0,1.3120894E0,7.2547584E0,1.4584045E0,1.0078624E0,1.3767427E0,1.771224E0,5.4835343E0,4.005161E0,1.4783739E0,2.6970434E0,1.3081173E0,1.0888754E0,1.608168E0],"tree_param":{"num_deleted":"0","num_feature":"10","num_nodes":"17","size_leaf_vector":"1"}},{"base_weights":[-4.173496E-2,-3.400343E-1,6.990487E-2,-1.8719275E-1,3.432688E-2,2.0902835E-1,-1.1761392E-1,-8.6123854E-2,3.281523E-1,-7.421915E-2,4.941756E-1,2.2633211E-1,9.5435046E-2,1.01133175E-1,-4.1372795E-2],"categories":[],"categories_nodes":[],"categories_segments":[],"categories_sizes":[],"default_left":[0,0,0,0,0,0,0,0,0,0,0,0,0,0,0],"id":16,"left_children":[1,3,5,-1,-1,7,-1,-1,9,-1,11,-1,13,-1,-1],"loss_changes":[4.4985393E-1,5.430212E-1,7.336047E-1,0E0,0E0,5.9328926E-1,0E0,0E0,8.1755483E-1,0E0,5.486964E-1,0E0,2.44259E-1,0E0,0E0],"parents":[2147483647,0,0,1,1,2,2,5,5,8,8,10,10,12,12],"right_children":[2,4,6,-1,-1,8,-1,-1,10,-1,12,-1,14,-1,-1],"split_conditions":[1E0,1.4E1,1.1E1,-1.8719275E-1,3.432688E-2,-8E0,-1.1761392E-1,-8.6123854E-2,7.7E1,-7.421915E-2,2E0,2.2633211E-1,-2E0,1.01133175E-1,-4.1372795E-2],"split_indices":[2,8,8,0,0,8,0,0,5,0,2,0,8,0,0],"split_type":[0,0,0,0,0,0,0,0,0,0,0,0,0,0,0],"sum_hessian":[1.1794508E1,2.6548874E0,9.139621E0,1.4044096E0,1.2504779E0,7.4449677E0,1.6946527E0,1.1685326E0,6.2764354E0,1.2954369E0,4.9809985E0,2.4740717E0,2.5069268E0,1.0130333E0,1.4938935E0],"tree_param":{"num_deleted":"0","num_feature":"10","num_nodes":"15","size_leaf_vector":"1"}},{"base_weights":[-4.5670412E-2,9.979599E-2,-1.2104946E-1,8.8101E-2,-2.1814139E-1,-3.2745883E-1,6.546762E-2,5.626865E-2,-4.6720076E-1,-7.9537176E-2,1.0363665E-1,-1.2734361E-2,-2.290234E-1,-1.0716089E-1,8.8002145E-2],"categories":[],"categories_nodes":[],"categories_segments":[],"categories_sizes":[],"default_left":[0,0,0,0,0,0,0,0,0,0,0,0,0,0,0],"id":17,"left_children":[1,-1,3,-1,5,7,-1,9,11,-1,-1,13,-1,-1,-1],"loss_changes":[3.9608485E-1,0E0,5.1251554E-1,0E0,5.293237E-1,4.5931393E-1,0E0,3.7490153E-1,8.0163705E-1,0E0,0E0,4.627505E-1,0E0,0E0,0E0],"parents":[2147483647,0,0,2,2,4,4,5,5,7,7,8,8,11,11],"right_children":[2,-1,4,-1,6,8,-1,10,12,-1,-1,14,-1,-1,-1],"split_conditions":[2E-1,9.979599E-2,1.549E3,8.8101E-2,4.85E2,-2E0,6.546762E-2,1.26E2,9.4E1,-7.9537176E-2,1.0363665E-1,6.666667E-1,-2.290234E-1,-1.0716089E-1,8.8002145E-2],"split_indices":[7,0,3,0,0,8,0,5,5,0,0,7,0,0,0],"split_type":[0,0,0,0,0,0,0,0,0,0,0,0,0,0,0],"sum_hessian":[1.1477079E1,1.3397694E0,1.013731E1,1.5389909E0,8.59832E0,7.075391E0,1.522929E0,2.0482612E0,5.0271297E0,1.0095216E0,1.0387394E0,2.3952162E0,2.6319132E0,1.0483347E0,1.3468815E0],"tree_param":{"num_deleted":"0","num_feature":"10","num_nodes":"15","size_leaf_vector":"1"}},{"base_weights":[-3.6659054E-2,5.6880567E-2,-1.013632E-1,-2.2726622E-1,2.1434075E-1,6.426411E-2,-1.3656761E-1,-8.075789E-2,4.146267E-1,5.5253005E-1,-1.2833614E-2,4.4831168E-2,1.9917893E-1],"categories":[],"categories_nodes":[],"categories_segments":[],"categories_sizes":[],"default_left":[0,0,0,0,0,0,0,0,0,0,0,0,0],"id":18,"left_children":[1,3,-1,5,7,-1,-1,-1,9,11,-1,-1,-1],"loss_changes":[3.574277E-1,4.968076E-1,0E0,5.057471E-1,7.855352E-1,0E0,0E0,0E0,3.5884726E-1,8.736467E-2,0E0,0E0,0E0],"parents":[2147483647,0,0,1,1,3,3,4,4,8,8,9,9],"right_children":[2,4,-1,6,8,-1,-1,-1,10,12,-1,-1,-1],"split_conditions":[8.5714287E-1,3.36E2,-1.013632E-1,2.42E2,4.2105263E-1,6.426411E-2,-1.3656761E-1,-8.075789E-2,1.947E3,1.17E2,-1.2833614E-2,4.4831168E-2,1.9917893E-1],"split_indices":[7,0,0,1,6,0,0,0,3,5,0,0,0],"split_type":[0,0,0,0,0,0,0,0,0,0,0,0,0],"sum_hessian":[1.10035095E1,9.015136E0,1.9883744E0,3.05638E0,5.958755E0,1.0612993E0,1.9950808E0,1.6445096E0,4.3142457E0,3.1550596E0,1.1591861E0,1.1901234E0,1.9649361E0],"tree_param":{"num_deleted":"0","num_feature":"10","num_nodes":"13","size_leaf_vector":"1"}},{"base_weights":[-3.0562792E-2,4.5282267E-2,-1.0493117E-1,2.7501455E-1,-7.9190865E-2,-1.3812173E-2,1.2845734E-1,-1.2538753E-1,6.750048E-2,1.1425065E-1,-1.3991572E-1,-3.816242E-1,8.488628E-2,-1.6776194E-1,-5.815246E-3],"categories":[],"categories_nodes":[],"categories_segments":[],"categories_sizes":[],"default_left":[0,0,0,0,0,0,0,0,0,0,0,0,0,0,0],"id":19,"left_children":[1,3,-1,5,7,-1,-1,-1,9,-1,11,13,-1,-1,-1],"loss_changes":[2.969472E-1,3.1537724E-1,0E0,2.0814794E-1,3.977213E-1,0E0,0E0,0E0,4.4646382E-1,0E0,5.547939E-1,1.9547826E-1,0E0,0E0,0E0],"parents":[2147483647,0,0,1,1,3,3,4,4,8,8,10,10,11,11],"right_children":[2,4,-1,6,8,-1,-1,-1,10,-1,12,14,-1,-1,-1],"split_conditions":[3.84E2,1.632E3,-1.0493117E-1,1.543E3,1E0,-1.3812173E-2,1.2845734E-1,-1.2538753E-1,2.36E2,1.1425065E-1,1.44E2,6.666667E-1,8.488628E-2,-1.6776194E-1,-5.815246E-3],"split_indices":[1,3,0,3,2,0,0,0,1,0,5,7,0,0,0],"split_type":[0,0,0,0,0,0,0,0,0,0,0,0,0,0,0],"sum_hessian":[1.0611109E1,9.2673025E0,1.3438069E0,2.8316584E0,6.4356437E0,1.140539E0,1.6911193E0,1.3858767E0,5.049767E0,1.6783142E0,3.3714528E0,2.207312E0,1.1641408E0,1.1163126E0,1.0909994E0],"tree_param":{"num_deleted":"0","num_feature":"10","num_nodes":"15","size_leaf_vector":"1"}},{"base_weights":[-3.261609E-2,5.4408003E-2,-2.7702934E-1,-1.02196194E-1,1.1711559E-1,-4.2569167E-3,-1.1830766E-1,4.4851128E-2,-1.2502131E-1,-1.3234265E-1,1.2423683E-1,6.1888833E-2,-3.483594E-1,1.2313283E-2,-1.665109E-1],"categories":[],"categories_nodes":[],"categories_segments":[],"categories_sizes":[],"default_left":[0,0,0,0,0,0,0,0,0,0,0,0,0,0,0],"id":20,"left_children":[1,3,5,7,-1,-1,-1,9,-1,11,-1,-1,13,-1,-1],"loss_changes":[2.5521913E-1,5.2194923E-1,9.088804E-2,3.4438145E-1,0E0,0E0,0E0,4.2784995E-1,0E0,4.091217E-1,0E0,0E0,2.792529E-1,0E0,0E0],"parents":[2147483647,0,0,1,1,2,2,3,3,7,7,9,9,12,12],"right_children":[2,4,6,8,-1,-1,-1,10,-1,12,-1,-1,14,-1,-1],"split_conditions":[6.621212E0,6.0694447E0,6E-1,5.5915494E0,1.1711559E-1,-4.2569167E-3,-1.1830766E-1,5.4835167E0,-1.2502131E-1,2.75E2,1.2423683E-1,6.1888833E-2,2.4E2,1.2313283E-2,-1.665109E-1],"split_indices":[9,9,7,9,0,0,0,9,0,0,0,0,1,0,0],"split_type":[0,0,0,0,0,0,0,0,0,0,0,0,0,0,0],"sum_hessian":[1.0290469E1,8.161821E0,2.1286483E0,6.041574E0,2.1202471E0,1.0029023E0,1.125746E0,4.7011886E0,1.3403857E0,3.6103742E0,1.0908145E0,1.423626E0,2.186748E0,1.0360729E0,1.1506753E0],"tree_param":{"num_deleted":"0","num_feature":"10","num_nodes":"15","size_leaf_vector":"1"}},{"base_weights":[-3.5118148E-2,8.890697E-2,-1.785401E-1,-9.479724E-2,2.639024E-1,-1.2764172E-1,8.468627E-2,5.673163E-2,-1.14567675E-1,1.21373676E-1,1.9311439E-3,1.1059574E-1,-6.681459E-2],"categories":[],"categories_nodes":[],"categories_segments":[],"categories_sizes":[],"default_left":[0,0,0,0,0,0,0,0,0,0,0,0,0],"id":21,"left_children":[1,3,5,7,9,-1,11,-1,-1,-1,-1,-1,-1],"loss_changes":[2.115105E-1,2.3608272E-1,3.8915545E-1,3.932574E-1,1.287544E-1,0E0,3.844493E-1,0E0,0E0,0E0,0E0,0E0,0E0],"parents":[2147483647,0,0,1,1,2,2,3,3,4,4,6,6],"right_children":[2,4,6,8,10,-1,12,-1,-1,-1,-1,-1,-1],"split_conditions":[1.777E3,1.23E2,2.83E2,3.28E2,6E-1,-1.2764172E-1,2.36E2,5.673163E-2,-1.14567675E-1,1.21373676E-1,1.9311439E-3,1.1059574E-1,-6.681459E-2],"split_indices":[3,5,4,1,7,0,1,0,0,0,0,0,0],"split_type":[0,0,0,0,0,0,0,0,0,0,0,0,0],"sum_hessian":[9.998305E0,5.565555E0,4.4327497E0,2.9387956E0,2.6267595E0,1.9691339E0,2.4636161E0,1.649224E0,1.2895714E0,1.329139E0,1.2976205E0,1.1770484E0,1.2865676E0],"tree_param":{"num_deleted":"0","num_feature":"10","num_nodes":"13","size_leaf_vector":"1"}},{"base_weights":[-2.8695254E-2,5.5212338E-2,-2.6160306E-1,-6.0833447E-2,1.07916005E-1,-1.6367285E-2,-1.0190725E-1,2.2387329E-1,-2.2815958E-1,1.3974102E-1,-3.3261713E-2,-7.832123E-3,-1.6195266E-1,-6.0567133E-2,7.937512E-2],"categories":[],"categories_nodes":[],"categories_segments":[],"categories_sizes":[],"default_left":[0,0,0,0,0,0,0,0,0,0,0,0,0,0,0],"id":22,"left_children":[1,3,5,7,-1,-1,-1,9,11,-1,-1,13,-1,-1,-1],"loss_changes":[2.2450185E-1,3.3029E-1,3.0310333E-2,3.9287424E-1,0E0,0E0,0E0,3.0760282E-1,3.4010524E-1,0E0,0E0,2.6235393E-1,0E0,0E0,0E0],"parents":[2147483647,0,0,1,1,2,2,3,3,7,7,8,8,11,11],"right_children":[2,4,6,8,-1,-1,-1,10,12,-1,-1,14,-1,-1,-1],"split_conditions":[6.621212E0,6.206897E0,9E0,2.42E2,1.07916005E-1,-1.6367285E-2,-1.0190725E-1,4E0,3.47E2,1.3974102E-1,-3.3261713E-2,5.477612E0,-1.6195266E-1,-6.0567133E-2,7.937512E-2],"split_indices":[9,9,8,1,0,0,0,8,0,0,0,9,0,0,0],"split_type":[0,0,0,0,0,0,0,0,0,0,0,0,0,0,0],"sum_hessian":[9.748657E0,7.7276354E0,2.0210218E0,6.1747165E0,1.5529187E0,1.0186903E0,1.0023315E0,2.1605604E0,4.0141563E0,1.0268863E0,1.1336739E0,2.952308E0,1.0618485E0,1.8753039E0,1.077004E0],"tree_param":{"num_deleted":"0","num_feature":"10","num_nodes":"15","size_leaf_vector":"1"}},{"base_weights":[-2.6806736E-2,7.907867E-2,-1.8978557E-1,-1.0791969E-1,2.9372433E-1,-1.6466801E-1,1.029958E-1,2.024218E-1,-1.6693145E-1,-6.47304E-3,1.466892E-1,1.0000346E-1,-4.51225E-2,-1.7137107E-2,1.0185667E-1],"categories":[],"categories_nodes":[],"categories_segments":[],"categories_sizes":[],"default_left":[0,0,0,0,0,0,0,0,0,0,0,0,0,0,0],"id":23,"left_children":[1,3,5,7,9,-1,11,13,-1,-1,-1,-1,-1,-1,-1],"loss_changes":[1.9504367E-1,3.1386524E-1,5.194366E-1,7.3736215E-1,2.2857279E-1,0E0,2.4085733E-1,1.3988003E-1,0E0,0E0,0E0,0E0,0E0,0E0,0E0],"parents":[2147483647,0,0,1,1,2,2,3,3,4,4,6,6,7,7],"right_children":[2,4,6,8,10,-1,12,14,-1,-1,-1,-1,-1,-1,-1],"split_conditions":[3.75E2,3.36E2,3.13E2,4E-1,4.7058824E-1,-1.6466801E-1,3.33E2,-1E0,-1.6693145E-1,-6.47304E-3,1.466892E-1,1.0000346E-1,-4.51225E-2,-1.7137107E-2,1.0185667E-1],"split_indices":[0,0,4,6,6,0,4,8,0,0,0,0,0,0,0],"split_type":[0,0,0,0,0,0,0,0,0,0,0,0,0,0,0],"sum_hessian":[9.43257E0,6.0298448E0,3.402726E0,3.4881783E0,2.5416665E0,1.1353813E0,2.2673447E0,2.3859594E0,1.1022189E0,1.3121321E0,1.2295343E0,1.0224507E0,1.2448939E0,1.0263379E0,1.3596214E0],"tree_param":{"num_deleted":"0","num_feature":"10","num_nodes":"15","size_leaf_vector":"1"}},{"base_weights":[-2.7212199E-2,4.6300266E-2,-7.7652454E-2,2.0977183E-1,-1.1645172E-1,-8.603697E-3,1.02637075E-1,-2.8903842E-1,7.9874694E-2,2.7255138E-2,-1.5637748E-1],"categories":[],"categories_nodes":[],"categories_segments":[],"categories_sizes":[],"default_left":[0,0,0,0,0,0,0,0,0,0,0],"id":24,"left_children":[1,3,-1,5,7,-1,-1,9,-1,-1,-1],"loss_changes":[1.8349533E-1,2.504185E-1,0E0,1.5481724E-1,4.0056264E-1,0E0,0E0,3.875395E-1,0E0,0E0,0E0],"parents":[2147483647,0,0,1,1,3,3,4,4,7,7],"right_children":[2,4,-1,6,8,-1,-1,10,-1,-1,-1],"split_conditions":[3.66E2,9.4E1,-7.7652454E-2,6E-1,3.13E2,-8.603697E-3,1.02637075E-1,1.632E3,7.9874694E-2,2.7255138E-2,-1.5637748E-1],"split_indices":[1,5,0,7,4,0,0,3,0,0,0],"split_type":[0,0,0,0,0,0,0,0,0,0,0],"sum_hessian":[9.072498E0,7.494174E0,1.5783243E0,3.594688E0,3.8994863E0,1.5626537E0,2.0320344E0,2.8561754E0,1.0433106E0,1.3145212E0,1.5416543E0],"tree_param":{"num_deleted":"0","num_feature":"10","num_nodes":"11","size_leaf_vector":"1"}},{"base_weights":[-2.463622E-2,5.243859E-2,-6.99236E-2,-6.416372E-2,8.433396E-2,5.4441273E-2,-9.805561E-2,2.1200211E-1,-6.469114E-2,1.2592393E-1,-6.491911E-3],"categories":[],"categories_nodes":[],"categories_segments":[],"categories_sizes":[],"default_left":[0,0,0,0,0,0,0,0,0,0,0],"id":25,"left_children":[1,3,-1,5,-1,7,-1,9,-1,-1,-1],"loss_changes":[1.7023115E-1,2.3125681E-1,0E0,2.0816518E-1,0E0,2.6132688E-1,0E0,1.8887764E-1,0E0,0E0,0E0],"parents":[2147483647,0,0,1,1,3,3,5,5,7,7],"right_children":[2,4,-1,6,-1,8,-1,10,-1,-1,-1],"split_conditions":[6.621212E0,6.0694447E0,-6.99236E-2,5.5915494E0,8.433396E-2,4E0,-9.805561E-2,2.69E2,-6.469114E-2,1.2592393E-1,-6.491911E-3],"split_indices":[9,9,0,9,0,8,0,1,0,0,0],"split_type":[0,0,0,0,0,0,0,0,0,0,0],"sum_hessian":[8.835188E0,6.996537E0,1.838651E0,5.110221E0,1.8863164E0,4.066797E0,1.0434241E0,2.704219E0,1.3625776E0,1.0098054E0,1.6944135E0],"tree_param":{"num_deleted":"0","num_feature":"10","num_nodes":"11","size_leaf_vector":"1"}},{"base_weights":[-2.1215947E-2,7.501946E-2,-1.7342335E-1,-5.2619383E-2,2.0602843E-1,-1.06626116E-1,4.0668108E-2,1.3245434E-1,-9.419696E-3,-7.78136E-2,7.247299E-2],"categories":[],"categories_nodes":[],"categories_segments":[],"categories_sizes":[],"default_left":[0,0,0,0,0,0,0,0,0,0,0],"id":26,"left_children":[1,3,5,-1,7,-1,-1,-1,9,-1,-1],"loss_changes":[1.5436096E-1,2.529933E-1,2.7536294E-1,0E0,2.4766435E-1,0E0,0E0,0E0,2.813374E-1,0E0,0E0],"parents":[2147483647,0,0,1,1,2,2,4,4,8,8],"right_children":[2,4,6,-1,8,-1,-1,-1,10,-1,-1],"split_conditions":[3.75E2,4.767857E0,4.85E2,-5.2619383E-2,3.0769232E-1,-1.06626116E-1,4.0668108E-2,1.3245434E-1,4.7058824E-1,-7.78136E-2,7.247299E-2],"split_indices":[0,9,0,0,6,0,0,0,6,0,0],"split_type":[0,0,0,0,0,0,0,0,0,0,0],"sum_hessian":[8.65001E0,5.610078E0,3.0399323E0,1.8105239E0,3.7995539E0,1.8185089E0,1.2214234E0,1.3140289E0,2.485525E0,1.2286031E0,1.2569218E0],"tree_param":{"num_deleted":"0","num_feature":"10","num_nodes":"11","size_leaf_vector":"1"}},{"base_weights":[-1.5260964E-2,-6.413211E-2,5.5580724E-2,2.0951375E-1,-1.4669992E-1,1.149121E-1,-1.720117E-2,-1.5985689E-1,5.4224987E-2],"categories":[],"categories_nodes":[],"categories_segments":[],"categories_sizes":[],"default_left":[0,0,0,0,0,0,0,0,0],"id":27,"left_children":[1,-1,3,5,7,-1,-1,-1,-1],"loss_changes":[1.4466089E-1,0E0,2.7212033E-1,2.4487853E-1,5.942828E-1,0E0,0E0,0E0,0E0],"parents":[2147483647,0,0,2,2,3,3,4,4],"right_children":[2,-1,4,6,8,-1,-1,-1,-1],"split_conditions":[3E-1,-6.413211E-2,3.61E2,2E0,3.13E2,1.149121E-1,-1.720117E-2,-1.5985689E-1,5.4224987E-2],"split_indices":[6,0,0,8,4,0,0,0,0],"split_type":[0,0,0,0,0,0,0,0,0],"sum_hessian":[8.441756E0,1.6895816E0,6.752175E0,3.814006E0,2.9381688E0,2.0472932E0,1.7667128E0,1.0603839E0,1.8777848E0],"tree_param":{"num_deleted":"0","num_feature":"10","num_nodes":"9","size_leaf_vector":"1"}},{"base_weights":[-2.0270053E-2,5.0148513E-2,-7.2284445E-2,1.2917158E-1,-6.763864E-2,-3.5498556E-2,2.421246E-1,-1.0224898E-2,3.215336E-1,1.3606411E-1,1.760687E-2],"categories":[],"categories_nodes":[],"categories_segments":[],"categories_sizes":[],"default_left":[0,0,0,0,0,0,0,0,0,0,0],"id":28,"left_children":[1,3,-1,5,-1,-1,7,-1,9,-1,-1],"loss_changes":[1.5601721E-1,2.0007953E-1,0E0,2.1696267E-1,0E0,0E0,1.1960566E-1,0E0,1.1020732E-1,0E0,0E0],"parents":[2147483647,0,0,1,1,3,3,6,6,8,8],"right_children":[2,4,-1,6,-1,-1,8,-1,10,-1,-1],"split_conditions":[3.66E2,5.263158E-1,-7.2284445E-2,2.12E2,-6.763864E-2,-3.5498556E-2,6.8E1,-1.0224898E-2,9E1,1.3606411E-1,1.760687E-2],"split_indices":[1,6,0,4,0,0,5,0,5,0,0],"split_type":[0,0,0,0,0,0,0,0,0,0,0],"sum_hessian":[8.262263E0,6.8493743E0,1.4128885E0,5.7360578E0,1.1133165E0,1.7825606E0,3.9534972E0,1.0102712E0,2.943226E0,1.4762452E0,1.4669808E0],"tree_param":{"num_deleted":"0","num_feature":"10","num_nodes":"11","size_leaf_vector":"1"}},{"base_weights":[-1.8132864E-2,1.271384E-1,-9.622109E-2,-4.1569732E-2,1.00666046E-1,7.7940285E-2,-2.9326278E-1,2.4760324E-1,-6.0560875E-2,-8.983194E-3,-1.2126065E-1,1.1358339E-2,9.927619E-2],"categories":[],"categories_nodes":[],"categories_segments":[],"categories_sizes":[],"default_left":[0,0,0,0,0,0,0,0,0,0,0,0,0],"id":29,"left_children":[1,3,5,-1,-1,7,9,11,-1,-1,-1,-1,-1],"loss_changes":[1.15623854E-1,2.4680282E-1,2.4581379E-1,0E0,0E0,2.512112E-1,8.307701E-2,4.1432023E-2,0E0,0E0,0E0,0E0,0E0],"parents":[2147483647,0,0,1,1,2,2,5,5,6,6,7,7],"right_children":[2,4,6,-1,-1,8,10,12,-1,-1,-1,-1,-1],"split_conditions":[2.67E2,2E0,2E0,-4.1569732E-2,1.00666046E-1,2.21E2,9.1E1,7.1428573E-1,-6.0560875E-2,-8.983194E-3,-1.2126065E-1,1.1358339E-2,9.927619E-2],"split_indices":[1,2,2,0,0,4,5,7,0,0,0,0,0],"split_type":[0,0,0,0,0,0,0,0,0,0,0,0,0],"sum_hessian":[8.114128E0,2.6171606E0,5.496968E0,1.2977853E0,1.3193753E0,3.238748E0,2.2582197E0,2.087869E0,1.1508791E0,1.0458258E0,1.2123939E0,1.00708E0,1.0807889E0],"tree_param":{"num_deleted":"0","num_feature":"10","num_nodes":"13","size_leaf_vector":"1"}},{"base_weights":[-1.6061228E-2,4.8868835E-2,-6.346359E-2,-1.3250774E-1,2.3316327E-1,-8.5160315E-2,2.65429E-2,1.09776355E-1,-2.0937093E-2],"categories":[],"categories_nodes":[],"categories_segments":[],"categories_sizes":[],"default_left":[0,0,0,0,0,0,0,0,0],"id":30,"left_children":[1,3,-1,5,7,-1,-1,-1,-1],"loss_changes":[1.238424E-1,2.8243586E-1,0E0,1.7329803E-1,1.902328E-1,0E0,0E0,0E0,0E0],"parents":[2147483647,0,0,1,1,3,3,4,4],"right_children":[2,4,-1,6,8,-1,-1,-1,-1],"split_conditions":[8.5714287E-1,1.17E2,-6.346359E-2,2.82E2,1.77E3,-8.5160315E-2,2.65429E-2,1.09776355E-1,-2.0937093E-2],"split_indices":[7,5,0,4,3,0,0,0,0],"split_type":[0,0,0,0,0,0,0,0,0],"sum_hessian":[7.942431E0,6.525122E0,1.417309E0,3.4302154E0,3.0949068E0,1.8669275E0,1.5632877E0,2.0073957E0,1.087511E0],"tree_param":{"num_deleted":"0","num_feature":"10","num_nodes":"9","size_leaf_vector":"1"}},{"base_weights":[-1.5766047E-2,4.5463447E-2,-6.378033E-2,1.1082173E-1,-5.6783978E-2,1.9766355E-1,-5.060039E-2,-2.7936323E-2,3.1391403E-1,1.1746831E-1,2.8815052E-2],"categories":[],"categories_nodes":[],"categories_segments":[],"categories_sizes":[],"default_left":[0,0,0,0,0,0,0,0,0,0,0],"id":31,"left_children":[1,3,-1,5,-1,7,-1,-1,9,-1,-1],"loss_changes":[1.15980886E-1,1.3684465E-1,0E0,1.9202855E-1,0E0,2.1341649E-1,0E0,0E0,3.210768E-2,0E0,0E0],"parents":[2147483647,0,0,1,1,3,3,5,5,8,8],"right_children":[2,4,-1,6,-1,8,-1,-1,10,-1,-1],"split_conditions":[3.66E2,5.263158E-1,-6.378033E-2,1.33E2,-5.6783978E-2,3E-1,-5.060039E-2,-2.7936323E-2,5.4891305E0,1.1746831E-1,2.8815052E-2],"split_indices":[1,6,0,5,0,6,0,0,9,0,0],"split_type":[0,0,0,0,0,0,0,0,0,0,0],"sum_hessian":[7.8213034E0,6.552152E0,1.269151E0,5.53811E0,1.0140424E0,4.4486227E0,1.089487E0,1.3273646E0,3.1212583E0,1.7133456E0,1.4079127E0],"tree_param":{"num_deleted":"0","num_feature":"10","num_nodes":"11","size_leaf_vector":"1"}},{"base_weights":[-1.75657E-2,4.6151835E-2,-5.9053943E-2,-1.2724929E-1,2.510248E-1,-1.0747733E-1,6.3225634E-2,1.229984E-1,-6.6834025E-4],"categories":[],"categories_nodes":[],"categories_segments":[],"categories_sizes":[],"default_left":[0,0,0,0,0,0,0,0,0],"id":32,"left_children":[1,3,-1,5,7,-1,-1,-1,-1],"loss_changes":[1.0885539E-1,2.8963712E-1,0E0,4.3407446E-1,1.4832619E-1,0E0,0E0,0E0,0E0],"parents":[2147483647,0,0,1,1,3,3,4,4],"right_children":[2,4,-1,6,8,-1,-1,-1,-1],"split_conditions":[1.947E3,6E0,-5.9053943E-2,1.23E2,2.93E2,-1.0747733E-1,6.3225634E-2,1.229984E-1,-6.6834025E-4],"split_indices":[3,8,0,5,1,0,0,0,0],"split_type":[0,0,0,0,0,0,0,0,0],"sum_hessian":[7.7339306E0,6.253846E0,1.4800847E0,3.5922835E0,2.6615627E0,2.0982773E0,1.494006E0,1.2549188E0,1.4066439E0],"tree_param":{"num_deleted":"0","num_feature":"10","num_nodes":"9","size_leaf_vector":"1"}},{"base_weights":[-1.1172332E-2,-5.73808E-2,5.3232685E-2,1.6959234E-1,-9.2790976E-2,1.23120375E-1,6.9646756E-3,-6.101049E-2,7.229935E-2],"categories":[],"categories_nodes":[],"categories_segments":[],"categories_sizes":[],"default_left":[0,0,0,0,0,0,0,0,0],"id":33,"left_children":[1,-1,3,5,-1,-1,7,-1,-1],"loss_changes":[1.0951605E-1,0E0,3.5155904E-1,2.3264135E-1,0E0,0E0,2.757733E-1,0E0,0E0],"parents":[2147483647,0,0,2,2,3,3,6,6],"right_children":[2,-1,4,6,-1,-1,8,-1,-1],"split_conditions":[1E0,-5.73808E-2,1.1E1,2.67E2,-9.2790976E-2,1.23120375E-1,4.7058824E-1,-6.101049E-2,7.229935E-2],"split_indices":[2,0,8,1,0,0,6,0,0],"split_type":[0,0,0,0,0,0,0,0,0],"sum_hessian":[7.5639257E0,1.4735686E0,6.0903573E0,5.013446E0,1.0769116E0,1.4067922E0,3.6066537E0,1.9685148E0,1.6381388E0],"tree_param":{"num_deleted":"0","num_feature":"10","num_nodes":"9","size_leaf_vector":"1"}},{"base_weights":[-1.0331833E-2,8.773502E-2,-1.3356465E-1,1.969933E-1,-2.7543029E-2,-9.512978E-2,1.7014116E-2,-2.6116226E-2,1.07181735E-1],"categories":[],"categories_nodes":[],"categories_segments":[],"categories_sizes":[],"default_left":[0,0,0,0,0,0,0,0,0],"id":34,"left_children":[1,3,5,7,-1,-1,-1,-1,-1],"loss_changes":[1.12938546E-1,1.2141958E-1,1.6144776E-1,1.9466636E-1,0E0,0E0,0E0,0E0,0E0],"parents":[2147483647,0,0,1,1,2,2,3,3],"right_children":[2,4,6,8,-1,-1,-1,-1,-1],"split_conditions":[1.777E3,2E0,2.83E2,1.21E2,-2.7543029E-2,-9.512978E-2,1.7014116E-2,-2.6116226E-2,1.07181735E-1],"split_indices":[3,2,4,5,0,0,0,0,0],"split_type":[0,0,0,0,0,0,0,0,0],"sum_hessian":[7.3756557E0,4.2676096E0,3.108046E0,2.5926988E0,1.6749108E0,1.2427955E0,1.8652506E0,1.1000481E0,1.4926506E0],"tree_param":{"num_deleted":"0","num_feature":"10","num_nodes":"9","size_leaf_vector":"1"}},{"base_weights":[-1.0650351E-2,4.66058E-2,-5.9733626E-2,1.7100713E-1,-8.69912E-2,-1.8742042E-2,8.95229E-2,6.1343607E-2,-2.5303483E-1,-1.6147512E-1,4.8673075E-2],"categories":[],"categories_nodes":[],"categories_segments":[],"categories_sizes":[],"default_left":[0,0,0,0,0,0,0,0,0,0,0],"id":35,"left_children":[1,3,-1,5,7,-1,-1,-1,9,-1,-1],"loss_changes":[9.858603E-2,1.3384157E-1,0E0,1.3892977E-1,2.5085974E-1,0E0,0E0,0E0,4.5072043E-1,0E0,0E0],"parents":[2147483647,0,0,1,1,3,3,4,4,8,8],"right_children":[2,4,-1,6,8,-1,-1,-1,10,-1,-1],"split_conditions":[3.66E2,9.4E1,-5.9733626E-2,6E-1,4E-1,-1.8742042E-2,8.95229E-2,6.1343607E-2,1.53E2,-1.6147512E-1,4.8673075E-2],"split_indices":[1,5,0,7,7,0,0,0,5,0,0],"split_type":[0,0,0,0,0,0,0,0,0,0,0],"sum_hessian":[7.2763057E0,6.1581235E0,1.1181821E0,3.0438056E0,3.1143181E0,1.2544714E0,1.7893342E0,1.046259E0,2.068059E0,1.0504706E0,1.0175884E0],"tree_param":{"num_deleted":"0","num_feature":"10","num_nodes":"11","size_leaf_vector":"1"}},{"base_weights":[-1.4224843E-2,7.686491E-2,-1.2647763E-1,-3.778512E-2,7.000889E-2,1.9127607E-2,-8.964963E-2,-7.7678844E-2,5.6015708E-2],"categories":[],"categories_nodes":[],"categories_segments":[],"categories_sizes":[],"default_left":[0,0,0,0,0,0,0,0,0],"id":36,"left_children":[1,3,5,7,-1,-1,-1,-1,-1],"loss_changes":[9.2513785E-2,1.0017771E-1,1.5037398E-1,2.3698327E-1,0E0,0E0,0E0,0E0,0E0],"parents":[2147483647,0,0,1,1,2,2,3,3],"right_children":[2,4,6,8,-1,-1,-1,-1,-1],"split_conditions":[1.777E3,8E-1,2.4E2,1.23E2,7.000889E-2,1.9127607E-2,-8.964963E-2,-7.7678844E-2,5.6015708E-2],"split_indices":[3,7,1,5,0,0,0,0,0],"split_type":[0,0,0,0,0,0,0,0,0],"sum_hessian":[7.096964E0,4.0918236E0,3.00514E0,2.7994862E0,1.2923375E0,1.7279674E0,1.2771727E0,1.3330482E0,1.4664378E0],"tree_param":{"num_deleted":"0","num_feature":"10","num_nodes":"9","size_leaf_vector":"1"}},{"base_weights":[-1.3533888E-2,4.93866E-2,-5.4578803E-2,-6.76165E-2,8.046026E-2,4.39856E-2,-1.6085318E-1,2.669838E-2,-1.0772424E-1],"categories":[],"categories_nodes":[],"categories_segments":[],"categories_sizes":[],"default_left":[0,0,0,0,0,0,0,0,0],"id":37,"left_children":[1,3,-1,5,-1,-1,7,-1,-1],"loss_changes":[9.365855E-2,1.8721491E-1,0E0,1.2549151E-1,0E0,0E0,2.3163019E-1,0E0,0E0],"parents":[2147483647,0,0,1,1,3,3,6,6],"right_children":[2,4,-1,6,-1,-1,8,-1,-1],"split_conditions":[6.621212E0,6.0694447E0,-5.4578803E-2,2.75E2,8.046026E-2,4.39856E-2,8.6E1,2.669838E-2,-1.0772424E-1],"split_indices":[9,9,0,0,0,0,5,0,0],"split_type":[0,0,0,0,0,0,0,0,0],"sum_hessian":[6.991458E0,5.6041903E0,1.3872675E0,4.101856E0,1.5023342E0,1.0702165E0,3.0316398E0,1.5849738E0,1.4466659E0],"tree_param":{"num_deleted":"0","num_feature":"10","num_nodes":"9","size_leaf_vector":"1"}},{"base_weights":[-1.1773174E-2,-5.440663E-2,5.079458E-2,6.563241E-2,-6.786798E-2,-6.749622E-2,3.739607E-2],"categories":[],"categories_nodes":[],"categories_segments":[],"categories_sizes":[],"default_left":[0,0,0,0,0,0,0],"id":38,"left_children":[1,-1,3,-1,5,-1,-1],"loss_changes":[9.2779905E-2,0E0,1.4510068E-1,0E0,1.6696791E-1,0E0,0E0],"parents":[2147483647,0,0,2,2,4,4],"right_children":[2,-1,4,-1,6,-1,-1],"split_conditions":[1E0,-5.440663E-2,2.67E2,6.563241E-2,4.7058824E-1,-6.749622E-2,3.739607E-2],"split_indices":[2,0,1,0,6,0,0],"split_type":[0,0,0,0,0,0,0],"sum_hessian":[6.8760633E0,1.3415126E0,5.534551E0,1.9419016E0,3.5926495E0,1.885353E0,1.7072964E0],"tree_param":{"num_deleted":"0","num_feature":"10","num_nodes":"7","size_leaf_vector":"1"}},{"base_weights":[-1.1163905E-2,7.265739E-2,-1.4531854E-1,-7.939264E-2,6.8248846E-2,-8.5547104E-2,2.68193E-2,4.0982984E-2,-7.721734E-2],"categories":[],"categories_nodes":[],"categories_segments":[],"categories_sizes":[],"default_left":[0,0,0,0,0,0,0,0,0],"id":39,"left_children":[1,3,5,7,-1,-1,-1,-1,-1],"loss_changes":[9.816605E-2,1.4664441E-1,1.3476549E-1,1.6961126E-1,0E0,0E0,0E0,0E0,0E0],"parents":[2147483647,0,0,1,1,2,2,3,3],"right_children":[2,4,6,8,-1,-1,-1,-1,-1],"split_conditions":[3.75E2,3.36E2,4.82E2,3.3333334E-1,6.8248846E-2,-8.5547104E-2,2.68193E-2,4.0982984E-2,-7.721734E-2],"split_indices":[0,0,0,6,0,0,0,0,0],"split_type":[0,0,0,0,0,0,0,0,0],"sum_hessian":[6.790793E0,4.461564E0,2.3292289E0,2.496895E0,1.964669E0,1.324952E0,1.0042769E0,1.233073E0,1.2638221E0],"tree_param":{"num_deleted":"0","num_feature":"10","num_nodes":"9","size_leaf_vector":"1"}},{"base_weights":[-1.2058002E-2,4.783641E-2,-5.2745078E-2,-9.479684E-2,2.0546223E-1,-8.176949E-2,5.464095E-2,2.974766E-3,9.378074E-2],"categories":[],"categories_nodes":[],"categories_segments":[],"categories_sizes":[],"default_left":[0,0,0,0,0,0,0,0,0],"id":40,"left_children":[1,3,-1,5,7,-1,-1,-1,-1],"loss_changes":[8.37289E-2,1.6356298E-1,0E0,2.4895908E-1,6.7297116E-2,0E0,0E0,0E0,0E0],"parents":[2147483647,0,0,1,1,3,3,4,4],"right_children":[2,4,-1,6,8,-1,-1,-1,-1],"split_conditions":[1.947E3,6E0,-5.2745078E-2,4.7058824E-1,1.776E3,-8.176949E-2,5.464095E-2,2.974766E-3,9.378074E-2],"split_indices":[3,8,0,6,3,0,0,0,0],"split_type":[0,0,0,0,0,0,0,0,0],"sum_hessian":[6.679097E0,5.4087467E0,1.2703503E0,3.0486577E0,2.360089E0,1.8663747E0,1.1822829E0,1.2221111E0,1.1379778E0],"tree_param":{"num_deleted":"0","num_feature":"10","num_nodes":"9","size_leaf_vector":"1"}},{"base_weights":[-6.809028E-3,8.334939E-2,-1.19975746E-1,1.6476783E-1,-1.7394822E-2,1.7928869E-2,-8.3925635E-2,8.94391E-2,-8.057036E-3],"categories":[],"categories_nodes":[],"categories_segments":[],"categories_sizes":[],"default_left":[0,0,0,0,0,0,0,0,0],"id":41,"left_children":[1,3,5,7,-1,-1,-1,-1,-1],"loss_changes":[8.7139376E-2,6.476566E-2,1.24767825E-1,9.245851E-2,0E0,0E0,0E0,0E0,0E0],"parents":[2147483647,0,0,1,1,2,2,3,3],"right_children":[2,4,6,8,-1,-1,-1,-1,-1],"split_conditions":[1.777E3,2E0,4.6153846E-1,1.9E2,-1.7394822E-2,1.7928869E-2,-8.3925635E-2,8.94391E-2,-8.057036E-3],"split_indices":[3,2,6,4,0,0,0,0,0],"split_type":[0,0,0,0,0,0,0,0,0],"sum_hessian":[6.56052E0,3.798103E0,2.7624168E0,2.304633E0,1.4934702E0,1.5945758E0,1.1678412E0,1.0311753E0,1.2734576E0],"tree_param":{"num_deleted":"0","num_feature":"10","num_nodes":"9","size_leaf_vector":"1"}},{"base_weights":[-5.335247E-3,5.050311E-2,-5.03736E-2,-5.9870187E-2,7.703292E-2,5.738837E-2,-2.811113E-1,-1.0282967E-1,-2.3469089E-2],"categories":[],"categories_nodes":[],"categories_segments":[],"categories_sizes":[],"default_left":[0,0,0,0,0,0,0,0,0],"id":42,"left_children":[1,3,-1,5,-1,-1,7,-1,-1],"loss_changes":[7.666094E-2,1.6015424E-1,0E0,3.2903215E-1,0E0,0E0,1.1193424E-2,0E0,0E0],"parents":[2147483647,0,0,1,1,3,3,6,6],"right_children":[2,4,-1,6,-1,-1,8,-1,-1],"split_conditions":[8.5714287E-1,3.2E2,-5.03736E-2,2E0,7.703292E-2,5.738837E-2,3.5E2,-1.0282967E-1,-2.3469089E-2],"split_indices":[7,4,0,8,0,0,0,0,0],"split_type":[0,0,0,0,0,0,0,0,0],"sum_hessian":[6.5105457E0,5.359231E0,1.1513147E0,3.953522E0,1.4057088E0,1.9149386E0,2.0385835E0,1.0346645E0,1.0039189E0],"tree_param":{"num_deleted":"0","num_feature":"10","num_nodes":"9","size_leaf_vector":"1"}},{"base_weights":[-9.991377E-3,9.4033316E-2,-9.7843446E-2,-5.157759E-2,7.6742485E-2,3.046731E-2,-7.536434E-2],"categories":[],"categories_nodes":[],"categories_segments":[],"categories_sizes":[],"default_left":[0,0,0,0,0,0,0],"id":43,"left_children":[1,3,5,-1,-1,-1,-1],"loss_changes":[7.7030025E-2,2.1213253E-1,1.6355976E-1,0E0,0E0,0E0,0E0],"parents":[2147483647,0,0,1,1,2,2],"right_children":[2,4,6,-1,-1,-1,-1],"split_conditions":[1.702E3,2.11E2,5.5285716E0,-5.157759E-2,7.6742485E-2,3.046731E-2,-7.536434E-2],"split_indices":[3,4,9,0,0,0,0],"split_type":[0,0,0,0,0,0,0],"sum_hessian":[6.422156E0,2.9082127E0,3.5139432E0,1.0761971E0,1.8320155E0,1.6745944E0,1.8393488E0],"tree_param":{"num_deleted":"0","num_feature":"10","num_nodes":"7","size_leaf_vector":"1"}},{"base_weights":[-1.0162564E-2,4.97653E-2,-5.2750718E-2,1.4025685E-1,-3.908194E-2,-1.0762943E-2,9.21697E-2,4.1704807E-2,-5.2249115E-2],"categories":[],"categories_nodes":[],"categories_segments":[],"categories_sizes":[],"default_left":[0,0,0,0,0,0,0,0,0],"id":44,"left_children":[1,3,-1,5,-1,7,-1,-1,-1],"loss_changes":[8.155929E-2,1.1870769E-1,0E0,1.18904985E-1,0E0,1.06768906E-1,0E0,0E0,0E0],"parents":[2147483647,0,0,1,1,3,3,5,5],"right_children":[2,4,-1,6,-1,8,-1,-1,-1],"split_conditions":[3.6E2,1.24E2,-5.2750718E-2,3.2E2,-3.908194E-2,2.42E2,9.21697E-2,4.1704807E-2,-5.2249115E-2],"split_indices":[1,5,0,1,0,1,0,0,0],"split_type":[0,0,0,0,0,0,0,0,0],"sum_hessian":[6.3333564E0,5.1647596E0,1.1685971E0,3.5842118E0,1.5805476E0,2.3732681E0,1.2109437E0,1.3161088E0,1.0571593E0],"tree_param":{"num_deleted":"0","num_feature":"10","num_nodes":"9","size_leaf_vector":"1"}},{"base_weights":[-8.791029E-3,4.5501694E-2,-4.5744505E-2,-6.526798E-2,7.281276E-2,8.205736E-2,-6.900193E-2,5.649284E-2,-1.6298398E-2],"categories":[],"categories_nodes":[],"categories_segments":[],"categories_sizes":[],"default_left":[0,0,0,0,0,0,0,0,0],"id":45,"left_children":[1,3,-1,5,-1,7,-1,-1,-1],"loss_changes":[6.3572966E-2,1.477605E-1,0E0,1.31852E-1,0E0,5.652183E-2,0E0,0E0,0E0],"parents":[2147483647,0,0,1,1,3,3,5,5],"right_children":[2,4,-1,6,-1,8,-1,-1,-1],"split_conditions":[6.621212E0,6.0694447E0,-4.5744505E-2,2.24E2,7.281276E-2,1.03E2,-6.900193E-2,5.649284E-2,-1.6298398E-2],"split_indices":[9,9,0,4,0,5,0,0,0],"split_type":[0,0,0,0,0,0,0,0,0],"sum_hessian":[6.2596073E0,5.0389886E0,1.2206186E0,3.6550303E0,1.3839587E0,2.1944394E0,1.4605907E0,1.0194851E0,1.1749543E0],"tree_param":{"num_deleted":"0","num_feature":"10","num_nodes":"9","size_leaf_vector":"1"}},{"base_weights":[-6.7114965E-3,-4.503898E-2,4.624426E-2,6.122984E-2,-6.808987E-2,3.317906E-2,-5.5540305E-2],"categories":[],"categories_nodes":[],"categories_segments":[],"categories_sizes":[],"default_left":[0,0,0,0,0,0,0],"id":46,"left_children":[1,-1,3,-1,5,-1,-1],"loss_changes":[6.1451744E-2,0E0,1.2229843E-1,0E0,1.09007925E-1,0E0,0E0],"parents":[2147483647,0,0,2,2,4,4],"right_children":[2,-1,4,-1,6,-1,-1],"split_conditions":[1E0,-4.503898E-2,2.67E2,6.122984E-2,2.12E2,3.317906E-2,-5.5540305E-2],"split_indices":[2,0,1,0,4,0,0],"split_type":[0,0,0,0,0,0,0],"sum_hessian":[6.177131E0,1.1709303E0,5.006201E0,1.7730831E0,3.2331176E0,1.3014051E0,1.9317125E0],"tree_param":{"num_deleted":"0","num_feature":"10","num_nodes":"7","size_leaf_vector":"1"}},{"base_weights":[-5.825579E-3,-7.059162E-2,3.8047172E-2,2.8758198E-2,-6.9893524E-2,4.625305E-2,-3.746298E-2],"categories":[],"categories_nodes":[],"categories_segments":[],"categories_sizes":[],"default_left":[0,0,0,0,0,0,0],"id":47,"left_children":[1,3,-1,5,-1,-1,-1],"loss_changes":[7.015756E-2,9.429231E-2,0E0,1.0131075E-1,0E0,0E0,0E0],"parents":[2147483647,0,0,1,1,3,3],"right_children":[2,4,-1,6,-1,-1,-1],"split_conditions":[3.13E2,3.5E2,3.8047172E-2,2E0,-6.9893524E-2,4.625305E-2,-3.746298E-2],"split_indices":[4,0,0,8,0,0,0],"split_type":[0,0,0,0,0,0,0],"sum_hessian":[6.1241474E0,4.429352E0,1.6947954E0,3.2586071E0,1.1707448E0,1.7921063E0,1.4665009E0],"tree_param":{"num_deleted":"0","num_feature":"10","num_nodes":"7","size_leaf_vector":"1"}},{"base_weights":[-7.6519507E-3,-4.3335065E-2,4.7299165E-2,1.5120056E-1,-4.4846505E-2,1.0220528E-1,-2.3097634E-2,-6.2071104E-2,4.996208E-2],"categories":[],"categories_nodes":[],"categories_segments":[],"categories_sizes":[],"default_left":[0,0,0,0,0,0,0,0,0],"id":48,"left_children":[1,-1,3,5,-1,-1,7,-1,-1],"loss_changes":[6.00312E-2,0E0,1.4123672E-1,1.4969912E-1,0E0,0E0,1.4506978E-1,0E0,0E0],"parents":[2147483647,0,0,2,2,3,3,6,6],"right_children":[2,-1,4,6,-1,-1,8,-1,-1],"split_conditions":[4.767857E0,-4.3335065E-2,3.34E2,1.616E3,-4.4846505E-2,1.0220528E-1,4.31E2,-6.2071104E-2,4.996208E-2],"split_indices":[9,0,1,3,0,0,0,0,0],"split_type":[0,0,0,0,0,0,0,0,0],"sum_hessian":[6.0769305E0,1.274763E0,4.802168E0,3.2944133E0,1.5077543E0,1.1210682E0,2.173345E0,1.0574087E0,1.1159365E0],"tree_param":{"num_deleted":"0","num_feature":"10","num_nodes":"9","size_leaf_vector":"1"}},{"base_weights":[-5.2563343E-3,4.678616E-2,-4.4611506E-2,-1.0467684E-1,2.1167363E-1,-8.8946775E-2,5.042559E-2,8.952581E-2,9.095399E-3],"categories":[],"categories_nodes":[],"categories_segments":[],"categories_sizes":[],"default_left":[0,0,0,0,0,0,0,0,0],"id":49,"left_children":[1,3,-1,5,7,-1,-1,-1,-1],"loss_changes":[5.8997907E-2,1.6890173E-1,0E0,2.450741E-1,4.0415287E-2,0E0,0E0,0E0,0E0],"parents":[2147483647,0,0,1,1,3,3,4,4],"right_children":[2,4,-1,6,8,-1,-1,-1,-1],"split_conditions":[1.947E3,6E0,-4.4611506E-2,1.23E2,2.93E2,-8.8946775E-2,5.042559E-2,8.952581E-2,9.095399E-3],"split_indices":[3,8,0,5,1,0,0,0,0],"split_type":[0,0,0,0,0,0,0,0,0],"sum_hessian":[5.9708757E0,4.875805E0,1.0950712E0,2.7316847E0,2.14412E0,1.5527606E0,1.1789241E0,1.0137379E0,1.1303821E0],"tree_param":{"num_deleted":"0","num_feature":"10","num_nodes":"9","size_leaf_vector":"1"}},{"base_weights":[-1.9081435E-3,-4.1076977E-2,4.94119E-2,1.6405591E-1,-3.3497818E-2,9.4586946E-2,-3.5748745E-3],"categories":[],"categories_nodes":[],"categories_segments":[],"categories_sizes":[],"default_left":[0,0,0,0,0,0,0],"id":50,"left_children":[1,-1,3,5,-1,-1,-1],"loss_changes":[5.4361865E-2,0E0,1.23796985E-1,1.03341386E-1,0E0,0E0,0E0],"parents":[2147483647,0,0,2,2,3,3],"right_children":[2,-1,4,6,-1,-1,-1],"split_conditions":[3E-1,-4.1076977E-2,3.61E2,4E-1,-3.3497818E-2,9.4586946E-2,-3.5748745E-3],"split_indices":[6,0,0,6,0,0,0],"split_type":[0,0,0,0,0,0,0],"sum_hessian":[5.869152E0,1.1570653E0,4.712087E0,2.741949E0,1.970138E0,1.048847E0,1.6931021E0],"tree_param":{"num_deleted":"0","num_feature":"10","num_nodes":"7","size_leaf_vector":"1"}},{"base_weights":[1.0461722E-3,-8.982234E-2,8.6475916E-2,2.7187265E-2,-6.35165E-2,-3.3115353E-2,6.1971236E-2],"categories":[],"categories_nodes":[],"categories_segments":[],"categories_sizes":[],"default_left":[0,0,0,0,0,0,0],"id":51,"left_children":[1,3,5,-1,-1,-1,-1],"loss_changes":[6.0708575E-2,1.02667645E-1,1.1795094E-1,0E0,0E0,0E0,0E0],"parents":[2147483647,0,0,1,1,2,2],"right_children":[2,4,6,-1,-1,-1,-1],"split_conditions":[4.2105263E-1,2.98E2,2.64E2,2.7187265E-2,-6.35165E-2,-3.3115353E-2,6.1971236E-2],"split_indices":[6,0,4,0,0,0,0],"split_type":[0,0,0,0,0,0,0],"sum_hessian":[5.8197823E0,2.795206E0,3.0245764E0,1.2304082E0,1.5647979E0,1.1766531E0,1.8479233E0],"tree_param":{"num_deleted":"0","num_feature":"10","num_nodes":"7","size_leaf_vector":"1"}},{"base_weights":[-5.98065E-4,-4.0324964E-2,5.3271446E-2,1.9272882E-1,-8.8240646E-2,7.835014E-2,8.853611E-3,-5.8450308E-2,2.0538533E-2],"categories":[],"categories_nodes":[],"categories_segments":[],"categories_sizes":[],"default_left":[0,0,0,0,0,0,0,0,0],"id":52,"left_children":[1,-1,3,5,7,-1,-1,-1,-1],"loss_changes":[5.5989616E-2,0E0,1.2644905E-1,2.7000189E-2,7.077335E-2,0E0,0E0,0E0,0E0],"parents":[2147483647,0,0,2,2,3,3,4,4],"right_children":[2,-1,4,6,8,-1,-1,-1,-1],"split_conditions":[4.767857E0,-4.0324964E-2,9.4E1,1.777E3,6.462963E0,7.835014E-2,8.853611E-3,-5.8450308E-2,2.0538533E-2],"split_indices":[9,0,5,3,9,0,0,0,0],"split_type":[0,0,0,0,0,0,0,0,0],"sum_hessian":[5.7735944E0,1.227962E0,4.545633E0,2.1071515E0,2.438481E0,1.0618033E0,1.0453482E0,1.3064528E0,1.1320282E0],"tree_param":{"num_deleted":"0","num_feature":"10","num_nodes":"9","size_leaf_vector":"1"}},{"base_weights":[7.625525E-4,6.4492516E-2,-3.1405773E-2,-9.227065E-2,6.664496E-2,1.9878574E-2,-6.1634686E-2],"categories":[],"categories_nodes":[],"categories_segments":[],"categories_sizes":[],"default_left":[0,0,0,0,0,0,0],"id":53,"left_children":[1,3,-1,5,-1,-1,-1],"loss_changes":[5.188246E-2,1.3924456E-1,0E0,6.951675E-2,0E0,0E0,0E0],"parents":[2147483647,0,0,1,1,3,3],"right_children":[2,4,-1,6,-1,-1,-1],"split_conditions":[3.75E2,3.36E2,-3.1405773E-2,3.3333334E-1,6.664496E-2,1.9878574E-2,-6.1634686E-2],"split_indices":[0,0,0,6,0,0,0],"split_type":[0,0,0,0,0,0,0],"sum_hessian":[5.7156963E0,3.8046656E0,1.9110307E0,2.1157022E0,1.6889635E0,1.0539436E0,1.0617584E0],"tree_param":{"num_deleted":"0","num_feature":"10","num_nodes":"7","size_leaf_vector":"1"}},{"base_weights":[-6.046061E-4,5.016944E-2,-3.9296832E-2,-5.3231884E-2,6.7625485E-2,5.832548E-2,-5.3268366E-2,-5.695087E-3,3.1982172E-2],"categories":[],"categories_nodes":[],"categories_segments":[],"categories_sizes":[],"default_left":[0,0,0,0,0,0,0,0,0],"id":54,"left_children":[1,3,-1,5,-1,7,-1,-1,-1],"loss_changes":[5.0651267E-2,1.11941606E-1,0E0,6.968654E-2,0E0,1.3249137E-2,0E0,0E0,0E0],"parents":[2147483647,0,0,1,1,3,3,5,5],"right_children":[2,4,-1,6,-1,8,-1,-1,-1],"split_conditions":[6.621212E0,6.0694447E0,-3.9296832E-2,2.24E2,6.7625485E-2,4.7083335E0,-5.3268366E-2,-5.695087E-3,3.1982172E-2],"split_indices":[9,9,0,4,0,9,0,0,0],"split_type":[0,0,0,0,0,0,0,0,0],"sum_hessian":[5.6583843E0,4.515279E0,1.1431054E0,3.277638E0,1.2376409E0,2.0073636E0,1.2702744E0,1.0049869E0,1.0023767E0],"tree_param":{"num_deleted":"0","num_feature":"10","num_nodes":"9","size_leaf_vector":"1"}},{"base_weights":[-3.3241088E-4,-6.0677625E-2,3.5070658E-2,-1.373386E-1,3.3869594E-2,3.9075047E-2,-9.080652E-2],"categories":[],"categories_nodes":[],"categories_segments":[],"categories_sizes":[],"default_left":[0,0,0,0,0,0,0],"id":55,"left_children":[1,3,-1,5,-1,-1,-1],"loss_changes":[5.3827673E-2,8.229669E-2,0E0,2.1343873E-1,0E0,0E0,0E0],"parents":[2147483647,0,0,1,1,3,3],"right_children":[2,4,-1,6,-1,-1,-1],"split_conditions":[3.13E2,3.53E2,3.5070658E-2,3.3333334E-1,3.3869594E-2,3.9075047E-2,-9.080652E-2],"split_indices":[4,1,0,6,0,0,0],"split_type":[0,0,0,0,0,0,0],"sum_hessian":[5.6059813E0,4.019443E0,1.5865383E0,2.9328873E0,1.0865558E0,1.2012142E0,1.7316731E0],"tree_param":{"num_deleted":"0","num_feature":"10","num_nodes":"7","size_leaf_vector":"1"}},{"base_weights":[1.8426996E-3,-4.3329485E-2,5.829697E-2,6.0667086E-2,-7.555777E-2,-6.734215E-2,2.1653883E-2],"categories":[],"categories_nodes":[],"categories_segments":[],"categories_sizes":[],"default_left":[0,0,0,0,0,0,0],"id":56,"left_children":[1,-1,3,-1,5,-1,-1],"loss_changes":[6.2428724E-2,0E0,1.19918235E-1,0E0,9.413243E-2,0E0,0E0],"parents":[2147483647,0,0,2,2,4,4],"right_children":[2,-1,4,-1,6,-1,-1],"split_conditions":[3E-1,-4.3329485E-2,5.5285716E0,6.0667086E-2,6.666667E-1,-6.734215E-2,2.1653883E-2],"split_indices":[6,0,9,0,7,0,0],"split_type":[0,0,0,0,0,0,0],"sum_hessian":[5.54033E0,1.1088617E0,4.4314685E0,1.8892704E0,2.5421977E0,1.0073749E0,1.534823E0],"tree_param":{"num_deleted":"0","num_feature":"10","num_nodes":"7","size_leaf_vector":"1"}},{"base_weights":[-3.311091E-3,5.0775457E-2,-4.3795843E-2,1.4246394E-1,-5.940342E-2,-6.2261466E-3,6.897504E-2,2.7092341E-2,-5.5154238E-2],"categories":[],"categories_nodes":[],"categories_segments":[],"categories_sizes":[],"default_left":[0,0,0,0,0,0,0,0,0],"id":57,"left_children":[1,3,-1,5,7,-1,-1,-1,-1],"loss_changes":[5.7556875E-2,6.3557915E-2,0E0,5.14607E-2,7.590162E-2,0E0,0E0,0E0,0E0],"parents":[2147483647,0,0,1,1,3,3,4,4],"right_children":[2,4,-1,6,8,-1,-1,-1,-1],"split_conditions":[3.6E2,9.4E1,-4.3795843E-2,2.92E2,1.702E3,-6.2261466E-3,6.897504E-2,2.7092341E-2,-5.5154238E-2],"split_indices":[1,5,0,1,3,0,0,0,0],"split_type":[0,0,0,0,0,0,0,0,0],"sum_hessian":[5.498076E0,4.4538054E0,1.0442706E0,2.270948E0,2.1828575E0,1.0583606E0,1.2125872E0,1.1153527E0,1.0675049E0],"tree_param":{"num_deleted":"0","num_feature":"10","num_nodes":"9","size_leaf_vector":"1"}},{"base_weights":[-3.8793767E-3,-9.67407E-2,8.424325E-2,1.3121106E-2,-6.344206E-2,-2.419636E-2,5.365963E-2],"categories":[],"categories_nodes":[],"categories_segments":[],"categories_sizes":[],"default_left":[0,0,0,0,0,0,0],"id":58,"left_children":[1,3,5,-1,-1,-1,-1],"loss_changes":[6.0934927E-2,6.737261E-2,7.440723E-2,0E0,0E0,0E0,0E0],"parents":[2147483647,0,0,1,1,2,2],"right_children":[2,4,6,-1,-1,-1,-1],"split_conditions":[4.2105263E-1,3.08E2,2.64E2,1.3121106E-2,-6.344206E-2,-2.419636E-2,5.365963E-2],"split_indices":[6,1,4,0,0,0,0],"split_type":[0,0,0,0,0,0,0],"sum_hessian":[5.450445E0,2.6062503E0,2.844195E0,1.449855E0,1.1563954E0,1.0908277E0,1.7533673E0],"tree_param":{"num_deleted":"0","num_feature":"10","num_nodes":"7","size_leaf_vector":"1"}},{"base_weights":[-6.19078E-3,-8.073073E-2,7.875075E-2,-5.6305062E-2,1.1025527E-2,6.702886E-2,-3.762634E-2],"categories":[],"categories_nodes":[],"categories_segments":[],"categories_sizes":[],"default_left":[0,0,0,0,0,0,0],"id":59,"left_children":[1,3,5,-1,-1,-1,-1],"loss_changes":[4.693624E-2,5.599297E-2,1.3146046E-1,0E0,0E0,0E0,0E0],"parents":[2147483647,0,0,1,1,2,2],"right_children":[2,4,6,-1,-1,-1,-1],"split_conditions":[1.17E2,6E-1,6E-1,-5.6305062E-2,1.1025527E-2,6.702886E-2,-3.762634E-2],"split_indices":[5,7,7,0,0,0,0],"split_type":[0,0,0,0,0,0,0],"sum_hessian":[5.4089704E0,2.907278E0,2.501692E0,1.2090487E0,1.6982294E0,1.4089627E0,1.0927293E0],"tree_param":{"num_deleted":"0","num_feature":"10","num_nodes":"7","size_leaf_vector":"1"}},{"base_weights":[-7.0114634E-3,-8.7175384E-2,6.984384E-2,1.5685236E-2,-6.0653612E-2,-1.3010651E-2,5.7197887E-2],"categories":[],"categories_nodes":[],"categories_segments":[],"categories_sizes":[],"default_left":[0,0,0,0,0,0,0],"id":60,"left_children":[1,3,5,-1,-1,-1,-1],"loss_changes":[4.5329124E-2,6.770368E-2,6.0338527E-2,0E0,0E0,0E0,0E0],"parents":[2147483647,0,0,1,1,2,2],"right_children":[2,4,6,-1,-1,-1,-1],"split_conditions":[4.2105263E-1,3.09E2,1.48E2,1.5685236E-2,-6.0653612E-2,-1.3010651E-2,5.7197887E-2],"split_indices":[6,0,5,0,0,0,0],"split_type":[0,0,0,0,0,0,0],"sum_hessian":[5.369147E0,2.562281E0,2.806866E0,1.4044881E0,1.1577928E0,1.779957E0,1.0269089E0],"tree_param":{"num_deleted":"0","num_feature":"10","num_nodes":"7","size_leaf_vector":"1"}},{"base_weights":[-5.184381E-3,-3.3275124E-2,5.9533156E-2,6.892153E-2,-9.919198E-2,4.0819053E-2,-8.6822525E-2],"categories":[],"categories_nodes":[],"categories_segments":[],"categories_sizes":[],"default_left":[0,0,0,0,0,0,0],"id":61,"left_children":[1,-1,3,-1,5,-1,-1],"loss_changes":[4.9919248E-2,0E0,1.4645167E-1,0E0,1.766263E-1,0E0,0E0],"parents":[2147483647,0,0,2,2,4,4],"right_children":[2,-1,4,-1,6,-1,-1],"split_conditions":[2.11E2,-3.3275124E-2,1.702E3,6.892153E-2,2.36E2,4.0819053E-2,-8.6822525E-2],"split_indices":[4,0,3,0,1,0,0],"split_type":[0,0,0,0,0,0,0],"sum_hessian":[5.330195E0,1.7527554E0,3.5774398E0,1.5103995E0,2.0670402E0,1.0513924E0,1.0156478E0],"tree_param":{"num_deleted":"0","num_feature":"10","num_nodes":"7","size_leaf_vector":"1"}},{"base_weights":[-5.673489E-3,4.5963958E-2,-4.0025875E-2,-5.325181E-2,5.8533832E-2,4.035799E-2,-7.119052E-2],"categories":[],"categories_nodes":[],"categories_segments":[],"categories_sizes":[],"default_left":[0,0,0,0,0,0,0],"id":62,"left_children":[1,3,-1,5,-1,-1,-1],"loss_changes":[4.7363676E-2,8.7264985E-2,0E0,1.6689292E-1,0E0,0E0,0E0],"parents":[2147483647,0,0,1,1,3,3],"right_children":[2,4,-1,6,-1,-1,-1],"split_conditions":[6.621212E0,2.83E2,-4.0025875E-2,2E0,5.8533832E-2,4.035799E-2,-7.119052E-2],"split_indices":[9,4,0,8,0,0,0],"split_type":[0,0,0,0,0,0,0],"sum_hessian":[5.250481E0,4.194981E0,1.0554999E0,2.9052994E0,1.2896818E0,1.5712717E0,1.3340276E0],"tree_param":{"num_deleted":"0","num_feature":"10","num_nodes":"7","size_leaf_vector":"1"}},{"base_weights":[-6.278851E-3,5.1676728E-2,-2.9672822E-2,-2.577449E-2,5.7658065E-2],"categories":[],"categories_nodes":[],"categories_segments":[],"categories_sizes":[],"default_left":[0,0,0,0,0],"id":63,"left_children":[1,3,-1,-1,-1],"loss_changes":[3.8355917E-2,1.0285949E-1,0E0,0E0,0E0],"parents":[2147483647,0,0,1,1],"right_children":[2,4,-1,-1,-1],"split_conditions":[3.75E2,3.36E2,-2.9672822E-2,-2.577449E-2,5.7658065E-2],"split_indices":[0,0,0,0,0],"split_type":[0,0,0,0,0],"sum_hessian":[5.1925807E0,3.4660923E0,1.7264884E0,1.9476072E0,1.5184852E0],"tree_param":{"num_deleted":"0","num_feature":"10","num_nodes":"5","size_leaf_vector":"1"}},{"base_weights":[-4.0943795E-3,-5.6177955E-2,2.908728E-2,3.4606613E-2,-5.4697428E-2,3.9375737E-2,-2.9918348E-2],"categories":[],"categories_nodes":[],"categories_segments":[],"categories_sizes":[],"default_left":[0,0,0,0,0,0,0],"id":64,"left_children":[1,3,-1,5,-1,-1,-1],"loss_changes":[3.784852E-2,6.008473E-2,0E0,5.945134E-2,0E0,0E0,0E0],"parents":[2147483647,0,0,1,1,3,3],"right_children":[2,4,-1,6,-1,-1,-1],"split_conditions":[3.13E2,2.42E2,2.908728E-2,3.846154E-1,-5.4697428E-2,3.9375737E-2,-2.9918348E-2],"split_indices":[4,4,0,6,0,0,0],"split_type":[0,0,0,0,0,0,0],"sum_hessian":[5.1563234E0,3.6956193E0,1.4607041E0,2.571001E0,1.1246184E0,1.5085962E0,1.0624048E0],"tree_param":{"num_deleted":"0","num_feature":"10","num_nodes":"7","size_leaf_vector":"1"}},{"base_weights":[-5.6665167E-3,4.1387793E-2,-3.6291674E-2,-4.8562225E-2,5.767026E-2,1.6438542E-2,-3.8021114E-2],"categories":[],"categories_nodes":[],"categories_segments":[],"categories_sizes":[],"default_left":[0,0,0,0,0,0,0],"id":65,"left_children":[1,3,-1,5,-1,-1,-1],"loss_changes":[3.8261473E-2,7.8507476E-2,0E0,3.9199088E-2,0E0,0E0,0E0],"parents":[2147483647,0,0,1,1,3,3],"right_children":[2,4,-1,6,-1,-1,-1],"split_conditions":[6.621212E0,6.0694447E0,-3.6291674E-2,8.6E1,5.767026E-2,1.6438542E-2,-3.8021114E-2],"split_indices":[9,9,0,5,0,0,0],"split_type":[0,0,0,0,0,0,0],"sum_hessian":[5.1291847E0,4.097944E0,1.0312408E0,2.9919229E0,1.106021E0,1.4172293E0,1.5746936E0],"tree_param":{"num_deleted":"0","num_feature":"10","num_nodes":"7","size_leaf_vector":"1"}},{"base_weights":[-4.0953066E-3,4.647744E-2,-2.9584259E-2,-1.0753898E-1,6.560163E-2,-6.936115E-2,2.3194809E-2],"categories":[],"categories_nodes":[],"categories_segments":[],"categories_sizes":[],"default_left":[0,0,0,0,0,0,0],"id":66,"left_children":[1,3,-1,5,-1,-1,-1],"loss_changes":[3.3688772E-2,1.4673777E-1,0E0,8.9265816E-2,0E0,0E0,0E0],"parents":[2147483647,0,0,1,1,3,3],"right_children":[2,4,-1,6,-1,-1,-1],"split_conditions":[1.875E3,6E0,-2.9584259E-2,3.44E2,6.560163E-2,-6.936115E-2,2.3194809E-2],"split_indices":[3,8,0,1,0,0,0],"split_type":[0,0,0,0,0,0,0],"sum_hessian":[5.0889015E0,3.646239E0,1.4426627E0,2.1229155E0,1.5233235E0,1.1217519E0,1.0011636E0],"tree_param":{"num_deleted":"0","num_feature":"10","num_nodes":"7","size_leaf_vector":"1"}},{"base_weights":[-4.7637005E-3,4.9601972E-2,-3.537519E-2,7.116834E-2,-7.229612E-2,-6.4745255E-2,3.866545E-2],"categories":[],"categories_nodes":[],"categories_segments":[],"categories_sizes":[],"default_left":[0,0,0,0,0,0,0],"id":67,"left_children":[1,3,-1,-1,5,-1,-1],"loss_changes":[4.2973347E-2,1.2648062E-1,0E0,0E0,1.3361174E-1,0E0,0E0],"parents":[2147483647,0,0,1,1,4,4],"right_children":[2,4,-1,-1,6,-1,-1],"split_conditions":[1.1E1,2.67E2,-3.537519E-2,7.116834E-2,4.7058824E-1,-6.4745255E-2,3.866545E-2],"split_indices":[8,1,0,0,6,0,0],"split_type":[0,0,0,0,0,0,0],"sum_hessian":[5.034851E0,3.7802403E0,1.2546105E0,1.1161476E0,2.6640925E0,1.5124011E0,1.1516916E0],"tree_param":{"num_deleted":"0","num_feature":"10","num_nodes":"7","size_leaf_vector":"1"}},{"base_weights":[-1.9583523E-3,5.607607E-2,-2.8742768E-2,-1.779599E-2,4.9976252E-2],"categories":[],"categories_nodes":[],"categories_segments":[],"categories_sizes":[],"default_left":[0,0,0,0,0],"id":68,"left_children":[1,3,-1,-1,-1],"loss_changes":[3.783922E-2,6.4897716E-2,0E0,0E0,0E0],"parents":[2147483647,0,0,1,1],"right_children":[2,4,-1,-1,-1],"split_conditions":[3.75E2,3.36E2,-2.8742768E-2,-1.779599E-2,4.9976252E-2],"split_indices":[0,0,0,0,0],"split_type":[0,0,0,0,0],"sum_hessian":[4.9609175E0,3.3140879E0,1.6468295E0,1.8478189E0,1.466269E0],"tree_param":{"num_deleted":"0","num_feature":"10","num_nodes":"5","size_leaf_vector":"1"}},{"base_weights":[-8.210452E-4,4.6552446E-2,-3.000855E-2,6.164498E-2,-5.8842532E-2,-5.3527333E-2,3.174352E-2],"categories":[],"categories_nodes":[],"categories_segments":[],"categories_sizes":[],"default_left":[0,0,0,0,0,0,0],"id":69,"left_children":[1,3,-1,-1,5,-1,-1],"loss_changes":[3.2543596E-2,9.079126E-2,0E0,0E0,8.980885E-2,0E0,0E0],"parents":[2147483647,0,0,1,1,4,4],"right_children":[2,4,-1,-1,6,-1,-1],"split_conditions":[1.1E1,2.67E2,-3.000855E-2,6.164498E-2,4.7058824E-1,-5.3527333E-2,3.174352E-2],"split_indices":[8,1,0,0,6,0,0],"split_type":[0,0,0,0,0,0,0],"sum_hessian":[4.9336576E0,3.6983705E0,1.2352873E0,1.0960013E0,2.602369E0,1.4590719E0,1.1432972E0],"tree_param":{"num_deleted":"0","num_feature":"10","num_nodes":"7","size_leaf_vector":"1"}},{"base_weights":[9.571182E-4,6.5502085E-2,-8.0469735E-2,-3.742687E-2,6.3884586E-2,-6.88903E-2,3.3567097E-2],"categories":[],"categories_nodes":[],"categories_segments":[],"categories_sizes":[],"default_left":[0,0,0,0,0,0,0],"id":70,"left_children":[1,3,5,-1,-1,-1,-1],"loss_changes":[3.6164068E-2,1.340146E-1,1.1314662E-1,0E0,0E0,0E0,0E0],"parents":[2147483647,0,0,1,1,2,2],"right_children":[2,4,6,-1,-1,-1,-1],"split_conditions":[4.6153846E-1,2.2E2,1.42E2,-3.742687E-2,6.3884586E-2,-6.88903E-2,3.3567097E-2],"split_indices":[6,4,5,0,0,0,0],"split_type":[0,0,0,0,0,0,0],"sum_hessian":[4.8780317E0,2.830187E0,2.047845E0,1.3028879E0,1.5272992E0,1.0442855E0,1.0035592E0],"tree_param":{"num_deleted":"0","num_feature":"10","num_nodes":"7","size_leaf_vector":"1"}},{"base_weights":[-1.059511E-3,6.737753E-2,-2.700576E-2,4.668073E-2,-2.4749825E-2],"categories":[],"categories_nodes":[],"categories_segments":[],"categories_sizes":[],"default_left":[0,0,0,0,0],"id":71,"left_children":[1,3,-1,-1,-1],"loss_changes":[4.1484203E-2,6.387811E-2,0E0,0E0,0E0],"parents":[2147483647,0,0,1,1],"right_children":[2,4,-1,-1,-1],"split_conditions":[1.777E3,2E0,-2.700576E-2,4.668073E-2,-2.4749825E-2],"split_indices":[3,2,0,0,0],"split_type":[0,0,0,0,0],"sum_hessian":[4.817696E0,2.860052E0,1.9576436E0,1.7762586E0,1.0837936E0],"tree_param":{"num_deleted":"0","num_feature":"10","num_nodes":"5","size_leaf_vector":"1"}},{"base_weights":[-1.6766445E-3,5.1862873E-2,-2.6219098E-2,-4.8558783E-2,5.3506687E-2,1.552116E-2,-3.767343E-2],"categories":[],"categories_nodes":[],"categories_segments":[],"categories_sizes":[],"default_left":[0,0,0,0,0,0,0],"id":72,"left_children":[1,3,-1,5,-1,-1,-1],"loss_changes":[3.1156128E-2,6.199101E-2,0E0,3.064744E-2,0E0,0E0,0E0],"parents":[2147483647,0,0,1,1,3,3],"right_children":[2,4,-1,6,-1,-1,-1],"split_conditions":[3.75E2,7.1428573E-1,-2.6219098E-2,1.632E3,5.3506687E-2,1.552116E-2,-3.767343E-2],"split_indices":[0,7,0,3,0,0,0],"split_type":[0,0,0,0,0,0,0],"sum_hessian":[4.801046E0,3.1983714E0,1.6026744E0,2.1263733E0,1.0719981E0,1.0662019E0,1.0601715E0],"tree_param":{"num_deleted":"0","num_feature":"10","num_nodes":"7","size_leaf_vector":"1"}},{"base_weights":[-3.3736846E-4,-5.4066706E-2,2.995385E-2,2.0391041E-2,-4.416259E-2],"categories":[],"categories_nodes":[],"categories_segments":[],"categories_sizes":[],"default_left":[0,0,0,0,0],"id":73,"left_children":[1,3,-1,-1,-1],"loss_changes":[3.6492117E-2,6.0118478E-2,0E0,0E0,0E0],"parents":[2147483647,0,0,1,1],"right_children":[2,4,-1,-1,-1],"split_conditions":[3.13E2,2E0,2.995385E-2,2.0391041E-2,-4.416259E-2],"split_indices":[4,8,0,0,0],"split_type":[0,0,0,0,0],"sum_hessian":[4.7765083E0,3.40871E0,1.3677987E0,1.5924692E0,1.8162407E0],"tree_param":{"num_deleted":"0","num_feature":"10","num_nodes":"5","size_leaf_vector":"1"}},{"base_weights":[7.299037E-4,-2.5645481E-2,5.6417488E-2,5.860371E-2,-1.8746678E-2],"categories":[],"categories_nodes":[],"categories_segments":[],"categories_sizes":[],"default_left":[0,0,0,0,0],"id":74,"left_children":[1,-1,3,-1,-1],"loss_changes":[3.2464307E-2,0E0,7.994271E-2,0E0,0E0],"parents":[2147483647,0,0,2,2],"right_children":[2,-1,4,-1,-1],"split_conditions":[3.75E-1,-2.5645481E-2,4.6153846E-1,5.860371E-2,-1.8746678E-2],"split_indices":[6,0,6,0,0],"split_type":[0,0,0,0,0],"sum_hessian":[4.7573223E0,1.6569585E0,3.1003637E0,1.1333382E0,1.9670255E0],"tree_param":{"num_deleted":"0","num_feature":"10","num_nodes":"5","size_leaf_vector":"1"}},{"base_weights":[2.9540956E-3,5.4176707E-2,-2.4456989E-2,-2.521834E-2,1.2640232E-1,-2.7812007E-3,6.0598783E-2],"categories":[],"categories_nodes":[],"categories_segments":[],"categories_sizes":[],"default_left":[0,0,0,0,0,0,0],"id":75,"left_children":[1,3,-1,-1,5,-1,-1],"loss_changes":[2.9251818E-2,5.2297022E-2,0E0,0E0,3.4084737E-2,0E0,0E0],"parents":[2147483647,0,0,1,1,4,4],"right_children":[2,4,-1,-1,6,-1,-1],"split_conditions":[3.75E2,4.767857E0,-2.4456989E-2,-2.521834E-2,5E0,-2.7812007E-3,6.0598783E-2],"split_indices":[0,9,0,0,8,0,0],"split_type":[0,0,0,0,0,0,0],"sum_hessian":[4.7393756E0,3.1736975E0,1.565678E0,1.0328952E0,2.1408021E0,1.0799338E0,1.0608684E0],"tree_param":{"num_deleted":"0","num_feature":"10","num_nodes":"7","size_leaf_vector":"1"}},{"base_weights":[3.5077806E-3,5.042442E-2,-2.9346704E-2,1.4054732E-1,-2.9715315E-2,-3.6979655E-3,6.936286E-2],"categories":[],"categories_nodes":[],"categories_segments":[],"categories_sizes":[],"default_left":[0,0,0,0,0,0,0],"id":76,"left_children":[1,3,-1,5,-1,-1,-1],"loss_changes":[3.208827E-2,7.5406484E-2,0E0,4.80446E-2,0E0,0E0,0E0],"parents":[2147483647,0,0,1,1,3,3],"right_children":[2,4,-1,6,-1,-1,-1],"split_conditions":[1.1E1,3.28E2,-2.9346704E-2,6E-1,-2.9715315E-2,-3.6979655E-3,6.936286E-2],"split_indices":[8,1,0,7,0,0,0],"split_type":[0,0,0,0,0,0,0],"sum_hessian":[4.712083E0,3.5642037E0,1.1478792E0,2.2608216E0,1.3033822E0,1.1633048E0,1.0975168E0],"tree_param":{"num_deleted":"0","num_feature":"10","num_nodes":"7","size_leaf_vector":"1"}},{"base_weights":[3.6519223E-3,-4.6015695E-2,2.8374668E-2,1.9831799E-2,-4.0590066E-2],"categories":[],"categories_nodes":[],"categories_segments":[],"categories_sizes":[],"default_left":[0,0,0,0,0],"id":77,"left_children":[1,3,-1,-1,-1],"loss_changes":[2.9990917E-2,5.2432876E-2,0E0,0E0,0E0],"parents":[2147483647,0,0,1,1],"right_children":[2,4,-1,-1,-1],"split_conditions":[3.13E2,2E0,2.8374668E-2,1.9831799E-2,-4.0590066E-2],"split_indices":[4,8,0,0,0],"split_type":[0,0,0,0,0],"sum_hessian":[4.676926E0,3.3442094E0,1.3327166E0,1.5975907E0,1.7466189E0],"tree_param":{"num_deleted":"0","num_feature":"10","num_nodes":"5","size_leaf_vector":"1"}},{"base_weights":[3.822504E-3,5.2045543E-2,-2.2950722E-2,-3.5048343E-2,4.6870187E-2,-3.094679E-2,1.5439445E-2],"categories":[],"categories_nodes":[],"categories_segments":[],"categories_sizes":[],"default_left":[0,0,0,0,0,0,0],"id":78,"left_children":[1,3,-1,5,-1,-1,-1],"loss_changes":[2.5910074E-2,4.2975336E-2,0E0,2.3384497E-2,0E0,0E0,0E0],"parents":[2147483647,0,0,1,1,3,3],"right_children":[2,4,-1,6,-1,-1,-1],"split_conditions":[3.75E2,7.1428573E-1,-2.2950722E-2,1.06E2,4.6870187E-2,-3.094679E-2,1.5439445E-2],"split_indices":[0,7,0,5,0,0,0],"split_type":[0,0,0,0,0,0,0],"sum_hessian":[4.6611342E0,3.1325629E0,1.5285711E0,2.0677128E0,1.0648502E0,1.0492868E0,1.0184258E0],"tree_param":{"num_deleted":"0","num_feature":"10","num_nodes":"7","size_leaf_vector":"1"}},{"base_weights":[4.1411123E-3,-2.3167262E-2,5.5556826E-2,-2.4257906E-2,4.5707263E-2],"categories":[],"categories_nodes":[],"categories_segments":[],"categories_sizes":[],"default_left":[0,0,0,0,0],"id":79,"left_children":[1,-1,3,-1,-1],"loss_changes":[2.7898751E-2,0E0,6.566429E-2,0E0,0E0],"parents":[2147483647,0,0,2,2],"right_children":[2,-1,4,-1,-1],"split_conditions":[3.75E-1,-2.3167262E-2,1.17E2,-2.4257906E-2,4.5707263E-2],"split_indices":[6,0,5,0,0],"split_type":[0,0,0,0,0],"sum_hessian":[4.6432815E0,1.6036111E0,3.0396702E0,1.3300188E0,1.7096516E0],"tree_param":{"num_deleted":"0","num_feature":"10","num_nodes":"5","size_leaf_vector":"1"}},{"base_weights":[2.5622468E-3,7.010743E-2,-5.9444085E-2,3.6068495E-2,-4.0175575E-3,2.8016848E-2,-6.1876073E-2],"categories":[],"categories_nodes":[],"categories_segments":[],"categories_sizes":[],"default_left":[0,0,0,0,0,0,0],"id":80,"left_children":[1,3,5,-1,-1,-1,-1],"loss_changes":[2.773445E-2,1.4801533E-2,9.7230166E-2,0E0,0E0,0E0,0E0],"parents":[2147483647,0,0,1,1,2,2],"right_children":[2,4,6,-1,-1,-1,-1],"split_conditions":[9.4E1,2.65E2,6E-1,3.6068495E-2,-4.0175575E-3,2.8016848E-2,-6.1876073E-2],"split_indices":[5,4,7,0,0,0,0],"split_type":[0,0,0,0,0,0,0],"sum_hessian":[4.6269555E0,2.1520355E0,2.4749203E0,1.0699313E0,1.0821042E0,1.3908608E0,1.0840595E0],"tree_param":{"num_deleted":"0","num_feature":"10","num_nodes":"7","size_leaf_vector":"1"}},{"base_weights":[1.3168734E-3,-4.7804143E-2,2.7560083E-2,2.0533744E-2,-4.0752713E-2],"categories":[],"categories_nodes":[],"categories_segments":[],"categories_sizes":[],"default_left":[0,0,0,0,0],"id":81,"left_children":[1,3,-1,-1,-1],"loss_changes":[2.9315507E-2,5.3209122E-2,0E0,0E0,0E0],"parents":[2147483647,0,0,1,1],"right_children":[2,4,-1,-1,-1],"split_conditions":[3.13E2,9.4E1,2.7560083E-2,2.0533744E-2,-4.0752713E-2],"split_indices":[4,5,0,0,0],"split_type":[0,0,0,0,0],"sum_hessian":[4.603503E0,3.2905414E0,1.3129622E0,1.5139683E0,1.776573E0],"tree_param":{"num_deleted":"0","num_feature":"10","num_nodes":"5","size_leaf_vector":"1"}},{"base_weights":[2.14544E-3,-2.2806419E-2,5.1969137E-2,-2.3555005E-2,4.362024E-2],"categories":[],"categories_nodes":[],"categories_segments":[],"categories_sizes":[],"default_left":[0,0,0,0,0],"id":82,"left_children":[1,-1,3,-1,-1],"loss_changes":[2.5694925E-2,0E0,6.0228255E-2,0E0,0E0],"parents":[2147483647,0,0,2,2],"right_children":[2,-1,4,-1,-1],"split_conditions":[3.75E-1,-2.2806419E-2,1.17E2,-2.3555005E-2,4.362024E-2],"split_indices":[6,0,5,0,0],"split_type":[0,0,0,0,0],"sum_hessian":[4.583213E0,1.579452E0,3.0037608E0,1.3199565E0,1.6838042E0],"tree_param":{"num_deleted":"0","num_feature":"10","num_nodes":"5","size_leaf_vector":"1"}},{"base_weights":[9.768585E-4,4.9803987E-2,-2.4537817E-2,4.3448266E-2,-2.3384213E-2],"categories":[],"categories_nodes":[],"categories_segments":[],"categories_sizes":[],"default_left":[0,0,0,0,0],"id":83,"left_children":[1,3,-1,-1,-1],"loss_changes":[2.6574258E-2,6.1343532E-2,0E0,0E0,0E0],"parents":[2147483647,0,0,1,1],"right_children":[2,4,-1,-1,-1],"split_conditions":[3.34E2,9.4E1,-2.4537817E-2,4.3448266E-2,-2.3384213E-2],"split_indices":[1,5,0,0,0],"split_type":[0,0,0,0,0],"sum_hessian":[4.5675383E0,3.1233213E0,1.4442167E0,1.7144316E0,1.4088897E0],"tree_param":{"num_deleted":"0","num_feature":"10","num_nodes":"5","size_leaf_vector":"1"}},{"base_weights":[-1.5399129E-4,2.2378225E-2,-5.3166453E-2,2.4195204E-2,-4.51821E-2],"categories":[],"categories_nodes":[],"categories_segments":[],"categories_sizes":[],"default_left":[0,0,0,0,0],"id":84,"left_children":[1,-1,3,-1,-1],"loss_changes":[2.595066E-2,0E0,6.2084757E-2,0E0,0E0],"parents":[2147483647,0,0,2,2],"right_children":[2,-1,4,-1,-1],"split_conditions":[1.662E3,2.2378225E-2,5.5285716E0,2.4195204E-2,-4.51821E-2],"split_indices":[3,0,9,0,0],"split_type":[0,0,0,0,0],"sum_hessian":[4.548093E0,1.7182459E0,2.8298473E0,1.2649603E0,1.564887E0],"tree_param":{"num_deleted":"0","num_feature":"10","num_nodes":"5","size_leaf_vector":"1"}},{"base_weights":[4.166781E-5,-6.946684E-2,6.556098E-2,2.3619475E-2,-5.228449E-2,-1.8122466E-2,4.714788E-2],"categories":[],"categories_nodes":[],"categories_segments":[],"categories_sizes":[],"default_left":[0,0,0,0,0,0,0],"id":85,"left_children":[1,3,5,-1,-1,-1,-1],"loss_changes":[2.974684E-2,6.295779E-2,4.828725E-2,0E0,0E0,0E0,0E0],"parents":[2147483647,0,0,1,1,2,2],"right_children":[2,4,6,-1,-1,-1,-1],"split_conditions":[4.2105263E-1,2.98E2,2.91E2,2.3619475E-2,-5.228449E-2,-1.8122466E-2,4.714788E-2],"split_indices":[6,0,4,0,0,0,0],"split_type":[0,0,0,0,0,0,0],"sum_hessian":[4.5317736E0,2.16971E0,2.3620636E0,1.0019276E0,1.1677823E0,1.1378161E0,1.2242477E0],"tree_param":{"num_deleted":"0","num_feature":"10","num_nodes":"7","size_leaf_vector":"1"}},{"base_weights":[-1.2057554E-5,-5.614815E-2,6.2451504E-2,-4.5113534E-2,1.6958592E-2,-4.8063355E-3,3.2377794E-2],"categories":[],"categories_nodes":[],"categories_segments":[],"categories_sizes":[],"default_left":[0,0,0,0,0,0,0],"id":86,"left_children":[1,3,5,-1,-1,-1,-1],"loss_changes":[2.2807486E-2,4.4872284E-2,1.2715758E-2,0E0,0E0,0E0,0E0],"parents":[2147483647,0,0,1,1,2,2],"right_children":[2,4,6,-1,-1,-1,-1],"split_conditions":[1.17E2,1.768E3,4.7058824E-1,-4.5113534E-2,1.6958592E-2,-4.8063355E-3,3.2377794E-2],"split_indices":[5,3,6,0,0,0,0],"split_type":[0,0,0,0,0,0,0],"sum_hessian":[4.5043964E0,2.4256063E0,2.0787902E0,1.1387136E0,1.2868928E0,1.0003078E0,1.0784825E0],"tree_param":{"num_deleted":"0","num_feature":"10","num_nodes":"7","size_leaf_vector":"1"}},{"base_weights":[-1.8624016E-4,7.237542E-2,-6.6214524E-2,-2.9239645E-2,6.2257838E-2,2.3847548E-2,-6.0468666E-2],"categories":[],"categories_nodes":[],"categories_segments":[],"categories_sizes":[],"default_left":[0,0,0,0,0,0,0],"id":87,"left_children":[1,3,5,-1,-1,-1,-1],"loss_changes":[3.107621E-2,9.118801E-2,8.296585E-2,0E0,0E0,0E0,0E0],"parents":[2147483647,0,0,1,1,2,2],"right_children":[2,4,6,-1,-1,-1,-1],"split_conditions":[1.702E3,1.21E2,4.6153846E-1,-2.9239645E-2,6.2257838E-2,2.3847548E-2,-6.0468666E-2],"split_indices":[3,5,6,0,0,0,0],"split_type":[0,0,0,0,0,0,0],"sum_hessian":[4.485961E0,2.0914445E0,2.3945162E0,1.0503417E0,1.0411026E0,1.3518685E0,1.0426478E0],"tree_param":{"num_deleted":"0","num_feature":"10","num_nodes":"7","size_leaf_vector":"1"}},{"base_weights":[-9.161435E-4,2.3546048E-2,-5.139373E-2,-4.5106348E-2,1.0216984E-2],"categories":[],"categories_nodes":[],"categories_segments":[],"categories_sizes":[],"default_left":[0,0,0,0,0],"id":88,"left_children":[1,-1,3,-1,-1],"loss_changes":[2.587085E-2,0E0,3.8396947E-2,0E0,0E0],"parents":[2147483647,0,0,2,2],"right_children":[2,-1,4,-1,-1],"split_conditions":[1.632E3,2.3546048E-2,4.2105263E-1,-4.5106348E-2,1.0216984E-2],"split_indices":[3,0,6,0,0],"split_type":[0,0,0,0,0],"sum_hessian":[4.4482884E0,1.5131567E0,2.9351315E0,1.0080945E0,1.927037E0],"tree_param":{"num_deleted":"0","num_feature":"10","num_nodes":"5","size_leaf_vector":"1"}},{"base_weights":[-2.8122682E-3,4.5883022E-2,-2.4758168E-2,-1.9997425E-2,4.1060697E-2],"categories":[],"categories_nodes":[],"categories_segments":[],"categories_sizes":[],"default_left":[0,0,0,0,0],"id":89,"left_children":[1,3,-1,-1,-1],"loss_changes":[2.4884129E-2,5.0252896E-2,0E0,0E0,0E0],"parents":[2147483647,0,0,1,1],"right_children":[2,4,-1,-1,-1],"split_conditions":[3.75E2,2.11E2,-2.4758168E-2,-1.9997425E-2,4.1060697E-2],"split_indices":[0,4,0,0,0],"split_type":[0,0,0,0,0],"sum_hessian":[4.4350667E0,3.0166833E0,1.4183832E0,1.4681277E0,1.5485556E0],"tree_param":{"num_deleted":"0","num_feature":"10","num_nodes":"5","size_leaf_vector":"1"}},{"base_weights":[-2.681704E-3,-4.7164775E-2,2.4442738E-2,1.9821497E-2,-1.1149016E-1,1.474192E-2,-6.442597E-2],"categories":[],"categories_nodes":[],"categories_segments":[],"categories_sizes":[],"default_left":[0,0,0,0,0,0,0],"id":90,"left_children":[1,3,-1,-1,5,-1,-1],"loss_changes":[2.4118016E-2,3.7788153E-2,0E0,0E0,6.0904942E-2,0E0,0E0],"parents":[2147483647,0,0,1,1,4,4],"right_children":[2,4,-1,-1,6,-1,-1],"split_conditions":[3.13E2,8.6E1,2.4442738E-2,1.9821497E-2,1.85E2,1.474192E-2,-6.442597E-2],"split_indices":[4,5,0,0,4,0,0],"split_type":[0,0,0,0,0,0,0],"sum_hessian":[4.415995E0,3.176539E0,1.2394559E0,1.1409314E0,2.0356076E0,1.0016425E0,1.0339652E0],"tree_param":{"num_deleted":"0","num_feature":"10","num_nodes":"7","size_leaf_vector":"1"}},{"base_weights":[-3.0716632E-3,3.6088787E-2,-2.5273789E-2,5.279405E-2,-5.891698E-2,-5.3832177E-2,3.2301433E-2],"categories":[],"categories_nodes":[],"categories_segments":[],"categories_sizes":[],"default_left":[0,0,0,0,0,0,0],"id":91,"left_children":[1,3,-1,-1,5,-1,-1],"loss_changes":[2.0178081E-2,6.800721E-2,0E0,0E0,8.621932E-2,0E0,0E0],"parents":[2147483647,0,0,1,1,4,4],"right_children":[2,4,-1,-1,6,-1,-1],"split_conditions":[1.1E1,2.67E2,-2.5273789E-2,5.279405E-2,4.7058824E-1,-5.3832177E-2,3.2301433E-2],"split_indices":[8,1,0,0,6,0,0],"split_type":[0,0,0,0,0,0,0],"sum_hessian":[4.391227E0,3.3368602E0,1.0543664E0,1.0048932E0,2.3319669E0,1.3082925E0,1.0236745E0],"tree_param":{"num_deleted":"0","num_feature":"10","num_nodes":"7","size_leaf_vector":"1"}},{"base_weights":[-1.1814729E-3,4.5821123E-2,-2.6313866E-2,-2.7762096E-2,5.923884E-2],"categories":[],"categories_nodes":[],"categories_segments":[],"categories_sizes":[],"default_left":[0,0,0,0,0],"id":92,"left_children":[1,3,-1,-1,-1],"loss_changes":[2.575721E-2,1.0472278E-1,0E0,0E0,0E0],"parents":[2147483647,0,0,1,1],"right_children":[2,4,-1,-1,-1],"split_conditions":[1.875E3,6E0,-2.6313866E-2,-2.7762096E-2,5.923884E-2],"split_indices":[3,8,0,0,0],"split_type":[0,0,0,0,0],"sum_hessian":[4.3447347E0,3.1203008E0,1.2244335E0,1.8353907E0,1.2849102E0],"tree_param":{"num_deleted":"0","num_feature":"10","num_nodes":"5","size_leaf_vector":"1"}},{"base_weights":[1.374509E-4,4.673681E-2,-2.3134917E-2,-1.5595496E-2,4.179972E-2],"categories":[],"categories_nodes":[],"categories_segments":[],"categories_sizes":[],"default_left":[0,0,0,0,0],"id":93,"left_children":[1,3,-1,-1,-1],"loss_changes":[2.2730637E-2,4.32285E-2,0E0,0E0,0E0],"parents":[2147483647,0,0,1,1],"right_children":[2,4,-1,-1,-1],"split_conditions":[3.75E2,3.36E2,-2.3134917E-2,-1.5595496E-2,4.179972E-2],"split_indices":[0,0,0,0,0],"split_type":[0,0,0,0,0],"sum_hessian":[4.3129377E0,2.9366057E0,1.3763319E0,1.6335543E0,1.3030515E0],"tree_param":{"num_deleted":"0","num_feature":"10","num_nodes":"5","size_leaf_vector":"1"}},{"base_weights":[6.663688E-4,4.2176064E-2,-2.5768975E-2,1.0860479E-1,-2.1716543E-2,-6.3949237E-3,5.6843087E-2],"categories":[],"categories_nodes":[],"categories_segments":[],"categories_sizes":[],"default_left":[0,0,0,0,0,0,0],"id":94,"left_children":[1,3,-1,5,-1,-1,-1],"loss_changes":[2.264846E-2,4.0201727E-2,0E0,3.6503114E-2,0E0,0E0,0E0],"parents":[2147483647,0,0,1,1,3,3],"right_children":[2,4,-1,6,-1,-1,-1],"split_conditions":[1.1E1,3.28E2,-2.5768975E-2,6E-1,-2.1716543E-2,-6.3949237E-3,5.6843087E-2],"split_indices":[8,1,0,7,0,0,0],"split_type":[0,0,0,0,0,0,0],"sum_hessian":[4.29491E0,3.24946E0,1.0454497E0,2.0897608E0,1.1596992E0,1.084281E0,1.0054799E0],"tree_param":{"num_deleted":"0","num_feature":"10","num_nodes":"7","size_leaf_vector":"1"}},{"base_weights":[1.0453288E-3,5.325024E-2,-1.9543836E-2,-3.5020914E-2,5.6236904E-2],"categories":[],"categories_nodes":[],"categories_segments":[],"categories_sizes":[],"default_left":[0,0,0,0,0],"id":95,"left_children":[1,3,-1,-1,-1],"loss_changes":[2.1682149E-2,1.0165918E-1,0E0,0E0,0E0],"parents":[2147483647,0,0,1,1],"right_children":[2,4,-1,-1,-1],"split_conditions":[4.6153846E-1,2.2E2,-1.9543836E-2,-3.5020914E-2,5.6236904E-2],"split_indices":[6,4,0,0,0],"split_type":[0,0,0,0,0],"sum_hessian":[4.2707295E0,2.4969263E0,1.7738031E0,1.1590431E0,1.3378832E0],"tree_param":{"num_deleted":"0","num_feature":"10","num_nodes":"5","size_leaf_vector":"1"}},{"base_weights":[1.0287449E-3,6.24046E-2,-2.039507E-2,-1.3690873E-2,4.6008967E-2],"categories":[],"categories_nodes":[],"categories_segments":[],"categories_sizes":[],"default_left":[0,0,0,0,0],"id":96,"left_children":[1,3,-1,-1,-1],"loss_changes":[2.6448023E-2,3.939104E-2,0E0,0E0,0E0],"parents":[2147483647,0,0,1,1],"right_children":[2,4,-1,-1,-1],"split_conditions":[3.5E2,3.17E2,-2.039507E-2,-1.3690873E-2,4.6008967E-2],"split_indices":[0,1,0,0,0],"split_type":[0,0,0,0,0],"sum_hessian":[4.242484E0,2.2961545E0,1.9463297E0,1.2772769E0,1.0188776E0],"tree_param":{"num_deleted":"0","num_feature":"10","num_nodes":"5","size_leaf_vector":"1"}},{"base_weights":[2.9804267E-3,-5.841484E-2,2.083707E-2,-4.0145338E-2,1.1174597E-2],"categories":[],"categories_nodes":[],"categories_segments":[],"categories_sizes":[],"default_left":[0,0,0,0,0],"id":97,"left_children":[1,3,-1,-1,-1],"loss_changes":[2.5409106E-2,2.8520847E-2,0E0,0E0,0E0],"parents":[2147483647,0,0,1,1],"right_children":[2,4,-1,-1,-1],"split_conditions":[1.17E2,1.768E3,2.083707E-2,-4.0145338E-2,1.1174597E-2],"split_indices":[5,3,0,0,0],"split_type":[0,0,0,0,0],"sum_hessian":[4.2315636E0,2.2629008E0,1.9686629E0,1.0424178E0,1.220483E0],"tree_param":{"num_deleted":"0","num_feature":"10","num_nodes":"5","size_leaf_vector":"1"}},{"base_weights":[4.7151351E-4,2.2256676E-2,-5.2487914E-2,1.880559E-2,-4.088052E-2],"categories":[],"categories_nodes":[],"categories_segments":[],"categories_sizes":[],"default_left":[0,0,0,0,0],"id":98,"left_children":[1,-1,3,-1,-1],"loss_changes":[2.4285065E-2,0E0,4.3521896E-2,0E0,0E0],"parents":[2147483647,0,0,2,2],"right_children":[2,-1,4,-1,-1],"split_conditions":[1.662E3,2.2256676E-2,5.5285716E0,1.880559E-2,-4.088052E-2],"split_indices":[3,0,9,0,0],"split_type":[0,0,0,0,0],"sum_hessian":[4.2230735E0,1.5979407E0,2.6251328E0,1.2114884E0,1.4136444E0],"tree_param":{"num_deleted":"0","num_feature":"10","num_nodes":"5","size_leaf_vector":"1"}},{"base_weights":[2.9000468E-4,-4.903787E-2,2.7354997E-2,1.171245E-2,-4.479555E-2],"categories":[],"categories_nodes":[],"categories_segments":[],"categories_sizes":[],"default_left":[0,0,0,0,0],"id":99,"left_children":[1,3,-1,-1,-1],"loss_changes":[2.7833527E-2,4.140633E-2,0E0,0E0,0E0],"parents":[2147483647,0,0,1,1],"right_children":[2,4,-1,-1,-1],"split_conditions":[3.13E2,2.24E2,2.7354997E-2,1.171245E-2,-4.479555E-2],"split_indices":[4,4,0,0,0],"split_type":[0,0,0,0,0],"sum_hessian":[4.2105947E0,3.0278616E0,1.182733E0,1.9371151E0,1.0907465E0],"tree_param":{"num_deleted":"0","num_feature":"10","num_nodes":"5","size_leaf_vector":"1"}}]},"name":"gbtree"},"learner_model_param":{"base_score":"1.5260866E-1","boost_from_average":"1","num_class":"0","num_feature":"10","num_target":"1"},"objective":{"name":"binary:logistic","reg_loss_param":{"scale_pos_weight":"1"}}},"version":[2,1,0]}